<?xml version="1.0" encoding="ISO-8859-1"?>
<smile version="1.0" id="Unnamed" numsamples="1000" discsamples="10000">
	<nodes>
		<cpt id="age">
			<state id="s1_below_24" />
			<state id="s2_24_38" />
			<state id="s3_38_48" />
			<state id="s4_48_66" />
			<state id="s5_66_78" />
			<state id="s6_78_up" />
			<probabilities>0.1710635422745081 0.3666349313595606 0.2276957095912164 0.2036485365928466 0.02656552317191657 0.004391757009951832</probabilities>
		</cpt>
		<cpt id="sex">
			<state id="Female" />
			<state id="Male" />
			<probabilities>0.3307945088775598 0.6692054911224403</probabilities>
		</cpt>
		<decision id="relationship">
			<state id="Husband" />
			<state id="SNot_in_family" />
			<state id="SOther_relative" />
			<state id="SOwn_child" />
			<state id="Unmarried" />
			<state id="Wife" />
		</decision>
		<cpt id="Veducation_num">
			<state id="State1" />
			<state id="State2" />
			<state id="State3" />
			<state id="State4" />
			<state id="State5" />
			<state id="State6" />
			<state id="State7" />
			<state id="State8" />
			<state id="State9" />
			<state id="State10" />
			<state id="State11" />
			<state id="State12" />
			<state id="State13" />
			<state id="State14" />
			<state id="State15" />
			<state id="State16" />
			<parents>sex relationship</parents>
			<probabilities>0.0003435324873845953 0.001461720598011346 0.01173081326212368 0.00517670348029936 0.009202030017767137 0.04254408293022964 0.01872970409871337 0.006885388623347441 0.2106339069969702 0.3872042054971984 0.02024347519407271 0.02507657704132954 0.2113334517136968 0.03551963815629017 0.007766421720200312 0.006148348182365594 0.01932398860491692 0.0144013235827875 0.1487712929476517 0.1039911427342878 0.1528364911200053 0.03400407851099659 0.02786658196277552 0.06825091206813876 0.1057327107070636 0.07148345714359386 0.03782716631077004 0.03339651396304217 0.06380025818231067 0.003851326752852512 0.04417180931468685 0.07029094609412008 0.02400888544809986 0.1208035937827678 0.06027029244733 0.03720380081580148 0.09116581073372033 0.03078029401134332 0.09618268010973122 0.07705026822848927 0.01064991760889867 0.07200341164717705 0.03966144873152613 0.03536478314446982 0.07999411213781717 0.1097819142652383 0.09551147050221891 0.01956731638537105 0.004480099853656811 0.07085395678729586 0.03429759215013138 0.02339846402548769 0.02253485062628462 0.06897633395825133 0.03241954274084184 0.06193306035452368 0.1317155706159828 0.1095846021032314 0.1141634446330947 0.0707102218158872 0.05031885128873656 0.03928184249619997 0.1198458390328159 0.04548572751757842 0.0532726836807242 0.01735401850457239 0.126095156117188 0.02644377385907138 0.0285133897690966 0.04084211423060848 0.08518845397514013 0.1083416782282827 0.07237581774106029 0.096019729791317 0.02012080120709121 0.09000631519531538 0.04925137825735738 0.1209003156396945 0.01582202391767965 0.04945234988580068 0.1248818143301882 0.07184865290035011 0.1093003534298613 0.01013678358662618 0.01726668918952212 0.09298335637482531 0.03188687461950847 0.1412126149587186 0.06134609605002413 0.02703304778158939 0.1228174057514033 0.0427067105832275 0.03946202835463434 0.02081059338905881 0.07251304797313353 0.01379393072732853 0.106057315658451 0.09690554888060214 0.0218535444472941 0.0494213215334488 0.1311869752795817 0.07818227655951163 0.009213218021982718 0.1124690581838215 0.01253433225122013 0.115260520601625 0.0359891789968526 0.02226230543105029 0.02260577891282974 0.06633197360188523 0.07638792808557854 0.04333872355426494 0.02089178727595662 0.09491295384527812 0.03096705621042567 0.08163970938935668 0.03847130179472006 0.05420975410026832 0.09978382890000498 0.08289239668902172 0.135978726351039 0.0706609467126775 0.08625283435487693 0.05578804859358533 0.03564684214504911 0.09574915797193828 0.01033815819686441 0.005816497468937517 0.03608787112553568 0.1418171318805211 0.06783672047082656 0.07880155471535602 0.07118114042127288 0.03798984627825339 0.06231851440180687 0.04507455943421158 0.0375617188069344 0.07759794073099505 0.07412252400099502 0.008578125210856057 0.1033730144919242 0.04535667774714417 0.07916911726982427 0.03313354301354257 0.04647819336996905 0.04935183402204225 0.004959946440233623 0.05212505573209245 0.07412424790587908 0.02983066712666639 0.1034941842331988 0.03009429706211096 0.05759561678049073 0.08986961838300586 0.08304506034098948 0.0767364104762315 0.03520918852834437 0.09716423740195011 0.086274810173241 0.08364663202355432 0.0407852565483481 0.02214526048683529 0.004740544118516972 0.1068503984501267 0.1352104759701871 0.002473284963528238 0.112865712157561 0.05485529646247276 0.003581794746353216 0.04097335410077072 0.1359403402384311 0.0489170263257567 0.06599358016643146 0.05456213331035632 0.1415351854161432 0.02857035653818113 0.0006930405326432625 0.0008912132629887392 0.00160427612230376 0.009716498959444075 0.008492872203190378 0.0101001533068353 0.01257484725030099 0.03484897426990604 0.233420859404589 0.3758982016367011 0.01198508500203896 0.02594321351002761 0.1866792522629479 0.06054344732084738 0.004450520126570161 0.02215754482866541</probabilities>
		</cpt>
		<cpt id="occupation">
			<state id="S_" />
			<state id="SAdm_clerical" />
			<state id="SArmed_Forces" />
			<state id="SCraft_repair" />
			<state id="SExec_managerial" />
			<state id="SFarming_fishing" />
			<state id="SHandlers_cleaners" />
			<state id="SMachine_op_inspct" />
			<state id="SOther_service" />
			<state id="SPriv_house_serv" />
			<state id="SProf_specialty" />
			<state id="SProtective_serv" />
			<state id="Sales" />
			<state id="STech_support" />
			<state id="STransport_moving" />
			<parents>sex relationship Veducation_num</parents>
			<probabilities>0.1367122475215368 0.08957336281195333 0.0001393746619968171 0.01457408702961377 0.00184410615011521 0.03070673807463504 0.01235739384482732 0.1608265003923228 0.4189939303843294 0.08887847216730782 0.04144718110590806 0.0005603559704720903 0.001367117544175016 0.001776791240061599 0.0002423411007450995 0.1088844052258882 0.0009072999963272328 4.658754198219332e-005 0.02765542507087369 0.04006685393687189 0.02045735563023854 0.0321685912059133 0.1120718862525403 0.3725072147791244 0.1593462608111069 0.0529718821281055 0.003184189419587149 0.05868846127714331 0.0005939123747747882 0.01044967434952281 0.1484466192312195 0.04814370443234176 2.548511853453621e-005 0.02824815285437507 0.005732415588275668 0.02234314614186626 0.04389083152263441 0.1490320306935191 0.3258497448655032 0.1108072021925682 0.007578754332194032 0.00174187006529796 0.08274039627712661 0.005523166766188835 0.01989647991835509 0.2002173255613296 0.04875317973111486 1.414322881812341e-005 0.04225174463052693 0.05707560137586574 0.02408995759009184 0.02800561904633861 0.1372915422598009 0.2768078316371664 0.03525632909617037 0.03587391875043073 0.008245115550303959 0.06788040799096903 0.01460448220304913 0.02363280134802393 0.1590598888843303 0.07044718945458411 1.607681599631828e-005 0.03975191759532053 0.044457845917757 0.01096802009031576 0.03390773803718368 0.1275531351302215 0.3242775798154297 0.05001781668985052 0.01378029045143845 0.004201395580389301 0.09911551262610345 0.006763423127962555 0.01568216978311659 0.153835457780921 0.0922635351863975 7.779141772927722e-006 0.03405213943398986 0.03962730203259384 0.008333024497612158 0.02376409459694615 0.08200535718629023 0.3013007085582817 0.01458150107177873 0.01973158346646327 0.003033776599635583 0.2044116636557551 0.004859374201925551 0.0181927025896364 0.1430525999572611 0.1295815087877716 6.201006668807676e-006 0.02794212827264279 0.04471577783368956 0.005587258268399929 0.03280477292213195 0.06407549695608597 0.2946320809031609 0.02696146768228247 0.03482005726636733 0.00281722035972921 0.1694532421921863 0.00766807778811623 0.01588210980350594 0.1280874211314062 0.1957078653096429 0.0002805167487151366 0.02466094780659348 0.04563081760125411 0.00644354481959102 0.02699953528861978 0.0603494414191761 0.2801398310960014 0.02072631265978517 0.04647271031477419 0.006435196103655929 0.1298260543959315 0.0103076231566272 0.01793218214822605 0.05003316976377844 0.2060511093913208 3.148724641724205e-005 0.02396585841707023 0.08276573313417579 0.004758517936040031 0.01272494936291046 0.05169445882674918 0.1238564104711248 0.007498124646791463 0.03159919070072295 0.006701718401759735 0.3714834145535049 0.0157167118240832 0.01111914532355078 0.03943537084602619 0.157433257160337 1.301484521695482e-005 0.008812116301935975 0.07339507070127624 0.001668906946159454 0.004527798401002605 0.01275542145641784 0.06148054369173064 0.00195865075510918 0.04747214720797889 0.005126381805401939 0.5608490996925692 0.02196644055805725 0.003105779630780507 0.04997785409470885 0.2198996483377805 4.224199920871344e-006 0.02740670725411462 0.1341957349581131 0.00534652153713553 0.005095888611745803 0.02778664729945377 0.09700745580926792 0.00530587035488414 0.2010644342025221 0.01306023466384437 0.100522393436339 0.108618284547003 0.004708100693166337 0.04281403995389129 0.2824565674669127 4.695184435029007e-006 0.01390562841656503 0.144188255119828 0.001605155199879681 0.00485671375324508 0.01619231138938616 0.07315128460780547 0.002994093855729906 0.181430635959324 0.0102879616219585 0.1526064350195529 0.06997126816328217 0.003534954288203911 0.02044624172410423 0.09615175363565302 1.036575355975981e-005 0.003548008418913821 0.1767247209973702 0.001142343960214395 0.00131224097794857 0.004392530182521383 0.02203470879394387 0.001331463345339801 0.2551488054596672 0.003924853641725359 0.3841657081336061 0.02861345841927017 0.001052796556162081 0.02160957039369522 0.04921417485626208 3.944846761329589e-005 0.001317771456724732 0.2461473637697786 0.0005676608554676987 0.0005050046260062104 0.001951512982173921 0.008828520251298254 0.0007623053205370029 0.5481987677084861 0.002248425153749886 0.1004174888037886 0.01754237888520343 0.0006496064692149621 0.02334178392524683 0.01883418096408011 6.669566770039141e-006 0.001212439963951896 0.07350971096809002 0.0006587078460220979 1.791953542125328e-005 0.0007391746499119063 0.005407765407393403 0.000128883237856469 0.8438754255899713 0.0004558549998303395 0.02163533281771814 0.009607903786614224 0.0005682467411219667 0.02682012775880673 0.01449677350334652 9.189782286167344e-006 0.0004878691282461844 0.1071231217239271 0.0002373755582989632 2.46907535179553e-005 0.001018485058828569 0.001948771887995343 0.0001775840826060612 0.8258041074120802 3.694752903874398e-005 0.01580275855525149 0.005740554969459985 0.0002716422963099562 0.02953097186653611 0.1561254821243363 4.596656318211951e-009 0.05623685962228794 0.0638000079979609 0.002859954520647034 0.01877301781319108 0.04430384105940365 0.3254836698196176 0.02574179683064108 0.1601615113788962 0.01464631517599252 0.01409107102224226 0.07018839121324706 0.01805710495834387 0.007966889268000658 0.3185090608922047 1.239935829622444e-008 0.01939687241344191 0.08431268700358621 0.006276329046436586 0.003036088422277572 0.06504421279495637 0.2781096570375022 0.01890094688108363 0.103617353907018 0.006683787118256139 0.05214667081733171 0.02480025564284645 0.01119917635569976 0.01550198668631992 0.3165625217706801 4.489109908843546e-011 0.03270647081038796 0.2059471718782454 0.003877205346946358 0.02043485010889832 0.02121338772048481 0.06582621982538933 0.006444758375777042 0.1934468113578836 0.009363779358299256 0.0606832772313772 0.04189120505874167 0.006100354425677894 0.02207319304900967 0.2264363870532254 3.241825773616833e-011 0.005725655108511469 0.1713171019509236 0.006953733762122937 0.01469761578545507 0.07919372629083639 0.187131110507588 0.02719185227065015 0.2000638966520671 0.005946634312956087 0.03301869841505459 0.0195392561731129 0.0007111386360683645 0.08884522733168725 0.2371464739207554 3.107687761963896e-011 0.005575215743242786 0.04606776644683514 0.004390739958519908 0.005635687069242598 0.03548244280863359 0.1418541560280388 0.01936447381439268 0.1920108091349338 0.004623844588701742 0.197059725344956 0.01300417889140347 0.008939258887579793 0.1205037178964737 0.1854561509312746 7.458322791650127e-011 0.03896538004968954 0.1224199030398873 0.001080715446755645 0.01080139043211491 0.02787536824347145 0.265563072441123 0.02977956461888828 0.03896371972949951 0.008586701594489751 0.06562276006036057 0.0765482703531562 0.007833285088232441 0.07516502081971357 0.1352576708173282 7.920845266368565e-011 0.03396663438011085 0.07465363591933048 0.002376175829771936 0.02751991573861995 0.05404833474144925 0.1373350403119146 0.02120807046534235 0.2314552609671132 0.006086926436323122 0.1329038388273781 0.05360755556665785 0.01441591909973809 0.04547680614131958 0.2127295143689902 1.514593275586498e-009 0.03125187843737134 0.1029634044049181 0.007733793784732894 0.005778953809793387 0.09971351611077206 0.2039189341423898 0.008514929459523524 0.2386101410160535 0.001378564883539337 0.02045030162255536 0.00940859355995185 0.01207066674349591 0.08903848400979773 0.3538658874375861 6.434981637728351e-011 0.01128739493951585 0.08216143938326588 0.005931396941994855 0.00705132110448582 0.05282879198682949 0.1285720410885501 0.01383842293688 0.1103339670991075 0.003375348780955595 0.08094962329731618 0.05764472966456869 0.003121151264796382 0.07872041100136104 0.1564351081169944 3.198844963005516e-010 0.02688388327142749 0.1363560640835224 0.00406891033019674 0.01965453643747822 0.05228981372905832 0.2616822610846748 0.01761742261671572 0.06237549064486225 0.004927274109787099 0.1363667536573665 0.04179282796076832 0.000829242635902505 0.111717644280452 0.08682483207084223 5.830924210373218e-011 0.03742762681342413 0.1878963266523314 0.004460361072815053 0.008173918167961076 0.01649978499353731 0.2735241491674226 0.008782793137621241 0.08936426249099119 0.01007963724109011 0.1153834947974518 0.04932860230492732 0.0005365667508232461 0.05821709260004117 0.2959849517062383 1.070899944510051e-010 0.01949323441822792 0.1281235642014077 0.006159357770648437 0.01371425584131896 0.03737689297172388 0.2540122935535797 0.009772752699411734 0.0931020391512687 0.001836775534480569 0.00925629403538232 0.06150022896923935 0.01145026643994142 0.1196988690683175 0.1400097635397784 3.023406782010234e-010 0.005154598554976634 0.1657427906361885 0.003929757177413472 0.009634896098595636 0.08836151818179128 0.0205890581435019 0.01139202636584455 0.2451064979625787 0.004267514175726054 0.143980730807134 0.02965886828140316 0.01247311070440932 0.04580953503726928 0.2206973182633188 4.046579102608323e-009 0.01814649469707671 0.1851422313986144 0.007498916321900625 0.02211471652445937 0.03044079198931113 0.1155996832736944 0.01672116289363413 0.08295802135776445 0.007790300729297789 0.2142651382252683 0.02206587227964712 0.01074981296216439 0.08925923991025864 0.1379104703351158 1.593283231882637e-010 0.04000652145240807 0.08842554396679221 0.001396741640557743 0.003489453170676468 0.03974188382920182 0.09252303123807532 0.04038987692844183 0.1099939725935585 0.006810300695977539 0.2894051775498821 0.04360402102523695 0.01704376550448877 0.1140651529637931 0.1227273931004251 7.370435569857237e-011 0.009572790942432108 0.1449274390051192 0.003779419227960316 0.003063949045142595 0.0350203192353652 0.0109763455443366 0.004844231991240648 0.3531617015384327 0.01122035904242837 0.1258565207838188 0.05019269671102862 0.01059168079477223 0.141660047964392 0.08581753625131666 5.214852777347017e-008 0.07821702238772633 0.02460626497032263 0.01047431230308299 0.02218351100492695 0.09171184946200907 0.219552235217713 0.110852749921699 0.02358339541324103 0.01995902843654459 0.1531280589194258 0.006977803494665304 0.01127613210440685 0.09306117896340919 0.397077053412357 5.295690234415073e-009 0.0102794520199064 0.005054155542996141 0.01219540639200501 0.01480911124460702 0.01916685555410101 0.2811065727935553 0.03521238274449253 0.01402603289172637 0.004423478968074874 0.1032000419626468 0.00843257012009392 0.001955702094338199 0.0485908386258304 0.153473855618098 7.344987097287216e-009 0.09237711369577252 0.068154735266272 0.02590725077333122 0.06152478964065562 0.07399134830132034 0.1696737511810539 0.0788019322005258 0.1022002302969433 0.002434262212089824 0.06264924603867372 0.05185918789249581 0.008361450911950461 0.07214398633925673 0.01992284873230662 1.69659942836165e-007 0.008654242460170939 0.1127153881660618 0.01103864774849109 0.00952234646164748 0.07328354882191708 0.3169495226517187 0.04146501459880198 0.1192104569046084 0.008361449440528251 0.1793987615857487 0.01832068063736973 0.00901293579142993 0.1226395768040624 0.1467536750858875 3.363670072440102e-009 0.05119981527127777 0.07857483946009818 0.0128152747822925 0.008016055525742053 0.08286149456860739 0.2263484849638798 0.04372107002618081 0.01390182679225236 0.01733883520320475 0.171301556848505 0.01450955592873816 0.01001793537560131 0.07246067844662461 0.1555074487863286 4.31873446952418e-009 0.05735212686629669 0.1372993830743066 0.01021660345403547 0.02749831765771341 0.05398378874580445 0.3187387434833202 0.0167554335155376 0.04034309523699788 0.008869177827852702 0.07950483643064636 0.01118203927570634 0.01028832288009461 0.08133227028295355 0.3559573578344368 9.339531663712307e-010 0.01800607652555655 0.02532096275275903 0.01834866283601915 0.02366255335234326 0.05263670087705793 0.2259464392358763 0.00596117258124269 0.09999523278111273 0.006227646553643904 0.07547107500940464 0.004117284684413657 0.007016563759226537 0.07513637996368754 0.1775975299183378 1.866427417411611e-006 0.01858386592600437 0.05183386788387894 0.01709149986978982 0.04332628862077591 0.09670828364616942 0.1748334375302024 0.03311327653129454 0.04429234709245399 0.008171731574263742 0.240169370141503 0.008135481962914519 0.01100477291130667 0.09818984726879007 0.1608865677866249 7.555922847085405e-008 0.03663107628214253 0.08612421498661405 0.004428490717383749 0.02038365742725447 0.1065309078625513 0.2107759612540194 0.05550631258878645 0.09669269567039435 0.01732274287786895 0.08683100324629814 0.008591851781168471 0.01110459469087471 0.0751996421630132 0.1050011067356685 7.272681746802643e-009 0.03276243648630172 0.09238224617461728 0.00571385197188461 0.04962727470708311 0.1414033111742181 0.1621699746065629 0.05184010941806811 0.1359234780060634 0.01316859639514018 0.0675558625726783 0.05628604639823093 0.0109660559177881 0.09303422160945032 0.1478310983476133 3.011621403364644e-009 0.05138694139031538 0.09646958715474605 0.007062964999856966 0.01023799842445008 0.0825775884083185 0.1395358975246122 0.02611831663582488 0.111130652350912 0.01703756287872839 0.1797499278026604 0.03543096405213682 0.002396275408753494 0.05583539852532062 0.1831983672811156 3.734896385827379e-009 0.01548348341854314 0.05144170934174989 0.01534180761580699 0.05053915459939895 0.1411329623725035 0.01719850958827978 0.01963946470634027 0.1449482426075895 0.008823091703564363 0.2632359395856818 0.02338451369850902 0.009797351220700098 0.06808756223742556 0.2450295415964908 4.214490406673063e-009 0.003908578954323494 0.06067093591758864 0.01370301477993174 0.008064913697954533 0.04899528118794792 0.2514090687845185 0.03590187440629095 0.03587581173228163 0.003761115454966415 0.1931050108932421 0.02763321004261861 0.003854076099928785 0.05189453962930243 0.3122401100991593 7.288797191476065e-009 0.03017661372825905 0.00514567786030112 0.01640893977347627 0.00497010831248892 0.0495529267535514 0.3418561476146991 0.02377085055615013 0.06775381970041539 0.01354335154393484 0.05021832805471264 0.02871134282349629 0.003757236261256167 0.1133180979342984 0.1252006034471223 9.938466854900921e-009 0.04723818321327778 0.1062776083746296 0.01301819097470625 0.02265289888165482 0.01579293844041781 0.2074608447060004 0.06349142197853734 0.1249353168231994 0.004010312971168059 0.1381185179421881 0.01192114261233027 0.00656391176200264 0.1351088740667573 0.1620118410114242 2.826688712871905e-008 0.02220028529718034 0.0861145433571735 0.01535529047276658 0.01654042398739479 0.05495182575073689 0.2004997958635689 0.04809128314889109 0.06767470452876698 0.02011582457415379 0.1445091904400897 0.01702146841748185 0.009804620816726948 0.193187021994247 0.1155331202141079 1.018375104059054e-008 0.0009062317481945404 0.07239299196063233 0.01437365526312828 0.05230148820743443 0.0204693655289873 0.03638240674700272 0.005354937227665212 0.2700828620295245 0.01833592095752504 0.1723904800504674 0.01224496143944248 0.01604454644788985 0.1168219175297528 0.3308296592574503 3.172279277394203e-010 0.00728910624787606 0.08573290887773316 0.00609601389371861 0.01746522818936593 0.004569769930484088 0.1857746423663562 0.008523978679764597 0.02046518706526087 0.01122704395898434 0.1874435053276881 0.01618785681453077 0.001573181543806068 0.03785174735949333 0.02358043768590215 3.892883192809074e-009 0.01685609074602711 0.09593803237794038 0.0065501453607321 0.02940447003159819 0.01482688391291861 0.2183272289418556 0.01353451047956674 0.1254585733567264 0.01479753709531313 0.3634780616274366 0.03377576225481395 0.005620514876792528 0.2413400717391522 0.08197345688315075 1.977902028875886e-010 0.0319426593487951 0.1360428316500085 0.0009708426420328777 0.01108080318862806 0.06319423804953595 0.1415502588238873 0.008026522866334254 0.0769336934748356 0.02127613517656929 0.1405763202210847 0.03854178279359038 0.006550382944605145 0.08040145939114231 0.2496505988432866 2.42715847981268e-010 0.01619316224645348 0.01644800119926727 0.0009064341759969269 0.01967303887962078 0.02556396176393639 0.2199158367119278 0.006234007248180525 0.07071178797430892 0.01031676467769179 0.254787321319185 0.02341410706390242 0.005783518262383723 0.1338518634571207 0.3093089456241296 6.056824657782521e-011 0.00337566125896435 0.02814514328896773 0.003808823707666044 0.01376143763947112 0.02278133135016196 0.1183891066386151 0.004104922937933065 0.09085522910545464 0.01285489782631786 0.2523755261148969 0.005392136204969084 0.0009949747847636959 0.1418886521951741 0.2279708278659006 1.427765609402251e-010 0.01266154011585872 0.04029231870469002 0.006749788527972271 0.005952448743200802 0.05799390769982352 0.1974998717962534 0.004025804241147938 0.06588903524500797 0.004925559055707565 0.2028225449790192 0.02345078583159204 0.007876914855875267 0.1459287163866266 0.2008159036912587 3.081383945712173e-009 0.02191726448844423 0.04379648472682256 0.009772461142785668 0.03481166104447259 0.02439339717217946 0.2406078539962742 0.02088171874283592 0.1572747999477933 0.003607758464149691 0.03948282579812096 0.04287351145388754 0.01383563986296453 0.1022605710635636 0.2630749582967943 4.255319767979374e-010 0.0004158853808494762 0.04872757123171115 0.001453486539724004 0.008341428709112208 0.04314842497404618 0.1265432433388044 0.009185494761473977 0.06965167517004757 0.005531978057160709 0.2943870454903382 0.02675805330789961 0.0005201832529426119 0.1077850312325277 0.08655553501743396 6.401184649622442e-010 0.0004190709108266514 0.05698345991818415 0.00758226283977047 0.01613422061848958 0.07207913501734185 0.4010205830507843 0.01221565644959485 0.05100546412356828 0.01319675078182837 0.1582597963318187 0.0100279718027545 0.006735061264958159 0.07638633029204588 0.3775125289793171 2.285279228999759e-011 0.01790984994153576 0.01656591734910701 0.003251975578161441 0.01395766247330573 0.05065836704443812 0.136807671747982 0.004978599602622765 0.07547254017789982 0.005486813010991508 0.1981751781925097 0.01379067928249516 0.009045886304735169 0.1448024072904817 0.2938384178665996 9.737995366474647e-011 0.01246107371693785 0.0149308017913976 0.001387715023809718 0.05329194491191935 0.06542183094443206 0.06755128970367795 0.002922657225243491 0.1736065280374739 0.002737333582399575 0.1131217972154481 0.0466941766563093 0.007232025936489829 0.08383324338819266 0.322457696230036 2.052802461864398e-010 0.01597459213323121 0.01417892396796738 0.007112001147516118 0.01785650211643104 0.03857750959828821 0.221007218125643 0.01291592085352105 0.09880704062988299 0.003270022847913196 0.1438117403005403 0.01958834677056055 0.0006092416849962143 0.1648413969694343 0.07311631423292953 5.286498075593763e-009 0.01964555420444287 0.1293778712523538 0.003121781873969942 0.002106340978083208 0.03359276903875619 0.2671622245916036 0.01364883344948058 0.1526172678407296 0.008038469357415028 0.07916745163069551 0.04474061564316913 0.008823103650438481 0.1216962021637192 0.1904684652701838 8.208869175583335e-011 0.01562730661532797 0.02624897511691616 0.0001014888554176087 0.02574181598780097 0.02253535595345483 0.3224190093829141 0.002850411129980337 0.01106499646140338 0.007325488928659097 0.2215530930339563 0.0295504196808108 0.002816971337366748 0.08030104159541329 0.2879740294001748 4.399093481675841e-010 0.04880430598447806 0.1824657194079694 0.003862937371682963 0.0573071165565256 0.04978443543535147 0.09477058776991773 0.001149139865288647 0.07981064105927518 0.01595235622990147 0.02411100462456502 0.05443656577512763 0.01927011848441966 0.09574096804990258 0.05914149527949474 1.206646750833782e-009 0.004746893199817972 0.08086014207760441 0.001091067492440522 0.03761364337974482 0.1000505152438755 0.1729565522185085 0.02185241671884106 0.2061691482947294 0.007521888188739312 0.1718652375314794 0.03827655251281437 0.002113478605360795 0.04884650123130314 0.04720355592587772 1.052725071351769e-009 0.05018812801635903 0.1298791409170062 0.00692670300648419 0.02480859701167724 0.1281661951968081 0.1971566474842756 0.02628154534480782 0.1417927687198623 0.01870695427097888 0.1358055631378975 0.02339422748940634 0.02084347119453083 0.01209636395813686 0.1327892518705302 1.752377937078277e-010 0.03110952709621035 0.1587742467556203 0.01009224383119056 0.03746433064440798 0.02529245171890355 0.268042733908654 0.013062036314319 0.08856958273228387 0.003578707692454468 0.1527014970190054 0.05311825783793239 0.01330876844511329 0.1048274499307863 0.1403315267390945 1.61748599547947e-009 0.05764858061994179 0.1095902128247421 0.009153770364722563 0.007708643759282568 0.1736616793467764 0.03612097775696287 0.03764585677755044 0.1695593742951123 0.01411941880708828 0.1200264895706651 0.007659711684121977 0.01194630590566704 0.0681666752718553 0.1486242623697068 3.468754808062404e-010 0.06070972465447214 0.06170661871098281 0.01088094224137098 0.0422146005829574 0.008058771102009523 0.2402267712274073 0.01833396288155951 0.2044378380935597 0.01293598329941817 0.04493861733573359 0.05583722275922698 0.02292800912286444 0.08469042960790239 0.1615509440281958 9.425966380541821e-011 0.03460282301885239 0.1158467638229482 0.005061066967650785 0.01680516741113775 0.05839398888512363 0.3284868634174573 0.002881110313145066 0.06542138706937595 0.006009524058300915 0.08579088918391345 0.02227321702544929 0.01218582509628757 0.06987245831009468 0.2477295493324985 3.301111285612452e-011 0.01495127707782288 0.1524500958293248 0.006184773826632077 0.006492999831319778 0.05229355615575039 0.1884874281075796 0.009374905233496335 0.1638575161149716 0.002157205173772651 0.04565049531067326 0.02698062397491239 0.01351711568813988 0.05740730645966245 0.3793348198543864 1.880048529497362e-009 0.03135721176012749 0.03589577676007439 0.00585860109618747 0.005578550913440574 0.03274650167043794 0.2412157270195526 0.01035579977339652 0.1272117147469343 0.01184572140920677 0.04534818139630249 0.01522031377662551 0.0006237714836167273 0.1108588722899354 0.1932401269311299 2.545889151019215e-010 0.01990238737762164 0.07291090084763532 0.002235966733226511 0.003801303717981333 0.0896635713622629 0.2409459005649078 0.01447965335292164 0.03195031892965598 0.006612507606836398 0.123441985462508 0.06672751024329773 0.02322899432549058 0.03952612203728539 0.4527205727859189 2.388671610294956e-010 0.01826362874095421 0.08408997461045679 0.006533492554821231 0.03104724502029454 0.0632606264669919 0.1647210199172145 0.009678240920684599 0.06048607133331094 0.01207182735699315 0.03116786920332903 0.02112574495077427 0.005307563862103269 0.07001210337326619 0.2545512064348208 1.061141021851105e-010 0.02650134949164325 0.1431650915298454 0.005245662144829617 0.02614171021233869 0.07231911390077862 0.1492355444890683 0.01383675965412286 0.08566471779392608 0.01193401244234247 0.09945869180609843 0.02738419570848349 0.01454984091232181 0.03694884994120306 0.4866063361364165 2.896221294604184e-010 0.01588598428608784 0.01864375533492016 0.003685115521585481 0.01405440844139899 0.06277791260952192 0.05952097689521804 0.01015948729398916 0.1488106168686807 0.01024340750846096 0.06725121975594861 0.05071930612838731 0.01469262298855912 0.06377744383833665 0.2246569040720443 2.157470433225393e-010 0.03503105739530991 0.1747111836729255 0.007788595366069501 0.01623413738192076 0.0866779330597325 0.06083435878160823 0.01120646213929771 0.2175605451965912 0.003048205770019383 0.07031881292697652 0.02361588038431654 0.004538479799104498 0.04818407971866918 0.2943082389378636 2.054938824159438e-009 0.04872564714231437 0.1443037466004496 0.01026959879792273 0.004468251907139294 0.02777014277576221 0.134783191064873 0.02061599390921999 0.105417704644667 0.01181121465979555 0.1224017590908936 0.02354209256698584 0.003398336128505002 0.08005865689006378 0.1629281363825829 2.848538764506526e-010 0.04876708730741174 0.09570367942287625 0.005970286748178574 0.004942382690953302 0.05628264005318889 0.1915469508064701 0.001965708363098801 0.1288562519161715 0.006639255070329779 0.178926055228039 0.03460069258142534 0.002812216254355972 0.02232483706165706 0.1202967872416844 8.94098225873081e-010 0.01404542510540557 0.2061476382897775 0.001913320876655647 0.009339140549650644 0.1079293368456718 0.2635648627525925 0.0023338734747657 0.1005895532298313 0.003509901214485988 0.1057534041370691 0.01758391515069361 0.02466800317596096 0.1250923029879268 0.1873899856614059 7.254910045846776e-009 0.01962057138778572 0.03398877404241765 0.01114141432478965 0.007794042912971609 0.007461609834048963 0.1137699392223339 0.001994480061528189 0.3612344655010332 0.003587650162124056 0.06107295727242325 0.06048101255686352 0.00537078681743788 0.03114415130022303 0.1293980759888826 2.828396875185777e-009 0.0181895839059339 0.175424260881272 0.01411981613223453 0.01793826517394913 0.0895135211264778 0.1349118616996786 0.004280222649439892 0.2359037128692958 0.003793450975729019 0.07813009366260212 0.050207872474633 0.01704510833125193 0.03331956552945914 0.3742664085345432 1.200390550314245e-009 0.008044320014037187 0.1753615096821551 0.01562282020461888 0.001183771804788537 0.1070662352757715 0.1093473098437245 0.002347254910563509 0.1319626786131163 0.006037857551410091 0.01071686801380445 0.005349856224755478 0.01937354259686175 0.04620089406793908 0.1910888495718411 4.052743806474882e-009 0.01724270614565206 0.1959924707326267 0.01035919909654096 0.008433462864323083 0.04343907138641043 0.0748713196740128 0.002701809462332402 0.2618790039681966 0.007715070707266271 0.1101538821157686 0.01396803360627774 0.01595422254806847 0.03222942503862301 0.2774204248889227 1.535551737160851e-008 0.01106191854742875 0.05390919840504446 0.01747433595802925 0.01550116866443593 0.03259129195058509 0.07452235764242726 0.003933389155854243 0.2927518637625948 0.007891027260709047 0.1636506802335354 0.001357971586654769 0.01570493154963793 0.07673288724873603 0.03455343488931241 3.385735013328767e-008 0.02582969494456132 0.1876632977204937 0.006669786932373549 0.007464748411350612 0.03630939771284064 0.1431350037740772 0.002944139146505597 0.2957680069221537 0.005517172004568008 0.122162355495504 0.04923715701210726 0.00601288392806568 0.09648465372987732 0.1169073033767599 7.443523342974981e-010 0.01006726687812353 0.1739009915348952 0.008384926491418841 0.001644962251690422 0.06854963782113752 0.1174911547664206 0.005240263836492172 0.2813501407671852 0.004040428441017075 0.05251353706896655 0.04760268972275423 0.01582204256890906 0.0656693306168368 0.3930343638940822 7.154187451141182e-008 0.02039155960549702 0.1232056926224676 0.001997515011620496 0.02251572843742134 0.08336769048137584 0.1434772760699206 0.01015855241090018 0.01208632640307905 0.006865565292428352 0.1084799353982221 0.007870955175016996 0.000879437039256882 0.01509240491454735 0.2396414083919823 1.04760456577871e-008 0.003439929736042704 0.188558063339848 0.001692088406371145 0.02241223449370581 0.07188392917661289 0.1532226578503006 0.00623243116712119 0.1499981057599784 0.00475989545439708 0.1008801890053589 0.02616570923819983 0.01602094258948806 0.1161704614460273 0.108968990872189 4.764553967600415e-008 0.01069281450372436 0.08229795489538229 0.009615962734806636 0.01160237090748749 0.05890710462229871 0.05460930744385923 0.005861075956198018 0.2968514962766187 0.006079344225743201 0.1799181986826497 0.04364981391384949 0.01477505587362614 0.09418871882033279 0.1609760181706849 1.890417188909527e-010 0.0009307856080269283 0.1659944706520667 0.009642140124801208 0.003081440464762996 0.0586112325757228 0.1277431822201769 0.00495882175499109 0.2931084247106291 0.002493301587031434 0.05990561784931939 0.008537798885685627 0.009828046386726252 0.05103770291474128 0.2579505593453279 4.668797539238758e-010 0.01454268378278604 0.2081725657557398 0.002069221913248969 0.005420762074508206 0.01094166705979997 0.1090915744878243 0.009017820388836324 0.2679526089934343 0.0002204060920638767 0.01438199695463078 0.03916482746220887 0.01003560230796962 0.2253528887816824 0.2695817203668401 2.383463585374128e-009 0.03899065592648512 0.1140195951228973 0.02350530260018265 0.004109556329217949 0.01366617414942561 0.04308354582265234 0.01421832632355308 0.03910898852860577 0.006215471259974898 0.07442449552202515 0.1171092190192563 0.01661405786373802 0.1090776038409567 0.235831947038941 1.534185402878276e-008 0.02263491310315315 0.1658855333780754 0.01690853636138141 0.01439190233142822 0.006945767463549144 0.1218475213894598 0.009564725292771409 0.07405144975249166 0.003381898406795921 0.1939191909842143 0.01492020318012936 0.01063879213479874 0.170366799139434 0.2130758334261045 5.074447016519598e-010 0.02720298879589255 0.2751447466491166 0.01087434992448244 0.009892050258857185 0.01675276307351094 0.07501948366301302 0.007756147177628415 0.04173262423215722 0.001085000639951959 0.1190819574488151 0.01647915711421061 0.01553609794938075 0.1219291776369862 0.2338661622705819 6.057742101027009e-009 0.0116472143426735 0.154705759610828 0.01287746397228701 0.006796516070157 0.0522179021569506 0.06981467474357185 0.007899215721338402 0.197237260909989 0.00678736976770355 0.07176706200591995 0.03871271593737087 0.01374149879590049 0.05158345788509416 0.03291883078934148 0.0001030759153766742 0.1064119537990786 0.157251862032517 0.03853450813628145 0.03444111374675959 0.1106513604565188 0.007431957871532783 1.173203678582054e-009 0.2128277702525762 0.03321535864366076 0.1404245941739932 0.003026062378674547 0.07117809274539112 0.0458829062992541 0.07386795463918432 0.0002984437482208632 0.06023396244073687 0.3778387400396139 0.06797374854530394 0.03740559446037989 0.01730432995178016 0.06292182923989888 2.915415742239022e-009 0.1758084123406657 0.02643503382139049 0.0009951306030152379 0.01940892274394531 0.03362498821119463 0.0971281963424119 0.03010555648349811 0.0001017151484096797 0.03496796697597226 0.2437444815719839 0.01484718580494905 0.01041931142677742 0.02031166603952807 0.01121182675389464 8.417829633937369e-009 0.1678094721767524 0.0570392464277758 0.1973822243932171 0.05430843661116576 0.06062270542583425 0.008662430668773483 0.006387214689446825 0.0001361449928550193 0.2083869853869564 0.007868067638525303 0.081490484027841 0.07138741932660982 0.03965079900184235 0.01172973635575892 9.304707756105795e-010 0.1723609925001589 0.004535287527477462 0.1360186397682285 0.06952538598504125 0.1818604112000138 0.01197906081962539 0.001116205632874477 0.0001461953684583189 0.2279794231441462 0.2143333551166629 0.05341992224190277 0.03104813396411207 0.07246473695814966 0.03473824617162224 7.677546263812698e-009 0.08618403211913664 0.02832236262429637 0.1517976056891942 0.02811124086281079 0.05835947160946184 0.0232293673756396 0.006798795469322709 0.0001787175070924744 0.2854131874615837 0.01596480501662764 0.0318209027646708 0.03428623499557011 0.06571534810579943 0.05400633467992414 2.287983157329409e-009 0.09164542104509255 0.03814113449413482 0.1677839358522503 0.04971541817976891 0.1353003947645398 0.06801092861652322 0.02991827133861218 0.0001714817968312037 0.1774151935223151 0.2379774540047543 0.04541899871802725 0.03407101680270544 0.01444349354737643 0.003923415662216215 2.586925197201117e-008 0.1893399481574551 0.02863384887563333 0.1384191699349018 0.02513196623809851 0.007124786915297918 0.002792642613786763 0.02035849751647809 0.0001065993485275872 0.2251700267273771 0.1441890619220882 0.01153184703857024 0.04535590784515422 0.106684886796966 0.02718880261049568 3.22241900181856e-010 0.1735007417197192 0.04064363599529878 0.09643420804163105 0.00520838231545926 0.1008347591862057 0.0515342539630334 0.05484534117305272 4.531612200741901e-005 0.1613427300557337 0.2107877359809367 0.03454000465438122 0.006103528421076552 0.1239589340640638 0.02662559485659438 2.263923182201805e-009 0.06729408879814233 0.04161097008363995 0.1119423975343308 0.04727561416638518 0.06209348786269887 0.04946759053600771 0.09975361123409407 0.000110466223447099 0.3419976970780562 0.0718710267181661 0.06082632919447809 0.008324534276463637 0.03861881437562666 0.05859667621160627 8.610260549955215e-010 0.0417640490867953 0.03327796282329011 0.1374619246767593 0.005992962756511996 0.05193635394767135 0.08925988734771571 0.01281658197067864 0.0001682574050178153 0.03626746716985505 0.1875448667445726 0.05784022317119252 0.0411181200941011 0.03754429669182769 0.05759523801709401 7.360301600292548e-010 0.2538148257938317 0.04466448384287737 0.02294429463548136 0.03433220205763735 0.1240892543220868 0.04443121626516079 0.0580668935550924 4.173440119597679e-005 0.2556287404512239 0.1292930751955352 0.05016693131635722 0.02380378949904791 0.02316925735938178 0.05768528869515262 8.480167328348141e-010 0.1855604010538628 0.01152339586832652 0.1340514356096799 0.01353938878625134 0.01303845109571494 0.08041641195227324 0.1197845020235626 0.0002137060610525862 0.03189275563756694 0.1752060485070139 0.05290997913945877 0.003949177295970546 0.05690327007345066 0.05503401977619107 5.54595675946412e-010 0.1912494410982656 0.003286190958621094 0.08607232728760166 0.04502243933357184 0.09805973030080388 0.08668879986049957 0.1140308684408075 0.0001854350450382929 0.2174115725438729 0.174846668390522 0.02854042201519397 0.008738307634453334 0.04933771585139994 0.02186978812608779 2.86378881808954e-011 0.1527084367757102 0.01435285509928595 0.03799465726960629 0.04742930826603665 0.04586516465284788 0.01908764972011856 0.08589070763778901 0.0001850939034392052 0.1039274939117223 0.2222960935117891 0.01008876205355367 0.05415084539760785 0.1080801199565131 0.05586556271826267 4.741739810779221e-012 0.08839699303621952 0.01724657647824459 0.1609124548906632 0.04511870488970043 0.02875294188963522 0.01581769737815116 0.01042077587685985 0.0001047733472675427 0.2654513520364163 0.1359939448373925 0.02904638849282732 0.04784256589106167 0.09465997994959043 0.04917033972730083 2.960794780627983e-011 0.1175021650124424 0.01266958008204762 0.1171561730510897 0.02021171400488012 0.08395255028306442 0.0159449415642052 0.01781289074924526 0.001787664998521356 0.03380835571999948 0.04586923201070599 0.01559380218243912 0.08787530650601201 0.09563409195393577 0.1199490121486841 0.0001717190894222299 0.3447422733451095 0.06005635859226932 0.009912410074337515 0.03105930232523794 0.1197826387398751 0.005516083176187818 0.03556855869875666 0.0006326205450092058 0.2897501291030918 0.1698174080361051 0.04772244146891427 0.01030402399125443 0.03766463522486809 0.002267377599586114 0.0007484630349631439 0.1696428572978942 0.03059542484394522 0.05237277452999876 0.0330029557988174 0.1143942466506076 0.06621192654324289 0.1105427992946301 0.0006197100824131049 0.0144745700848965 0.0528289355789367 0.04968364795997547 0.1125551161309074 0.01002495922771458 0.1516969462445061 0.0006099737156209994 0.2554923385463603 0.0206204403235184 0.09614578945574959 0.01496829583631544 0.04352455097521243 0.0472603065881682 0.07429408657025018 0.0004392664758138366 0.2293062422083681 0.07809777863039791 0.0344418445867395 0.1105939127907636 0.01916231689662584 0.1305846874972368 0.0006192346688428961 0.1569052489387146 0.01450178681566642 0.01487534008939861 0.01002417437408474 0.07889377286892886 0.06276418359992897 0.03179068789278102 0.0005892030628414542 0.2428234088029707 0.2019216893415696 0.04859856529583265 0.01860873946440465 0.05963698279006011 0.1088515782694591 0.0002131307975056193 0.03759650976988737 0.03051127837518041 0.07100922470976885 0.03876241436451171 0.04632240346329794 0.06982184007780963 0.1182836027762917 0.002341161189461475 0.1263076929140337 0.01639426908435443 0.05683613771733426 0.1823303121583112 0.005422111419593011 0.01842092461640022 0.0008151718946403561 0.09718872471627088 0.04073921256408488 0.1937771191485706 0.05855121327104541 0.01277050645179806 0.08590894680336612 0.04751661194130864 0.0004525843773724015 0.1518747479065045 0.230281698377668 0.06539129763279744 0.03516210193150081 0.01761600888128009 0.04362632234600493 0.0001955729966971351 0.1167484797661745 0.01037652139975575 0.1331012459212157 0.04632570513917129 0.01542215457918247 0.009570062946605286 0.1039414849420534 0.0001158946852876516 0.3368346592645562 0.006352235534745877 0.002520334252587479 0.01305496065060839 0.1603550967061497 0.01778594827274958 0.0003457290837294892 0.07111878617304469 0.04560175286574682 0.1274839173320393 0.02558250281939165 0.07933663447070458 0.01825983293258696 0.08833144445215484 0.001131042636536632 0.09691432067954808 0.1296830886495264 0.02807005958459368 0.09189797058756014 0.08722341578008845 0.06937820803919872 7.023084573542246e-005 0.199690542618387 0.02145286614045516 0.08692594694964168 0.03951851464155933 0.04145251546242758 0.08135202379002328 0.003877117501968442 0.002380007271391388 0.1045425929258737 0.09879165753730311 0.07508771374129426 0.03104832307759308 0.06742609611920071 0.1707918278402657 0.0008335441220885361 0.07502152694827249 0.004530369383608296 0.1616376651477431 0.04525790762057117 0.07742162697280261 0.02019688074455106 0.05154980121348682 0.0003460619998942831 0.1278298827785519 0.1322775080289317 0.03312245302923307 0.04463764368658127 0.06762360347068995 0.1296908939102836 0.0002742358412644867 0.1312992208542954 0.00320906833030867 0.1734541903662563 0.01084842390710545 0.07364013183856619 0.08726496389457102 0.07146267593755322 0.0003348891977716409 0.1179853047834475 0.01498450858637532 0.007751413055538202 0.1029906882763123 0.12721641300803 0.1756462876589999 0.0004272129857262945 0.04253167297510613 0.05286176674307836 0.1001873774973615 0.04965322789780974 0.04870159750231878 0.005850473267049138 0.08218709490398693 0.001042959209248624 0.1359618080544363 0.1520419473855779 0.03733005957367809 0.07859970866355562 0.08485471545757355 0.1096235133585585 0.0004115473184993213 0.1141126433181367 0.04704765494491687 0.01721993001262836 0.02433289789812592 0.1093830466340281 0.0121910823376042 0.07240849976909852 0.001279642089943087 0.2000797516046147 0.1290134637308751 0.02633347800490882 0.00339881213290488 0.02719091820729778 0.1331637462058139 0.0007526396531240245 0.1261717136937847 0.03956831599083038 0.1394122131684236 0.0153049737429137 0.07373074966786271 0.02223325246945739 0.05418203337699017 0.0005893496760383593 0.1092175112149302 0.08088255635070236 0.01229546395663112 0.1207365283147418 0.06987578044123703 0.1070122860865673 0.0003065780663699164 0.1010555979792418 0.003164612839353904 0.163689857601675 0.03970797829374332 0.1150506133323203 0.00809125128364201 0.01910626536824161 0.001604663499668138 0.205568768788224 0.06776447761409145 0.003163012962639892 0.1008853268458382 0.0406450838408044 0.0827865674912473 0.0001675360193860693 0.2534373969089296 0.008482834057627741 0.1127217725830311 0.0167318456963673 0.07884319704026126 0.08769701766649483 0.0564611084638603 0.005063534989677253 0.06867605492888203 0.08820455739790499 0.06632676175174271 0.06734474026916328 0.2067411753230734 0.04727918613459635 0.0005864719926171828 0.04562370892556245 0.008529675661208514 0.04483128381613587 0.07051459550386019 0.1361201271752207 0.04290777054573315 0.04779118045462306 0.001613084788653455 0.1679247362936318 0.00694248648984872 0.05894226193231213 0.1543053580154683 0.08861236645795419 0.2316290976505751 0.003943666805356746 0.03025636029966192 0.004788007223781947 0.09850598007935615 0.03529892017519421 0.02653872278784925 0.04417127474891919 0.05559080236920776 0.003293151446409734 0.146496196641035 0.02776025772632889 0.02319259174561308 0.1389878855724424 0.03615215258925013 0.3374063442747337 0.005306351591886438 0.07506323578629558 0.0007312845068990721 0.02001606175378942 0.0114270614630098 0.07440534778417962 0.06750846682114442 0.05618858461717391 0.006092409707703641 0.1326689141406537 0.07989865433816613 0.04357270948028191 0.1021271409749435 0.1798202260740121 0.1721716305182243 0.00687185570811018 0.01121206916777504 0.03746145625095576 0.07897843062811079 0.003339679437130521 0.02208777213561395 0.02706361925169312 0.06690513459680049 0.004168871677711837 0.2464135898438261 0.04522291125810617 0.03930899807417373 0.2321656523561614 0.08053285499793128 0.02233357122790239 0.003891663015718124 0.04816917926474949 0.03810520598437159 0.09171983252519685 0.03104546365984789 0.02295345226580958 0.02646734439021173 0.1819359238022967 0.004505931098003127 0.1510416090429258 0.03980954556593158 0.03854568756039649 0.05943591802875872 0.02218169326727801 0.2435688596019161 0.002817902272496544 0.1067623775396041 0.00399990033328581 0.05342209762276685 0.05511442042704781 0.01039078944708055 0.008275923173556028 0.1091868491898669 0.0005840284722016609 0.1784268289923557 0.03824186983521181 0.0482097876445988 0.195761210102285 0.09174099529019679 0.08494477017194044 0.003455607558657762 0.08754765088782619 0.006374309833759194 0.05965894805256979 0.03419491877255947 0.05339630202241468 0.07473382998203569 0.07735075788719337 0.003992656299548679 0.1302998682648924 0.06360861768289566 0.01755784507206426 0.08332060686258688 0.01506330222820955 0.2266820132885293 0.001804279202320646 0.09502667866344525 0.01638143463830158 0.1401616131222785 0.04380376152603564 0.01021273527966268 0.03962551075550964 0.04758514206129293 0.002654607878375748 0.1979583385392633 0.0171509529804425 0.006694899546756923 0.06649103658809991 0.08900985493039318 0.3226151746046301 0.005312577512859429 0.06083398039501028 0.02599497267517403 0.04894701008158708 0.02154497785385456 0.04758096359675043 0.07985218027827173 0.1323768824641664 0.001206522718687044 0.07879735018976 0.02193950835338775 0.07059399445357596 0.02238451538670083 0.1085541196767091 0.2983671121985773 0.0004460951777970226 0.03534196013006456 0.003065213339802953 0.07256640461744049 0.01405552790751987 0.06045261310753899 0.08474849006073737 0.0767405927990908 0.004532221672939922 0.2444135451933427 0.04084871466836096 0.06048577254939763 0.2203859575354152 0.06274931060538902 0.06954238190631647 0.001356214920441303 0.01546582494186002 0.01235107510270646 0.02757781112292588 0.02493329857684117 0.05386878834423479 0.01423582546299996 0.06545044571347268 0.003094175932580636 0.145714115088331 0.05121360905324193 0.07010702146227978 0.1523534339097596 0.1196187553317439 0.1892110400601157 0.004169705716167441 0.04765394857478159 0.01199493464455577 0.05193296033614245 0.02970106389113948 0.04354896482268816 0.04114681449612519 0.02991801016413155 0.008344675355700841 0.2178671934738812 0.0795787956758561 0.01634500078487488 0.2052674443713926 0.007407995515425856 0.04057354799002528 0.007279806085661281 0.07488664523453147 0.02755824051558448 0.2064027804181455 0.003898406794214974 0.03352464312444898 0.06553721235206907 0.06484307033529098 0.004646280332688791 0.1357674564723192 0.03037848752147291 0.0268695085888487 0.2329289063700815 0.1354264807380691 0.04416112764226566 0.002791814944730696 0.01441102114749183 0.0277854703467929 0.08930366798399883 0.03609993827091998 0.08904955695295977 0.0359682779085011 0.07650059580415126 0.0005009052712327246 0.06278384639593855 0.02033440900908414 0.07103946697440883 0.1653270939513294 0.09412608581494456 0.2372179802622198 0.001630618668559442 0.05201680707113052 0.02083177316493269 0.06726354105105545 0.005391473080492753 0.08906712557201864 0.01735256195411614 0.09144311427237606 0.004754412380931591 0.07732144728924482 0.07520466327262482 0.06772830596467043 0.1259283720469655 0.1647952887758427 0.06358580225601077 0.002505079751391431 0.03183182668191197 0.01098345296627024 0.1450953736034259 0.05357792394589299 0.06789237483832462 0.1452937192012163 0.1160771812670618 0.0002549524579511475 0.1641908883427624 0.04220206050969545 0.04606808986312592 0.1370094872975402 0.1158992370546045 0.04762293132840951 0.001880267525129301 0.06486535876151681 0.009405634467590502 0.02842247286041878 0.0067092443884516 0.07409847467452596 0.05374343870570746 0.0233459195410595 3.84333114118601e-005 0.1374360798705855 0.04697303749293492 0.0920707544102803 0.06638028442351522 0.05999176200274502 0.2151836182558699 0.0002174598630414382 0.04495831693788894 0.019781154035419 0.1173357059752887 0.02836472179185699 0.09417931338239489 0.05491870691507983 0.08992108129770803 0.0006777516136993958 0.06649742839540679 0.03228446650458904 0.04712435020792544 0.2153218501124385 0.09373765701031478 0.1519826703530288 0.0009678718158808791 0.05587383963841601 0.03137464311688173 0.06328425316148137 0.04397643265168537 0.05205699720546421 0.04449615547700751 0.01806855616323274 0.0002576386001523725 0.08136812455788615 0.08623317402658912 0.1003181703441967 0.005321475301759625 0.06012419501513772 0.2188746408691055 0.00215545230289188 0.04616274115214195 0.02564577075700517 0.1615488793083462 0.02325873266850978 0.1261662934560376 0.1152720179004747 0.06644677099071954 0.0001257818230692839 0.02265948860454281 0.001906098176642123 0.09825701967398132 0.07712122091956163 0.09416955745979923 0.1849855926220699 0.002620826791780729 0.04749176972121205 0.04109236230168483 0.1721852394387068 0.02451030761948771 0.05115594595626739 0.1236552703469262 0.07472364657727203 0.0006329186575009892 0.08699467458968997 0.0472782571540525 0.09291664220534877 0.1247325047272289 0.05274747634038965 0.1204914932138716 0.00151264993408499 0.01713755610227146 0.001653676751327108 0.1467804515918484 0.009118376115306529 0.09962440569288099 0.1074895266213162 0.04521601714404491 0.0002667000688182096 0.1039244189984453 0.0475265673750484 0.08704839850453498 0.1839419826615538 0.03515020206408075 0.06290787334317366 0.001190697032485863 0.05570769120459618 0.003410823023286076 0.1744537461501693 0.03476572884740826 0.05699962696103812 0.04997377963892596 0.1212391352579918 0.001453403220693079 0.01990237135335353 0.05240771982280109 0.06557477178493174 0.2637814549150209 0.02701856255066119 0.0282060767108694 0.00200628574083193 0.08983537546292954 0.02229432643859857 0.2027385480663257 0.03969169398475184 0.01387649505131399 0.1424068705564881 0.04360953276236911 2.986950766026075e-005 0.01055020109043065 0.04265758510372789 0.03193863001616355 0.1122891998387381 0.08808849463910039 0.2286086745199986 0.0007267703209743681 0.0577452084936748 0.02802074021014375 0.1383473458617734 0.04397613630927211 0.031004740769485 0.08002714748051638 0.1722322027911401 0.0002719640476832325 0.039559930490326 0.05524277277271703 0.01284445126437642 0.2412505070318287 0.0174531567298179 0.1303681712472606 0.002191045080370103 0.08188850612559882 0.03837060688215147 0.1094935422589843 0.002869484349991953 0.01593651144723719 0.1182965107191851 0.1405489845417656 0.0006286412125456898 0.07645094962757881 0.04005831997221562 0.001041870594828919 0.2082502762460516 0.09318725279804244 0.1379170568789681 0.00171115751076351 0.03468736836940694 0.009802007946008225 0.07636701177847116 0.02397942918919893 0.03707316261496938 0.07972202711449637 0.05978301845501409 0.0006795518329303609 0.185634468891295 0.07298397683736105 0.003150148178726648 0.1242791225482896 0.07769451422896259 0.2101763852463678 0.0006029914563031494 0.0748223521132035 0.02222274926162114 0.01253703099666943 0.01499585255215261 0.06071581028660686 0.1739912952745464 0.09293158117683958 0.001116728856565899 0.1013299921108792 0.03393945694187826 0.008102332862740024 0.1086045298239837 0.02482464845980688 0.2163980767062697 0.001125090621259798 0.03757652800829616 0.04806922116578948 0.002636223271767071 0.02379058561485665 0.1255637091045213 0.07636662869139292 0.1459802559301968 0.0003029196586361795 0.2567073404711908 0.04196578572852187 0.06209467718161704 0.07797128412321797 0.06642998477730748 0.1245935272637527 0.0009962989451499326 0.02582704101351552 0.00282103889926808 0.09371675953012781 0.01308285386629253 0.01114360391981239 0.1278685431248748 0.0890766435692409 0.0001200936977684779 0.2132907140121016 0.04261009399852791 0.06647512452391419 0.05258165619840648 0.05045862468081187 0.1644382594069093 0.0004570662382673898 0.02606074148486786 0.02632732923618233 0.1082412466530724 0.0119263630141353 0.02006750016091929 0.1056304923557665 0.03061715300158274 0.0001662132792393019 0.2169003343145728 0.002769493796489987 0.007677983312740402 0.1520369102166083 0.05124214778664971 0.2078930410953255 0.002097417609453489 0.02858997038787981 0.0329893379546648 0.02772867707881762 0.03416159081496583 0.09949923699524318 0.005897659135420426 0.01997468347696536 1.835312604840992e-006 0.3181746046782372 0.02607824306739885 0.02745121748598611 0.1042427319796188 0.07996419081507615 0.105329402052505 3.96230129008493e-006 0.07471045741926169 0.004468288461888075 0.118570164646042 0.003521924784556155 0.1116106343831494 0.01731620230207691 0.08907864652339656 6.611007709700846e-006 0.1683676781787903 0.07105537333756345 0.04561116113733763 0.09055933652824805 0.0518099896314352 0.1355316908821474 7.655339200729954e-005 0.1067770035403111 0.02683322059255942 0.1542381111939274 0.01020069105469203 0.03253773069779761 0.04961697074422395 0.05763513231852255 8.208240083294197e-007 0.2242421063983538 0.09446506819666976 0.02916475236730996 0.08282839125704714 0.08467374770353939 0.0818558104367979 1.208247979077603e-005 0.05454398267754643 0.02437932640186925 0.1108406635123199 0.03404520094068184 0.07169594374131917 0.03335656856715335 0.1512878048156142 3.366955847770868e-008 0.06958350693687183 0.132058900773844 0.01911441903647579 0.1608289752138413 0.06435521713841919 0.0613846710702571 2.841519496985616e-007 0.04294580512249281 0.01154376710098784 0.01946271718517166 0.04762891592231063 0.1864484132950522 0.0239789133254823 0.02013698062392823 1.521326205006553e-008 0.1957712534482248 0.09803379315013094 0.09558351687779643 0.01813342869682227 0.1275518666269879 0.07218965053271963 1.602402931386764e-007 0.08473379134783859 0.02985860817269056 0.1786104585046248 0.02811917174384896 0.02729839149534926 0.05514067491586093 0.01416384035369096 1.005263993633646e-006 0.1977145099802231 0.06638604599450106 0.07775132904890295 0.0603413137850783 0.08475904952576001 0.05750454893323579 6.379334431033952e-006 0.112797026680675 0.01655486682565819 0.09258934080843181 0.01483660993235305 0.149453458617204 0.0512769497166218 0.08724191653840967 1.001328455384124e-007 0.2452167816668342 0.112671182286773 0.1020148121739423 0.02860988489356344 0.008467500933383377 0.02654952468048998 1.473949434146202e-006 0.1319939215199606 0.02417220017028377 0.04345231263403642 0.0168891065423707 0.1214423321610511 0.01641765888793922 0.06077296257351473 8.636106735997921e-007 0.123928742367293 0.1547964354971421 0.02029339362278763 0.05862161076850835 0.1428193485103557 0.0127042640163511 2.160259606889603e-007 0.1230317212289248 0.02404246227294452 0.1120924920081948 0.004209647977063781 0.1462681806323459 0.01934936664741279 0.05791953007080388 3.825274797381469e-006 0.1384402689843577 0.1059455189909848 0.05484286290888365 0.05220300432777983 0.1562543620535943 0.05885073235218589 3.083935648786577e-006 0.09464160132573334 0.03009438349087635 0.1185830385397124 0.01451785477276999 0.09835056632445882 0.01933010193959384 0.0772143710432473 2.114457681692591e-007 0.2124482757091737 0.03442277039301322 0.09169690045225853 0.09481786725353233 0.04228118791580218 0.06170501312081175 1.077312477211546e-007 0.07084362312779971 0.003939276405051539 0.1530263886212628 0.006001311195336388 0.1322725936461008 0.01493063983171497 0.02019769609034038 4.699850613851352e-008 0.3523649090981911 0.01440251332983888 0.04228825543800643 0.01478416324250161 0.09070306655355355 0.06441891884510347 1.998577156907594e-007 0.1010436371979521 0.0244884573493273 0.1182033149319891 0.002864497922468172 0.139309683312791 0.02700822675584397 0.02473553362599239 4.778813970002111e-007 0.3248681130235107 0.2040148144393036 0.002957337747671347 0.08919681523117218 0.1479582484040439 0.06181200014658271 1.031709841063057e-006 0.009550584518187254 0.02118089719667475 0.03659681165613133 0.03669051822844522 0.0134285894352023 0.02846300510501998 0.08932692209762466 1.258920457937603e-007 0.3015807950387102 0.06740907025606359 0.1047585211985478 0.0893255155655427 0.05835210994233042 0.01573799223771427 5.474586495758677e-008 0.06456598849957322 0.01820074941493466 0.04109610018140767 0.01415888705710215 0.1070241627675179 0.08019861817188878 0.08549080842986102 3.99683106944651e-007 0.1971125810925616 0.1358360811447817 0.08535213369055515 0.1132557654274088 0.02899947834839874 0.1240225144965752 2.614804967457498e-008 0.03633340646159708 0.02035632812944129 0.0490305766924892 0.008226771810321377 0.03578451027296351 0.06437599786739583 0.09187251807317617 5.559430964062499e-008 0.1397644237443389 0.1103209550685535 0.03405807167629161 0.06395929579311172 0.1518762801739565 0.1331274565353895 3.637088345362753e-009 0.112354286499751 0.01144650361685428 0.057700649098871 0.01200471481296911 0.01713878780794262 0.004800578545106221 0.07738842956396759 1.222403546056667e-007 0.1900646956828764 0.0498140793535736 0.07284250634098353 0.08185267265094616 0.1058055511496235 0.06747145481496528 7.997202806245376e-009 0.09921673872255785 0.006095542118307528 0.1380250840010245 0.02102932511394728 0.08559321170456287 0.08158081122498979 0.02184955304733874 0.001658395306329922 0.1239510516099783 0.002696924375264642 0.2469890518165169 0.05029983885819756 0.2421190820286941 0.1874564954174683 0.002917464908534349 0.02774617342035871 0.001953132567705824 0.005478614197543827 0.001446698787778753 0.001856712433300276 0.05551960810931099 0.0001891100893811376 0.0004736681052323771 0.2009783643806353 0.0352325295518167 0.1406026887142791 0.1118849982625484 0.1441677766130952 0.1424057622089764 0.004469418782664934 0.03030076644448867 0.009483458005693307 0.0554685134917658 0.000413203698197644 0.06841013354191389 0.06790552328931315 0.009002380707395319 0.0002324583137859414 0.1841675472646849 0.00527837530470912 0.1377661548347279 0.1369517879982065 0.1719908007964563 0.1117543249390812 0.00278824699303779 0.003889198590161567 0.004654120960459733 0.04331654937869866 0.003447339552369241 0.1168551910769126 0.07511712166771674 0.007476929926418931 0.0001058058027180396 0.2259280684008525 0.05986861175109744 0.1218250896738384 0.07167068712882185 0.1299486812478497 0.07786240624266592 0.0007276170009840111 0.01509884072108413 0.01806846049373924 0.07498683970138714 0.007476262867954128 0.1138385773728717 0.07013413829469162 0.0126974217156549 0.0001413489113980043 0.24981305746503 0.04827743761342569 0.06518691822663587 0.1019827500239571 0.1418896569513924 0.1072007636168572 0.00121317090251954 0.006816393650482353 0.01082055374764099 0.0909779660467125 0.00406908222289536 0.08877934061070641 0.0770798221321651 0.01889719865915206 7.772121448392685e-005 0.2431738771748883 0.04816095906264591 0.05627951369071724 0.08122030891462412 0.1036614526785447 0.1131870064122231 0.000401897175319345 0.01109107636817682 0.008878814332860134 0.1175324280091198 0.003322199557078832 0.1170357246180006 0.0719124502542154 0.02662774844767868 6.215758976815552e-005 0.2001963125224836 0.05296249058802833 0.03785911868998214 0.112487554678535 0.08126267695903543 0.1110453889091178 0.0007455560953828859 0.01963655567891221 0.008272109433768991 0.1691632468286749 0.005259639251440435 0.1025069940729761 0.05944608365211333 0.03712856192781095 0.00259596719127738 0.1631228464478605 0.08067170181609151 0.04030928010970471 0.08547363316582664 0.07066117121841786 0.0974773679858339 0.0005291359584937647 0.02419592719999202 0.01744478712158096 0.2075631538363594 0.006527342714461483 0.1068530396541757 0.01764519505837772 0.02970478990240351 0.0002214250569803715 0.1204618963913476 0.28657878993953 0.02262057178135503 0.03061142997420509 0.04599421908168021 0.0327490797277115 0.000145462003768658 0.01250178157687231 0.01380516948879664 0.3290498654299832 0.007562950410323714 0.0503473741766645 0.01747658850047072 0.02852005075345969 0.000115009409889539 0.05565948867134364 0.3399872364169739 0.009969336965018089 0.01368727276044001 0.01426120933015926 0.02042775290555792 4.774811154706913e-005 0.02360136428074068 0.01326993518655884 0.4320224480083111 0.01328285823568958 0.01767170046384005 0.02917495744980257 0.05247352544135674 4.91700587113631e-005 0.2280225236841676 0.1566002864590098 0.04206950179966233 0.02029138363279159 0.04092225765619733 0.04245705890233013 0.0001703796511598828 0.1316725916696689 0.04453184907390485 0.08976141544407422 0.08651604994990936 0.03528704912725354 0.02870852234517932 0.07742110910822042 6.277705274200315e-005 0.1328934298301063 0.2146055429652506 0.01450791763835969 0.02221397332513712 0.02739203431056083 0.03677551403790309 0.0001104379925202033 0.136478032677682 0.04029406537278092 0.1740850989922182 0.06401849959910938 0.03043304475222992 0.01153958427545931 0.02218283065128199 0.0001166544171504298 0.0285397112370325 0.4597476943071776 0.00869034432198647 0.005051837551083518 0.006254350805982832 0.009323868781188301 4.133656184033054e-005 0.1615465593967576 0.01293859921782396 0.2443630448727492 0.02203475072677448 0.007628832875711524 0.01332008670538375 0.01240035757899096 0.0004848581417152838 0.01157681986695198 0.4324902810746781 0.004716428858658671 0.002123319675433328 0.003034751773901893 0.004080007877101501 2.584748749465732e-005 0.3790761619867681 0.0080951793618714 0.1086808669166272 0.01475402524674395 0.005141007447679166 0.0193474766309155 0.006381460820566931 0.0001102329797780151 0.01432315823725296 0.1123589272046209 0.007359470090624701 0.0001013155581241619 0.00154571051393951 0.003360626865055944 5.876451937532237e-006 0.784686403372167 0.002207009133651478 0.0312987356585798 0.01086625890091589 0.006047337581869759 0.02007054057148638 0.004434581725822001 0.0001371282982323884 0.005203431305087856 0.2185244016563154 0.002394405208465096 0.0001260351493537492 0.00192284244482257 0.001093380687781917 7.310224720958981e-006 0.6932705745850721 0.0001614993386736423 0.04418235623924687 0.005861560124550402 0.002609952440368547</probabilities>
		</cpt>
		<cpt id="workclass">
			<state id="S_" />
			<state id="SFederal_gov" />
			<state id="SLocal_gov" />
			<state id="SNever_worked" />
			<state id="Private" />
			<state id="SSelf_emp_inc" />
			<state id="SSelf_emp_not_inc" />
			<state id="SState_gov" />
			<state id="SWithout_pay" />
			<parents>occupation</parents>
			<probabilities>0.9962018446770731 1.77204497581932e-011 1.77204497581932e-011 0.003798155198883559 1.77204497581932e-011 1.77204497581932e-011 1.77204497581932e-011 1.77204497581932e-011 1.77204497581932e-011 2.071991136873239e-012 0.08408488063710874 0.07506631299801964 2.071991136873239e-012 0.7514588859297033 0.008222811673006184 0.01326259947132069 0.06710875331647041 0.0007957559702269131 0.0001111111111111111 0.999111111111111 0.0001111111111111111 0.0001111111111111111 0.0001111111111111111 0.0001111111111111111 0.0001111111111111111 0.0001111111111111111 0.0001111111111111111 1.612151755069007e-012 0.01561356428535731 0.03561844352390578 1.612151755069007e-012 0.7794584044792023 0.02585996584656506 0.1295437911683102 0.01366186874988916 0.0002439619435456698 1.651714469493415e-012 0.04426955238663061 0.05263157894823775 1.651714469493415e-012 0.6618298081570864 0.09837678307938261 0.09640924741782798 0.04648303000587956 1.651714469493415e-012 1.127945843823406e-010 0.008048289843054937 0.02917505038498836 1.127945843823406e-010 0.4577464785213521 0.05130784714320433 0.4325955731142885 0.01509054335703275 0.00603621741048985 4.311666149014282e-011 0.01678832120448517 0.0343065693728697 4.311666149014282e-011 0.9291970799745126 0.001459854057148706 0.01094890514835699 0.00656934310626086 0.0007299270501326835 1.382657592119136e-011 0.006993007005963363 0.00599400600708668 1.382657592119136e-011 0.9555444554393748 0.006493506506525022 0.01798201799360689 0.006493506506525022 0.0004995005132649179 3.103100787194686e-012 0.0106221547827761 0.05857359635958562 3.103100787194686e-012 0.8315629741832177 0.008194233690279412 0.05311077390146808 0.03763277693680171 0.0003034901396651864 3.292181069958846e-008 3.292181069958846e-008 3.292181069958846e-008 3.292181069958846e-008 0.9999997366255142 3.292181069958846e-008 3.292181069958846e-008 3.292181069958846e-008 3.292181069958846e-008 1.56473861043424e-012 0.04227053140193565 0.1702898550716304 1.56473861043424e-012 0.55869565216761 0.03864734299618956 0.09009661835778386 0.1000000000001565 1.56473861043424e-012 4.045921205684519e-010 0.0431432976280787 0.4684129416881606 4.045921205684519e-010 0.2927580887068225 0.007704160623071867 0.009244992666767815 0.1787365174733222 4.045921205684519e-010 2.283084532100461e-012 0.003835616440560435 0.00191780822142176 2.283084532100461e-012 0.806027397245995 0.07972602739790517 0.1054794520549102 0.003013698632358146 2.283084532100461e-012 1.385831244531915e-010 0.07327586211615544 0.04094827594957942 1.385831244531915e-010 0.7931034474252483 0.003232758755240727 0.02801724148294902 0.06142241385507757 1.385831244531915e-010 2.722871621549304e-011 0.01565435193322342 0.07201001879480436 2.722871621549304e-011 0.7927363805468005 0.016906700085703 0.07639323732848288 0.02567313715306003 0.0006261741034685045</probabilities>
		</cpt>
		<cpt id="Vmarital_status">
			<state id="Divorced" />
			<state id="SMarried_AF_spouse" />
			<state id="SMarried_civ_spouse" />
			<state id="SMarried_spouse_absent" />
			<state id="SNever_married" />
			<state id="Separated" />
			<state id="Widowed" />
			<parents>age</parents>
			<probabilities>0.1416153602879633 0.1231085622870579 0.09580625881948496 0.1756710559247052 0.1004741641208005 0.1813958374237818 0.1819287611362064 0.03078680545647374 0.1393664612833051 0.3345044041108231 0.09921187817396625 0.1468873092254794 0.2200727507828336 0.02917039096711867 0.106566908251945 0.322757972388879 0.06011952098704426 0.2309946128209113 0.09393330497557591 0.1376287718342789 0.04799890874136542 0.04832616553619133 0.05173829309685916 0.1226626724348258 0.2102141386151419 0.19758661493633 0.1687526577661767 0.2007194576144752 0.09439383115365703 0.2350982415349615 0.1807597286958538 0.1498542880603234 0.09453779198761717 0.1945912691722463 0.05076484939534093 0.1327929749850824 0.07241720554250124 0.08571371348707174 0.1659172797548348 0.1006280565171671 0.2751454272177759 0.1673853424955668</probabilities>
		</cpt>
		<cpt id="Vnative_country">
			<state id="S_" />
			<state id="Cambodia" />
			<state id="Canada" />
			<state id="China" />
			<state id="Columbia" />
			<state id="Cuba" />
			<state id="SDominican_Republic" />
			<state id="Ecuador" />
			<state id="SEl_Salvador" />
			<state id="England" />
			<state id="France" />
			<state id="Germany" />
			<state id="Greece" />
			<state id="Guatemala" />
			<state id="Haiti" />
			<state id="SHoland_Netherlands" />
			<state id="Honduras" />
			<state id="Hong" />
			<state id="Hungary" />
			<state id="India" />
			<state id="Iran" />
			<state id="Ireland" />
			<state id="Italy" />
			<state id="Jamaica" />
			<state id="Japan" />
			<state id="Laos" />
			<state id="Mexico" />
			<state id="Nicaragua" />
			<state id="SOutlying_US_Guam_USVI_etc_" />
			<state id="Peru" />
			<state id="Philippines" />
			<state id="Poland" />
			<state id="Portugal" />
			<state id="SPuerto_Rico" />
			<state id="Scotland" />
			<state id="South" />
			<state id="Taiwan" />
			<state id="Thailand" />
			<state id="STrinadad_Tobago" />
			<state id="SUnited_States" />
			<state id="Vietnam" />
			<state id="Yugoslavia" />
			<probabilities>0.01226252481014 0.005194113692211585 0.002677348824026417 0.02628156123538875 0.03812472373199914 0.005590869382030091 0.009821557441382241 0.002223244198853176 0.05619182598798079 0.01904945957255765 0.02628277984958225 0.03020054228968845 0.03249974902305783 0.05931104725434379 0.006064882796956485 0.03556788891166293 0.01136122975380091 0.00240405996655305 0.008283431681986321 0.03274764181546008 0.009270821362157363 0.009908869892329544 0.001171886927861592 0.04544211235247285 0.005983524895401137 0.01095948913648033 0.0227330619331072 0.07137659181515607 0.005899663562635809 0.001567252411388871 0.04572804898550574 0.01327577778442569 0.01867572046307753 0.006069938618808102 0.05887682546312247 0.02767989061020032 0.0405050213989898 0.006555092153232851 0.06470332312359635 0.05961830584709139 0.002770490461064301 0.04908780858223262</probabilities>
		</cpt>
		<cpt id="race">
			<state id="SAmer_Indian_Eskimo" />
			<state id="SAsian_Pac_Islander" />
			<state id="Black" />
			<state id="Other" />
			<state id="White" />
			<parents>Vnative_country</parents>
			<probabilities>0.04512880471666466 0.09329160339778665 0.3503895298531847 0.03206528658126243 0.4791247754511018 0.0104604791382417 0.03287983985104463 0.004011215286503325 0.007817297968111764 0.9448311677560985 0.01724415050690868 0.04931174591113752 0.1461011974728249 0.0103579688574686 0.7769849372516603 0.02715781778781921 0.0483936414462297 0.360678040828001 0.002859452718424537 0.5609110472195255 0.01695189188766617 0.02904170991869787 0.1845685453660141 0.0009361547581081449 0.7685016980695137 0.0266159211939268 0.07156369562439456 0.03024841282071918 0.02062337514804647 0.850948595212913 0.01006416442101603 0.001042435345551669 0.09368014258459669 0.003917976563434551 0.8912952810854009 0.01339581780261697 0.01483952561416381 0.1130118635558292 0.001418563334473502 0.8573342296929165 0.01111272334479302 0.01470609316996801 0.006684300859142014 0.005180685390677006 0.96231619723542 0.01783890574286053 0.07287351200124018 0.08000839835866903 0.01329456366263018 0.8159846202346002 0.02243676399929591 0.04875188932690464 0.03298325367105734 0.01708663796848652 0.8787414550342556 0.01035304671045505 0.02439755560170347 0.1519342913365111 0.01376756864996529 0.7995475377013652 0.003156613119937827 0.0545061488254098 0.1575616079492501 0.01919905240284047 0.7655765777025617 0.0008663086783039795 0.03872019460316435 0.01308810186643847 0.007656894009643614 0.9396685008424497 0.02443438086442737 0.07284476166565841 0.2664331844081649 0.01861415144676622 0.6176735216149832 0.01377971934921745 0.01564640156230543 0.03273375036979132 0.001404604688410676 0.9364355240302752 0.009323415819159646 0.008897511308639186 0.005030996277645635 0.01171910813187994 0.9650289684626756 0.009473424264109265 0.01544005337989968 0.08488047746075066 0.0106987517838008 0.8795072931114396 0.0118182104028685 0.1798254464520271 0.5014973476326546 0.04103143302207444 0.2658275624903753 0.005552022379688647 0.03934673293853884 0.03551879522778324 0.01704382497114947 0.9025386244828397 0.01122276179698893 0.01515276128725495 0.1198186445496741 0.005067680212475431 0.8487381521536066 0.004452310695592049 0.08794577909710516 0.1034746863279013 0.0002689247589197629 0.8038582991204818 0.0172193148144221 0.0243395620260464 0.02310756198608539 0.009790905607716357 0.9255426555657298 0.003266129314340853 0.03064288532223149 0.04097969258620168 0.007526766409401164 0.9175845263678248 0.009862476010727072 0.04824714324558675 0.1009640429041194 0.01842354823612334 0.8225027896034435 0.01931076329756894 0.09721264341326974 0.477399788099259 0.03843795491309217 0.3676388502768102 0.005278454710190686 0.02157705009175599 0.1063707282431272 0.001127622282302567 0.8656461446726236 0.002992090775620608 0.009334624763763642 0.04574335707264244 0.005315431065267807 0.9366144963227054 0.009238916869069618 0.03077100945862923 0.06413582435441602 0.003220323307345118 0.89263392601054 0.003140740476484622 0.02842585414286318 0.08808008987919565 0.005968468284980722 0.8743848472164758 0.006358109269899912 0.01004108333385648 0.08129053369232858 0.007369747885029287 0.8949405258188856 0.02728088055706207 0.1568153996053468 0.5445189092904813 0.02269608581180423 0.2486887247353055 0.02471530718887613 0.04114319648470273 0.3340554060732918 0.02320472225969167 0.5768813679934377 0.007175296158081907 0.01635981800216435 0.03849882267898704 0.002820110766377411 0.9351459523943893 0.001789740634932758 0.03429734557176289 0.01262981976506761 0.003050734338116932 0.9482323596901199 0.01586319409580231 0.01594115501356781 0.02831109354053337 0.01117038382641372 0.9287141735236828 0.0009828830666673261 0.001166037013232875 0.1325577255492557 0.001387234265837965 0.8639061201050061 0.02068474832161 0.09544968491383443 0.2285822192739224 0.01768267554182751 0.6376006719488055 0.006982590472574224 0.01877999560190021 0.04488758818260379 0.001239079240280984 0.9281107465026408 0.003444245296332026 0.01824111919330115 0.0856909498948481 0.002449555645670971 0.8901741299698477 0.03637576833022688 0.01499016280113197 0.2317086432415501 0.006254885204490881 0.7106705404226 0.01185338138527444 0.02816823348036268 0.02635659817507952 0.01083870213109214 0.9227830848281913</probabilities>
		</cpt>
		<cpt id="Vhours_per_week">
			<state id="s1_below_16" />
			<state id="s2_16_34" />
			<state id="s3_34_52" />
			<state id="s4_52_79" />
			<state id="s5_79_93" />
			<state id="s6_93_up" />
			<parents>age</parents>
			<probabilities>0.1192893986356112 0.1521760503159435 0.1407035050812808 0.2480766800411543 0.195061236843687 0.1446931290823232 0.04416427895230766 0.2284812598944565 0.06863257913588348 0.2507418208266515 0.241499777611962 0.166480283578739 0.2577155146400745 0.122533696521221 0.06717180067575265 0.3819891294945872 0.08631577621118851 0.08427408245717621 0.1492810640486884 0.1863705302616809 0.303077517280363 0.02786607339859569 0.2193449860581266 0.1140598289525454 0.2257683352745921 0.241343223068214 0.1601327275963168 0.1844422305643286 0.02307128622508195 0.1652421972714666 0.3003089633372104 0.2078564428036956 0.1013741687006625 0.0884554897237544 0.2734184727071038 0.02858646272757331</probabilities>
		</cpt>
		<cpt id="pay">
			<state id="Slower50K" />
			<state id="Sgreater50K" />
			<parents>relationship sex occupation race</parents>
			<probabilities>0.6961933908153187 0.3038066091846814 0.6961933908153187 0.3038066091846814 0.6961933908153187 0.3038066091846814 0.6961933908153187 0.3038066091846814 0.6961933908153187 0.3038066091846814 0.6237541640807248 0.3762458359192753 0.6237541640807248 0.3762458359192753 0.6237541640807248 0.3762458359192753 0.6237541640807248 0.3762458359192753 0.6237541640807248 0.3762458359192753 0.131348293076447 0.8686517069235529 0.131348293076447 0.8686517069235529 0.131348293076447 0.8686517069235529 0.131348293076447 0.8686517069235529 0.131348293076447 0.8686517069235529 0.6035904200236264 0.3964095799763736 0.6035904200236264 0.3964095799763736 0.6035904200236264 0.3964095799763736 0.6035904200236264 0.3964095799763736 0.6035904200236264 0.3964095799763736 0.3218557285162974 0.6781442714837027 0.3218557285162974 0.6781442714837027 0.3218557285162974 0.6781442714837027 0.3218557285162974 0.6781442714837027 0.3218557285162974 0.6781442714837027 0.821884204298217 0.1781157957017831 0.821884204298217 0.1781157957017831 0.821884204298217 0.1781157957017831 0.821884204298217 0.1781157957017831 0.821884204298217 0.1781157957017831 0.8561503080230518 0.1438496919769483 0.8561503080230518 0.1438496919769483 0.8561503080230518 0.1438496919769483 0.8561503080230518 0.1438496919769483 0.8561503080230518 0.1438496919769483 0.799769281631963 0.200230718368037 0.799769281631963 0.200230718368037 0.799769281631963 0.200230718368037 0.799769281631963 0.200230718368037 0.799769281631963 0.200230718368037 0.8381620450073377 0.1618379549926622 0.8381620450073377 0.1618379549926622 0.8381620450073377 0.1618379549926622 0.8381620450073377 0.1618379549926622 0.8381620450073377 0.1618379549926622 0.9520514379322711 0.04794856206772898 0.9520514379322711 0.04794856206772898 0.9520514379322711 0.04794856206772898 0.9520514379322711 0.04794856206772898 0.9520514379322711 0.04794856206772898 0.307363488352964 0.6926365116470361 0.307363488352964 0.6926365116470361 0.307363488352964 0.6926365116470361 0.307363488352964 0.6926365116470361 0.307363488352964 0.6926365116470361 0.4980862520861782 0.5019137479138218 0.4980862520861782 0.5019137479138218 0.4980862520861782 0.5019137479138218 0.4980862520861782 0.5019137479138218 0.4980862520861782 0.5019137479138218 0.6686080793356978 0.3313919206643022 0.6686080793356978 0.3313919206643022 0.6686080793356978 0.3313919206643022 0.6686080793356978 0.3313919206643022 0.9171520198339245 0.08284798016607554 0.5041799530741049 0.4958200469258952 0.5041799530741049 0.4958200469258952 0.5041799530741049 0.4958200469258952 0.5041799530741049 0.4958200469258952 0.5041799530741049 0.4958200469258952 0.5748280922758314 0.4251719077241686 0.5748280922758314 0.4251719077241686 0.5748280922758314 0.4251719077241686 0.5748280922758314 0.4251719077241686 0.5748280922758314 0.4251719077241686 0.7508255709366242 0.2491744290633759 0.7275738838431638 0.2724261161568361 0.807641480484795 0.1923585195152049 0.974515474823956 0.02548452517604403 0.7309419027134585 0.2690580972865416 0.50530045280543 0.4946995471945701 0.5882714378123557 0.4117285621876443 0.5370685987835159 0.462931401216484 0.9081278300339372 0.09187216996606286 0.5708740179050242 0.4291259820949758 0.8037009090549537 0.1962990909450463 0.8037009090549537 0.1962990909450463 0.8037009090549537 0.1962990909450463 0.8037009090549537 0.1962990909450463 0.5337445454505503 0.4662554545494496 0.7993698383252639 0.2006301616747362 0.6000148706694608 0.3999851293305392 0.5684286760645907 0.4315713239354093 0.7850607938278558 0.2149392061721442 0.6786478317979605 0.3213521682020394 0.9911244402307265 0.008875559769273357 0.3552506459198329 0.6447493540801672 0.3108055252726558 0.6891944747273442 0.4912431863475544 0.5087568136524457 0.3076543145134131 0.6923456854865868 0.9943397589817541 0.005660241018245916 0.7999688539119269 0.2000311460880732 0.9985849397454385 0.001415060254561479 0.9918492529337259 0.00815074706627412 0.8110686484583159 0.188931351541684 0.99524682365865 0.004753176341350028 0.8343096039074744 0.1656903960925255 0.7917039444362624 0.2082960555637375 0.9966991830962846 0.003300816903715296 0.8315511549908727 0.1684488450091274 0.9959685280977619 0.004031471902238046 0.588709832710669 0.411290167289331 0.7692264037491198 0.2307735962508802 0.9221529887666161 0.07784701123338385 0.7467700178743779 0.253229982125622 0.834665643854088 0.165334356145912 0.7500884096066927 0.2499115903933074 0.8666752530365091 0.1333247469634909 0.9987483524549421 0.001251647545057851 0.8681593915149337 0.1318406084850664 0.9849642766710915 0.01503572332890849 0.9849642766710915 0.01503572332890849 0.9849642766710915 0.01503572332890849 0.9849642766710915 0.01503572332890849 0.9849642766710915 0.01503572332890849 0.570209515053643 0.4297904849463569 0.3367306541054046 0.6632693458945955 0.3333199485529104 0.6666800514470896 0.4159594135329568 0.5840405864670433 0.2854512014531548 0.7145487985468452 0.1251139014862677 0.8748860985137323 0.2890696188428917 0.7109303811571083 0.5525972752175838 0.4474027247824161 0.5000506228827856 0.4999493771172143 0.5216047380412398 0.4783952619587603 0.8260076278435707 0.1739923721564293 0.5293668357259878 0.4706331642740123 0.4877972640387386 0.5122027359612613 0.8847437376433498 0.1152562623566504 0.4720848067953036 0.5279151932046964 0.4375382025498982 0.5624617974501017 0.3752163951645325 0.6247836048354675 0.3641495708510409 0.6358504291489591 0.4375382025498982 0.5624617974501017 0.3993811684404297 0.6006188315595702 0.8882977867899166 0.1117022132100833 0.817190979383055 0.182809020616945 0.7976021454714408 0.2023978545285592 0.9933775720644882 0.006622427935511734 0.6914016269910466 0.3085983730089534 0.9990922910138668 0.0009077089861332699 0.9995198894618799 0.0004801105381200767 0.9999432681883667 5.673181163332937e-005 0.9983862951357631 0.001613704864236924 0.9627902500562604 0.03720974994373955 0.9968577648995203 0.003142235100479722 0.9523170333109257 0.04768296668907437 0.9761828988404828 0.02381710115951723 0.9983968188262858 0.001603181173714143 0.9749339440879364 0.02506605591206361 0.5168757500118556 0.4831242499881445 0.5168757500118556 0.4831242499881445 0.5168757500118556 0.4831242499881445 0.5168757500118556 0.4831242499881445 0.5168757500118556 0.4831242499881445 0.9787654226308824 0.02123457736911759 0.9787654226308824 0.02123457736911759 0.8891506169052352 0.1108493830947647 0.9905624100581699 0.009437589941830037 0.9384561665956206 0.06154383340437936 0.9964146843865902 0.003585315613409854 0.8178509708384845 0.1821490291615155 0.8499527303990137 0.1500472696009865 0.9426349501854423 0.05736504981455765 0.8074243963252354 0.1925756036747645 0.9702805635994383 0.02971943640056179 0.9702805635994383 0.02971943640056179 0.9925701408998595 0.007429859100140447 0.9702805635994383 0.02971943640056179 0.9412662980358006 0.05873370196419925 0.9942009389035263 0.005799061096473678 0.9942009389035263 0.005799061096473678 0.9993556598781695 0.0006443401218304086 0.9768037556141054 0.02319624438589471 0.9999839361188462 1.60638811536667e-005 0.9962027157800624 0.003797284219937522 0.9990506789450155 0.0009493210549843805 0.9696936197595333 0.03030638024046664 0.9914561105051406 0.008543889494859425 0.9865762588640898 0.0134237411359102 0.9970483269526494 0.002951673047350545 0.9287708219669948 0.07122917803300514 0.9999968614062588 3.13859374127539e-006 0.9995849209777163 0.0004150790222836704 0.9866961656890837 0.01330383431091621 0.9929321684354192 0.007067831564580957 0.9995582605272138 0.0004417394727863098 0.9999293216843542 7.067831564580956e-005 0.9929321684354192 0.007067831564580957 0.9999972826483797 2.717351620369457e-006 0.5743506200611603 0.4256493799388396 0.7691757126730319 0.230824287326968 0.8946472318763407 0.1053527681236593 0.9962256200611603 0.00377437993883963 0.8490257360724474 0.1509742639275526 0.8753335614010989 0.1246664385989012 0.8753335614010989 0.1246664385989012 0.668753335614011 0.331246664385989 0.8753335614010989 0.1246664385989012 0.8002942717242231 0.199705728275777 0.9981814959614515 0.001818504038548536 0.9991917759828675 0.0008082240171326829 0.9998647393690336 0.0001352606309664201 0.2336334636530632 0.7663665363469369 0.9358288677962995 0.06417113220370053 0.969492314379926 0.03050768562007401 0.9975095766840756 0.002490423315924409 0.9088747865105535 0.09112521348944649 0.9864410286133004 0.01355897138669956 0.9193521900324814 0.08064780996751875 0.976338787376266 0.023661212623734 0.9053551495050641 0.09464485049493598 0.9980684724388788 0.001931527561121142 0.9053551495050641 0.09464485049493598 0.9090838471635256 0.09091615283647435 0.9955147970708135 0.004485202929186518 0.7525880638720657 0.2474119361279343 0.9999084652463431 9.153475365686773e-005 0.9974770733523326 0.002522926647667417 0.9424469200598795 0.05755307994012054 0.9952572159576731 0.004742784042326822 0.9993728550026676 0.0006271449973324723 0.9614871268248597 0.03851287317514023 0.9969646182129109 0.003035381787089166 0.910931388453683 0.08906861154631694 0.9666315353612536 0.03336846463874651 0.9666315353612536 0.03336846463874651 0.9916578838403134 0.008342116159686629 0.9666315353612536 0.03336846463874651 0.9979144709600784 0.002085529039921657 0.84656102962958 0.15343897037042 0.8574487191439898 0.1425512808560103 0.9655058781405911 0.03449412185940888 0.8034989390943803 0.1965010609056197 0.9176646891972432 0.08233531080275672 0.9834054062391333 0.01659459376086675 0.7498084753064954 0.2501915246935045 0.7499886680057167 0.2500113319942833 0.9704984999806814 0.02950150001931868 0.7079647310132589 0.2920352689867412 0.9961213906443507 0.00387860935564937 0.9961213906443507 0.00387860935564937 0.9997575869152718 0.0002424130847280856 0.9986037006319664 0.001396299368033773 0.9315084035594334 0.06849159644056646 0.9992518722677121 0.0007481277322879719 0.9979218674103111 0.00207813258968881 0.9761932378619215 0.02380676213807853 0.9988310504183 0.001168949581699956 0.981308410963909 0.01869158903609102 0.988288756646178 0.01171124335382203 0.8895315502658472 0.1104684497341529 0.9749870047748869 0.0250129952251132 0.9981262010633885 0.001873798936611525 0.9861744203986741 0.01382557960132597 0.9990190347855905 0.0009809652144094419 0.9413095819647205 0.05869041803527947 0.9622717093815396 0.03772829061846041 0.9995640154602624 0.0004359845397375297 0.9718751206272898 0.02812487937271018 0.9978471226361531 0.002152877363847052 0.9978471226361531 0.002152877363847052 0.9978471226361531 0.002152877363847052 0.9978471226361531 0.002152877363847052 0.999760791404017 0.0002392085959830058 0.9721608441337246 0.02783915586627537 0.6923860735215413 0.3076139264784588 0.8157458564084178 0.1842541435915822 0.6718404748252201 0.3281595251747799 0.7255279188781624 0.2744720811218376 0.9690910280558639 0.0309089719441361 0.992272757013966 0.007727242986034024 0.8334021825795576 0.1665978174204425 0.8763641122234557 0.1236358877765444 0.8068269617614219 0.193173038238578 0.09606653563518344 0.9039334643648165 0.9087819362549767 0.09121806374502325 0.8333658676594345 0.1666341323405654 0.9945839528286661 0.005416047171333959 0.8211767098614732 0.1788232901385268 0.9829162657026662 0.01708373429733372 0.8569725998644374 0.1430274001355626 0.7696237060781836 0.2303762939218164 0.9615615978309992 0.03843840216900087 0.8632466422286214 0.1367533577713786 0.8037894867216424 0.1962105132783576 0.9974568608791652 0.002543139120834902 0.9999416175592095 5.838244079051656e-005 0.9960263451236955 0.003973654876304533 0.9297521790635233 0.07024782093647684 0.9976828580410296 0.002317141958970354 0.9991658288947706 0.0008341711052293274 0.9986966076480792 0.001303392351920824 0.9976828580410296 0.002317141958970354 0.9600283220745108 0.03997167792548926 0.9928504668298832 0.00714953317011679 0.9996469366335745 0.0003530633664255204 0.999901044523597 9.895547640300055e-005 0.9714018673195329 0.02859813268046716 0.9705884061893131 0.02941159381068693 0.7559856808303896 0.2440143191696103 0.7559856808303896 0.2440143191696103 0.7559856808303896 0.2440143191696103 0.7559856808303896 0.2440143191696103 0.7559856808303896 0.2440143191696103 0.9689415428323867 0.03105845716761333 0.9980588464270241 0.001941153572975833 0.9980588464270241 0.001941153572975833 0.9922353857080967 0.007764614291903332 0.9995147116067561 0.0004852883932439583 0.9067538789023275 0.09324612109767254 0.7562701551560931 0.2437298448439069 0.9896393198780364 0.01036068012196361 0.9067538789023275 0.09324612109767254 0.9472668846972558 0.05273311530274419 0.9895334684296216 0.01046653157037834 0.9895334684296216 0.01046653157037834 0.9895334684296216 0.01046653157037834 0.9895334684296216 0.01046653157037834 0.9997863973148902 0.0002136026851097619 0.9918662182210181 0.008133781778982017 0.9918662182210181 0.008133781778982017 0.9994916386388136 0.0005083613611863761 0.999096246469002 0.0009037535309980018 0.9997740616172505 0.0002259383827495005 0.9879282045173856 0.01207179548261428 0.9992455127823366 0.0007544872176633927 0.9995171281806954 0.0004828718193045712 0.9986586893908207 0.001341310609179365 0.9999698205112936 3.01794887065357e-005 0.9976660083676142 0.00233399163238578 0.9998541255229759 0.0001458744770241112 0.9999850624535528 1.493754644726899e-005 0.9989626703856063 0.00103732961439368 0.984376488528632 0.01562351147136794 0.9975479492583889 0.002452050741611155 0.9993869873145972 0.0006130126854027888 0.9998467468286493 0.0001532531713506972 0.9975479492583889 0.002452050741611155 0.9999874895370325 1.251046296740385e-005 0.9009130457672351 0.09908695423276501 0.857826766340113 0.142173233659887 0.8347125111381069 0.1652874888618932 0.5445458939741372 0.4554541060258628 0.8750896645182257 0.1249103354817743 0.9531235992713314 0.0468764007286686 0.9531235992713314 0.0468764007286686 0.9947915110301479 0.005208488969852066 0.9531235992713314 0.0468764007286686 0.9947915110301479 0.005208488969852066 0.9940951357282096 0.005904864271790458 0.9985237839320524 0.001476216067947614 0.9998794925658818 0.0001205074341181726 0.9973756158792042 0.002624384120795758 0.9729753327859507 0.02702466721404928 0.9542007102898527 0.0457992897101475 0.9885501775724632 0.01144982242753688 0.9542007102898527 0.0457992897101475 0.9542007102898527 0.0457992897101475 0.7525209964233315 0.2474790035766685 0.9651578130447398 0.03484218695526035 0.9651578130447398 0.03484218695526035 0.9651578130447398 0.03484218695526035 0.9651578130447398 0.03484218695526035 0.9978223633152963 0.002177636684703772 0.9856819062743276 0.01431809372567233 0.9964204765685819 0.003579523431418081 0.9997077940055985 0.000292205994401476 0.9856819062743276 0.01431809372567233 0.9999675326672887 3.246733271127511e-005 0.9724252002885109 0.02757479971148927 0.9988970080115405 0.001102991988459571 0.9997242520028853 0.0002757479971148928 0.9931063000721276 0.006893699927872317 0.9231446161869525 0.0768553838130473 0.9970549150537075 0.002945084946292615 0.9882196602148295 0.01178033978517046 0.9882196602148295 0.01178033978517046 0.9882196602148295 0.01178033978517046 0.9970549150537075 0.002945084946292615 0.7589252120609031 0.241074787939097 0.8361863326841342 0.1638136673158658 0.9995801609612902 0.000419839038709755 0.9983206438451611 0.00167935615483902 0.9696977345291874 0.03030226547081252 0.8890203035877635 0.1109796964122367 0.8890203035877635 0.1109796964122367 0.9722550758969408 0.02774492410305916 0.8890203035877635 0.1109796964122367 0.6822098682487482 0.3177901317512519 0.9876636204607368 0.01233637953926328 0.9876636204607368 0.01233637953926328 0.9996573227905761 0.0003426772094239799 0.9969159051151841 0.00308409488481582 0.9474691590511519 0.05253084094884816 0.9983653101116984 0.00163468988830163 0.9995913275279246 0.0004086724720754075 0.9999666389818713 3.336101812860469e-005 0.9983653101116984 0.00163468988830163 0.984129262998156 0.01587073700184405 0.9958278529688428 0.004172147031157147 0.9995364281076491 0.0004635718923507943 0.999659416568885 0.0003405834311148692 0.9993324564750149 0.0006675435249851438 0.9999846753093438 1.53246906562246e-005 0.9986309216682937 0.001369078331706331 0.9999452368667318 5.476313326825324e-005 0.9999886853030439 1.131469695625067e-005 0.9996577304170734 0.0003422695829265827 0.9999984267988145 1.573201185528677e-006 0.9992555065264712 0.0007444934735287887 0.9992555065264712 0.0007444934735287887 0.9992555065264712 0.0007444934735287887 0.9992555065264712 0.0007444934735287887 0.9999172785029412 8.27214970587543e-005 0.8965007889721768 0.1034992110278234 0.9741251972430443 0.02587480275695584 0.9958600315588871 0.004139968441112934 0.8965007889721768 0.1034992110278234 0.8636984892041062 0.1363015107958938 0.9535452286187492 0.04645477138125079 0.9883863071546873 0.0116136928453127 0.9970965767886718 0.002903423211328175 0.9535452286187492 0.04645477138125079 0.9987095896838542 0.001290410316145855 0.9486945751920715 0.05130542480792859 0.609685960422002 0.390314039577998 0.9989529505141238 0.001047049485876094 0.9486945751920715 0.05130542480792859 0.9729561596781109 0.02704384032188915 0.9409622559472387 0.05903774405276144 0.9963101409967025 0.00368985900329759 0.9852405639868096 0.01475943601319036 0.9409622559472387 0.05903774405276144 0.9995120847598946 0.0004879152401054664 0.9770911709046909 0.02290882909530928 0.6860681981815432 0.3139318018184568 0.9985681981815432 0.00143180181845683 0.5530101301005211 0.4469898698994788 0.9999427279272617 5.72720727382732e-005 0.9928123127997293 0.007187687200270877 0.9999500855055536 4.991449444632553e-005 0.9999914534040425 8.546595957515907e-006 0.9997124925119891 0.0002875074880108351 0.9953051098854222 0.004694890114577698 0.9997977947703156 0.0002022052296844116 0.9999864087019827 1.359129801719639e-005 0.985295125382009 0.01470487461799087 0.9997977947703156 0.0002022052296844116 0.9882353043484744 0.01176469565152557 0.9011302357237552 0.09886976427624489 0.9011302357237552 0.09886976427624489 0.9011302357237552 0.09886976427624489 0.9011302357237552 0.09886976427624489 0.9011302357237552 0.09886976427624489 0.9892217033561565 0.01077829664384358 0.9892217033561565 0.01077829664384358 0.99983158911494 0.0001684108850600559 0.9892217033561565 0.01077829664384358 0.9546110051103141 0.0453889948896859 0.9986490046303915 0.001350995369608496 0.9986490046303915 0.001350995369608496 0.9997654521927762 0.0002345478072236973 0.9962472350844208 0.003752764915579156 0.9687497316522223 0.03125026834777768 0.9964174865066884 0.003582513493311584 0.9964174865066884 0.003582513493311584 0.9964174865066884 0.003582513493311584 0.9964174865066884 0.003582513493311584 0.999964174865067 3.582513493311585e-005 0.9993050641566528 0.0006949358433473009 0.9998262660391633 0.0001737339608368252 0.9999565665097908 4.343349020920631e-005 0.9972202566266109 0.002779743373389204 0.999998074969963 1.925030036973132e-006 0.9958636188920705 0.004136381107929454 0.9989659047230177 0.001034095276982364 0.9999914537580416 8.546241958531931e-006 0.9958636188920705 0.004136381107929454 0.9999991311948944 8.688051056352561e-007 0.9996452065508478 0.0003547934491522107 0.9999736104046085 2.638959539148676e-005 0.9999983506502881 1.649349711967922e-006 0.9996452065508478 0.0003547934491522107 0.9975062300862538 0.002493769913746209 0.9991651525095504 0.0008348474904495831 0.9991651525095504 0.0008348474904495831 0.9999072391677278 9.27608322721759e-005 0.9991651525095504 0.0008348474904495831 0.9999971112543582 2.888745641694059e-006 0.990990359403004 0.009009640596996046 0.9994368974626877 0.0005631025373122529 0.9999099035940301 9.009640596996046e-005 0.997747589850751 0.002252410149249011 0.9466674251759841 0.05333257482401596 0.9835570854075481 0.01644291459245198 0.995889271351887 0.004110728648112994 0.9993422834163018 0.0006577165836980789 0.9835570854075481 0.01644291459245198 0.928815809268478 0.071184190731522 0.9994902603120538 0.0005097396879462213 0.9234277763520044 0.0765722236479956 0.9999967376659972 3.262334002855816e-006 0.9997734490275795 0.0002265509724205428 0.9942693211768571 0.005730678823142916 0.9839466835182058 0.0160533164817942 0.9989966677198878 0.001003332280112138 0.9959866708795515 0.004013329120448551 0.9839466835182058 0.0160533164817942 0.9814822964243035 0.01851770357569646 0.9878777158665149 0.01212228413348524 0.9878777158665149 0.01212228413348524 0.9969694289666287 0.003030571033371309 0.9878777158665149 0.01212228413348524 0.9999282705080859 7.172949191411383e-005 0.9998635162391116 0.0001364837608882309 0.9999593932612234 4.060673877666376e-005 0.9999962087844196 3.791215580228637e-006 0.9994540649564471 0.0005459350435529237 0.9999999117815392 8.821846078670486e-008 0.9904530586764949 0.009546941323505065 0.8592258290418202 0.1407741709581798 0.9999858773057344 1.412269426554004e-005 0.9904530586764949 0.009546941323505065 0.9856460420194713 0.01435395798052888 0.9959642683625153 0.004035731637484683 0.9959642683625153 0.004035731637484683 0.9959642683625153 0.004035731637484683 0.9959642683625153 0.004035731637484683 0.9989910670906289 0.001008932909371171 0.9998102364616083 0.0001897635383916787 0.8764284146496149 0.1235715853503851 0.9999896684295764 1.033157042354695e-005 0.5545223985132008 0.4454776014867991 0.9705884487006401 0.02941155129936001 0.9592940587151143 0.04070594128488573 0.99916926650439 0.0008307334956099128 0.9994974575150013 0.0005025424849985892 0.9898235146787786 0.01017648532122143 0.9619045295531075 0.03809547044689256 0.9957722152934607 0.004227784706539335 0.9998308886117383 0.0001691113882615734 0.9999706403839823 2.935961601763427e-005 0.9957722152934607 0.004227784706539335 0.9919357294217788 0.008064270578221219 0.9999815514297519 1.84485702482711e-005 0.9999107089199982 8.929108000163208e-005 0.9999982775640431 1.722435956821607e-006 0.9994419307499898 0.0005580692500102006 0.9968750086637649 0.003124991336235092 0.9985660154842977 0.00143398451570226 0.9998829400395344 0.0001170599604654906 0.9999707350098837 2.926499011637266e-005 0.9996415038710744 0.0003584961289255651 0.9933333741529731 0.006666625847027008 0.999883234313053 0.0001167656869471284 0.9999769351729486 2.306482705128463e-005 0.9999996494180913 3.505819086421569e-007 0.9995329372522115 0.0004670627477885136 0.9971346786265225 0.002865321373477479 0.9997468088242463 0.0002531911757537189 0.9997468088242463 0.0002531911757537189 0.9997468088242463 0.0002531911757537189 0.9997468088242463 0.0002531911757537189 0.9999898723529699 1.012764703014876e-005 0.9905597494672127 0.009440250532787249 0.9005143718832137 0.09948562811678635 0.9995338147885042 0.0004661852114956666 0.962238997868851 0.037761002131149 0.9316261303503209 0.06837386964967905 0.9981899621751872 0.001810037824812789 0.9981899621751872 0.001810037824812789 0.9998653690874106 0.000134630912589381 0.9981899621751872 0.001810037824812789 0.9777805811245637 0.02221941887543635 0.9988718157372893 0.001128184262710674 0.9999627046524724 3.729534752762559e-005 0.9583711184828747 0.04162888151712539 0.9954872629491574 0.004512737050842696 0.9710745643288083 0.02892543567119178 0.9791182500760916 0.02088174992390862 0.5532353611195657 0.4467646388804343 0.9995738418382875 0.0004261581617124208 0.9791182500760916 0.02088174992390862 0.9999930969421739 6.903057826085494e-006 0.992093313485906 0.007906686514093878 0.9998386390507328 0.000161360949267222 0.9999780978212904 2.190217870940132e-005 0.9991214792762118 0.0008785207237882086 0.9999995248671044 4.751328955047099e-007 0.99124166636782 0.008758333632180074 0.997810416591955 0.002189583408045019 0.9999841406362477 1.585936375225002e-005 0.99124166636782 0.008758333632180074 0.9793799423849927 0.02062005761500715 0.9994100571804997 0.0005899428195003059 0.9998346527045691 0.0001653472954308816 0.9938634821026035 0.006136517897396622 0.9980885852648191 0.001911414735180992 0.9758063561029422 0.02419364389705792 0.6450767356048618 0.3549232643951383 0.6450767356048618 0.3549232643951383 0.6450767356048618 0.3549232643951383 0.6450767356048618 0.3549232643951383 0.6450767356048618 0.3549232643951383 0.9870479121487269 0.01295208785127311 0.9870479121487269 0.01295208785127311 0.9411981223722066 0.05880187762779349 0.9481916485949076 0.05180835140509245 0.964907310240367 0.0350926897596329 0.9958570057805023 0.004142994219497713 0.9086864736673477 0.09131352633265219 0.8653794418683154 0.1346205581316846 0.8508522080980823 0.1491477919019177 0.9045443551976434 0.09545564480235667 0.9822894068805325 0.01771059311946749 0.9822894068805325 