<?xml version="1.0" encoding="ISO-8859-1"?>
<smile version="1.0" id="Unnamed" numsamples="1000" discsamples="10000">
	<nodes>
		<cpt id="age">
			<state id="s1_below_24" />
			<state id="s2_24_38" />
			<state id="s3_38_48" />
			<state id="s4_48_66" />
			<state id="s5_66_78" />
			<state id="s6_78_up" />
			<probabilities>0.1710635422745002 0.366634931359602 0.2276957095912288 0.2036485365928565 0.02656552317189276 0.004391757009919844</probabilities>
		</cpt>
		<cpt id="sex">
			<state id="Female" />
			<state id="Male" />
			<probabilities>0.3307945087681616 0.6692054912318385</probabilities>
		</cpt>
		<cpt id="relationship">
			<state id="Husband" />
			<state id="SNot_in_family" />
			<state id="SOther_relative" />
			<state id="SOwn_child" />
			<state id="Unmarried" />
			<state id="Wife" />
			<parents>age</parents>
			<probabilities>0.05890624065099025 0.2328426973015018 0.06088075151079998 0.583228624424101 0.04795668042840902 0.01618500568419793 0.389410056676997 0.2895691989837229 0.0298322025853645 0.1200407627662842 0.1138425887148561 0.0573051902727755 0.5154641492470217 0.2259159361654304 0.01647561249719038 0.03899752753427736 0.1414924702180265 0.06165430433805349 0.583408725371934 0.2311771210293526 0.02038098110172899 0.0134449135504624 0.1046692802573381 0.04691897868918376 0.5336797536566591 0.3327559661277907 0.03021555042340262 0.002501924557351809 0.07525019245573519 0.02559661277906082 0.4386574074074074 0.3831018518518518 0.02199074074074074 0.04282407407407408 0.08449074074074073 0.02893518518518519</probabilities>
		</cpt>
		<cpt id="Veducation_num">
			<state id="State1" />
			<state id="State2" />
			<state id="State3" />
			<state id="State4" />
			<state id="State5" />
			<state id="State6" />
			<state id="State7" />
			<state id="State8" />
			<state id="State9" />
			<state id="State10" />
			<state id="State11" />
			<state id="State12" />
			<state id="State13" />
			<state id="State14" />
			<state id="State15" />
			<state id="State16" />
			<parents>sex relationship</parents>
			<probabilities>0.0004894014692293979 0.000880880102915688 0.006678175669031295 0.004080606451697124 0.006443440759161704 0.02818137353827528 0.01935896091722 0.004998867418245007 0.1945401936076647 0.468097658602408 0.01254786808107994 0.01591938261778515 0.2043078554939991 0.02562512524541551 0.004705720795624553 0.00314448923024752 0.0802012405820504 0.02067068845234085 0.1353147133632707 0.07284997039617493 0.09435893633835875 0.03585709017264298 0.004450532381334697 0.00696678714874261 0.03647764198819321 0.1273716341584318 0.04928831921216507 0.05369417507737157 0.04972096499519901 0.03319952441279395 0.09689090873785659 0.1026868725830731 0.0630466088475044 0.01695842790174676 0.07487262514223497 0.02274736094240517 0.08086877890027955 0.07429934199005267 0.1183728727536953 0.08353068593360845 0.07277775299446387 0.05238915048328145 0.109816134323938 0.0843868215399055 0.05050224935900392 0.01012839924224804 0.0008626575733284831 0.08444013207230346 0.04795152047459231 0.01474617120418023 0.0220516124349296 0.03719400377905961 0.1485908094751196 0.02814026456501136 0.06479623230390412 0.04748297103066403 0.0503274000995079 0.1005505195455328 0.1382459624703364 0.01975162285667383 0.07784679866554296 0.04303820902167114 0.08661324949086099 0.07267265258241307 0.1173571693559979 0.01155334500315151 0.02621185126083684 0.1160149720232003 0.001331315151465471 0.0669821741600255 0.09463268926219871 0.05361961829073807 0.1173268714328331 0.06357634529028354 0.06293297872236378 0.04638563882616059 0.04121060897161977 0.05313338470687508 3.811186554187016e-005 0.127692925676708 0.1034796083213226 0.06686321046320023 0.05670827704498998 0.1047966779853199 0.0664683381879189 0.1072090233311118 0.0290610309268806 0.03196663023320286 0.1129446309751658 0.06608671767702819 0.07307681941717178 0.07191944215876588 0.03688917535142259 0.009671089977214453 0.03296725326506726 0.02989207468421724 0.08104827699451242 0.01760938999218426 0.09344986168105335 0.09680529780105736 0.04011781415860595 0.03122204136014005 0.07577805243207293 0.07601574938790087 0.03835839244444207 0.12288008952445 0.08308266211261316 0.1203713088631309 0.00747689477452361 0.04039339080629584 0.0196188908738315 0.0557718867931859 0.004916965846049484 0.05919946859147764 0.04791670337527839 0.05589162168260476 0.116385855045824 0.05951006579822303 0.08070347433790988 0.05560962148810894 0.05782289327310299 0.05515517091648569 0.07461880112305924 0.05125355959746323 0.0345777420927012 0.0707520729098107 0.05543324130150217 0.1202527426203987 0.02925047797469866 0.08049710715328726 0.07219502042315804 0.04670068973149726 0.08523887285257364 0.03487331098921495 0.09736274709283321 0.09413602379619938 0.03172515509178522 0.07201166759508457 0.05670248113089171 0.01104965786837664 0.07787536192716636 0.08714906214748956 0.0577440160320687 0.06548834819367487 0.0570295757339184 0.08206139291003529 0.01057081464018493 0.1101180310475957 0.09701023983547259 0.05903724766275044 0.06816378159683194 0.05752766023065284 0.07937260177386103 0.05803879575725773 0.07511656758977581 0.07091707247230618 0.07030229948056163 0.04831001506869893 0.02529566118150894 0.03112824301858753 0.001377495183851779 0.07574051795506141 0.004875321977278779 0.09090104506635065 0.1017172742080376 0.1186366190667187 0.02088459318144816 0.08804317401120845 0.04368829617379921 0.05986097199903481 0.06884982086307988 0.106837564390312 0.05231150500963112 0.01525718670821736 0.05638899931720189 0.0946296148887683 0.001079793896581915 0.000332702967122817 0.001382559115170801 0.01568694967878599 0.006503743864877891 0.008245654176584967 0.006402085602891674 0.02002823874434932 0.2086792213730275 0.4076464436693308 0.00814752448291757 0.01915976689313016 0.1868144907050718 0.08340603487702236 0.003813892140485616 0.02267089781264896</probabilities>
		</cpt>
		<cpt id="occupation">
			<state id="S_" />
			<state id="SAdm_clerical" />
			<state id="SArmed_Forces" />
			<state id="SCraft_repair" />
			<state id="SExec_managerial" />
			<state id="SFarming_fishing" />
			<state id="SHandlers_cleaners" />
			<state id="SMachine_op_inspct" />
			<state id="SOther_service" />
			<state id="SPriv_house_serv" />
			<state id="SProf_specialty" />
			<state id="SProtective_serv" />
			<state id="Sales" />
			<state id="STech_support" />
			<state id="STransport_moving" />
			<parents>sex relationship Veducation_num</parents>
			<probabilities>0.136625453408122 0.08951649562739752 0.0001392861776039422 0.01456483442068152 0.001842935387720152 0.03068724337569354 0.01234954854155476 0.160724396932185 0.4187279249065966 0.08882204614598732 0.04142086765263048 0.0005600002188804404 0.002001116744912024 0.001775663213690882 0.0002421872463438702 0.1088517453908906 0.0009070278520462228 4.657356806709568e-005 0.02764712983688008 0.04005483589961727 0.020451219454374 0.03215894224949285 0.1120382703338485 0.3723954813849356 0.1592984649621533 0.05295599323266424 0.003183234323209213 0.05897080730706609 0.0005937342309889728 0.010446539973766 0.1482057052143222 0.04806557201488976 2.544375873591597e-005 0.02820230892738421 0.005723112451073566 0.02230688545021133 0.04381960109258595 0.1487901666123654 0.3253209233177505 0.1106273731852145 0.007566454771862498 0.001739043184386038 0.08422901687902974 0.00551420321889805 0.01986418992129035 0.1996215531548859 0.04860810837363491 1.410114382151169e-005 0.04212601912947752 0.05690576558225705 0.02401827482255743 0.0279222847244641 0.1368830136158029 0.2759841543279497 0.03515141935387357 0.03576717129067625 0.008220581148403232 0.07065404973684447 0.01456102468765889 0.02356247890769244 0.1584759286209494 0.07018855505217823 1.601779280845246e-005 0.03960597545722598 0.04429462679574214 0.01092775294348426 0.03378325177120091 0.1270848463434748 0.3230870520070314 0.04983418511803932 0.01372969855113014 0.004185970899239952 0.1024229507628499 0.006738592415588339 0.01562459546905686 0.1517386325792859 0.09100595446631216 7.673109647747603e-006 0.03358799816795959 0.03908716956395919 0.008219442778387716 0.02344018258625821 0.08088759862725775 0.2971938860604721 0.01438275067075924 0.01946263583841013 0.002992425279712279 0.2152557804662586 0.00479313941810033 0.01794473038721914 0.140249267069794 0.1270421623844144 6.079488528380551e-006 0.02739455984567308 0.04383950427677897 0.005477767459709575 0.03216191359048765 0.06281984030984911 0.2888583179492161 0.02643311678848043 0.03413770537826841 0.00276201264950213 0.1857290668988847 0.007517810161708148 0.01557087574870488 0.1276900056259401 0.195100644557373 0.000279646392324965 0.02458443254107201 0.04548923933945721 0.006423552500291812 0.0269157641121116 0.06016219583678911 0.279270644164195 0.02066200534569157 0.04632851992123682 0.006415229687830568 0.1325259340201831 0.01027564180177782 0.01787654415372512 0.04245688760893714 0.1748497813436048 2.671928419813147e-005 0.02033682379248101 0.07023291640604654 0.004037958461345064 0.0107980715089858 0.04386661566265657 0.1051014301881363 0.006362719709937193 0.02681427729740243 0.005686909430556359 0.4666566568809857 0.0133368057760001 0.009435426648726949 0.02545874572679271 0.1016359977603626 8.402143252201863e-006 0.005688939229755452 0.04738249958088207 0.001077415443862451 0.002923062867682392 0.008234664072640278 0.03969070140367307 0.001264468685653045 0.03064713983777822 0.003309497237689494 0.7164923045792641 0.01418112756879625 0.002005033861915887 0.04973651952234208 0.2188377902697123 4.203801976622611e-006 0.02727436491779464 0.1335477265372596 0.0053207040923455 0.005071281430800942 0.02765247029715967 0.09653902327473465 0.005280249207751594 0.2000935281857396 0.01299716900797136 0.1048658180884291 0.1080937852917391 0.004685366074243086 0.04252646797421331 0.2805593721924891 4.663647969785628e-006 0.01381222753459443 0.1432197760411011 0.001594373744566963 0.004824092333022786 0.0160835513880683 0.07265994438965952 0.002973983221499611 0.1802120084433678 0.0102188597690695 0.1582981811222391 0.06950128737828817 0.003511210819850428 0.01707721096318352 0.08030834240702163 8.657735867599608e-006 0.002963385109426365 0.1476048940243105 0.000954114162609237 0.001096016388603259 0.003668750746531392 0.01840393827208263 0.001112071389203437 0.2131066450565454 0.003278135637042095 0.4856398421541265 0.02389867401577754 0.0008793219376692376 0.02127490313994583 0.04845199530134168 3.883752949281315e-005 0.001297363140110531 0.2423352814030454 0.0005588694960792755 0.0004971836231710246 0.001921289915333546 0.008691793024734097 0.000750499503785685 0.5397088175264442 0.002213603810347054 0.1143493163717655 0.01727070019567912 0.0006395460187243109 0.02330344928810392 0.01880324924543109 6.658613218980291e-006 0.001210448751702459 0.07338898463005748 0.0006576260381216687 1.78901058416486e-005 0.0007379606899129467 0.005398884135708672 0.0001286715705660488 0.8424895135989509 0.0004551063408561908 0.02324211894126328 0.009592124551122055 0.0005673134991427627 0.02681635656712427 0.01449473510471733 9.188490106248113e-006 0.0004878005287221584 0.1071080590877877 0.0002373421808020651 2.468728173865813e-005 0.001018341849131095 0.001948497870197922 0.0001775591124186973 0.8256879906803026 3.694233382806299e-005 0.01594114702544105 0.005739747787132287 0.0002716041005497548 0.0177286595246549 0.4418914618178382 1.47403996546275e-011 0.005857710532486992 0.06442202691372814 0.007771615525135248 0.009590426504102297 0.03649739296162943 0.03054511253397006 0.01350993248420241 0.1568393927891706 0.006293650258286759 0.1690126127305951 0.03690248596050343 0.003137519448956144 0.07599397594554327 0.1863171614138986 1.528799665825573e-010 0.0313494304139721 0.03484721213448595 0.005173551626131826 0.002576382348701628 0.05849657070483907 0.2053135442656485 0.02969876898977066 0.1458865126695952 0.00287624753081299 0.2031158743217323 0.01573304509084938 0.002621722391138786 0.100422296256385 0.1719186628984532 8.545296995139356e-014 0.03547390726944542 0.1349127033023117 0.001907400461844422 0.01213335798703465 0.01044270387783202 0.1640435041895348 0.004279886843334662 0.2179609457632443 0.001060537298141431 0.1181834789783966 0.01435935834525645 0.01290125652869978 0.1283310231692825 0.1840767948201287 1.14445994121814e-013 0.02020751737612687 0.1529296218431274 0.00920080778269498 0.02159129152605789 0.08821461620876704 0.04845807168354865 0.02003093990575276 0.1087120246358294 0.008698088156842891 0.1476966189778762 0.05086700724978736 0.01098557666406301 0.1198191008151829 0.2197934246213082 8.477460335116965e-014 0.01117898715111733 0.09383781647285636 0.008537771864155235 0.02419596505946008 0.06509972894275691 0.2589215037307111 0.00779800459267543 0.07100807031165833 0.004744692983945842 0.05608266103697268 0.05841404562877712 0.0005682267883376643 0.09637476669276328 0.2147460570649191 5.329349947909277e-013 0.03672515501861277 0.1490333965340177 0.005395994949034296 0.001422728896103907 0.001918403880944658 0.2227638991545892 0.005578734750859592 0.02964717191576366 0.004259990809940177 0.1587927629895086 0.06168604641672258 0.0116548909256875 0.1684827755863408 0.1341299889798656 4.346763654433606e-012 0.03647895341370805 0.06837513935148808 0.001974996450424274 0.01039427337085354 0.05827384577062394 0.2556214223938152 0.008766564915955521 0.07018410677797983 0.01239406404933301 0.1509519015233737 0.01326837771039094 0.01070358970150069 0.1627834386063485 0.08727290507078539 5.421845011440195e-011 0.02328347650130805 0.2000677817357124 0.005157893592413434 0.011744834463184 0.02139325912724393 0.2454782830460436 0.00317168249625755 0.03218349636610701 0.003101722486756184 0.130684941303489 0.05941146188688891 0.01426482326324351 0.09462047508508764 0.1271644845624307 4.522707990629566e-013 0.001240985041148565 0.1884912000423285 0.000836470459615225 0.01933814157909033 0.05229313780704985 0.04671053866235932 0.03113789609564961 0.3008538138995905 0.007940539342253378 0.07962048175973754 0.04114851670308507 0.008603318960121426 0.03884768177999989 0.1709604389486675 6.467265145485178e-013 0.01675187372671261 0.2251667743433202 0.004694014476172893 0.004046356032184595 0.0188977069195752 0.2148509138162286 0.02109065828970829 0.131183500373986 0.01042629389103328 0.09764114594673472 0.03923288912471987 0.006209752330309691 0.186172942818309 0.08919274661484056 3.03688119972302e-013 0.04228232990497111 0.07739842529640804 0.005023588514548656 0.02013506687994691 0.07600033943921143 0.07627238868941674 0.02360782075707469 0.3353608985981919 0.01184363266452206 0.01002450358747586 0.03207057207825078 0.01461474415652853 0.02860612168561424 0.4488769326361101 5.121834596146471e-013 0.003012441201632428 0.1159056625684935 0.001966198109786833 0.01771369302802416 0.06426819263370021 0.0851950950301167 0.01814903541287471 0.1735895531403932 0.006923220350024299 0.0071816178101142 0.02058524935428766 0.008026987038315617 0.02536171376910064 0.3251105281821201 1.561236265124397e-012 0.0004474205974045757 0.1614383701838802 0.004256561977636931 0.0104912360364991 0.07357383239110125 0.07452373259060242 0.009896851063946272 0.2421572009316879 0.005768171897537224 0.02987492111689643 0.02239830355785535 0.01470115570217033 0.05397576624025955 0.1250700373199503 3.120494254830834e-011 0.02353743387511327 0.0550713603733978 0.007776164172616982 0.007843312560771832 0.09369730584213273 0.06643066311773033 0.03525502826637356 0.2709787425573023 0.009229432868786287 0.2274164608001209 0.009913728106381876 0.01380456386785749 0.0128866320004452 0.2419035185019232 4.231771881540996e-013 0.02640377834194043 0.02482578188502675 0.003274419467768404 0.00790181652161669 0.04515356288106472 0.1882829974953399 0.02130972958307192 0.2286393909790604 0.006369373393256625 0.1437806477045906 0.04631392827625307 0.002954422968219086 0.03037347193450034 0.2043872483134432 1.847486130284331e-013 0.02210701211006446 0.1698298120498317 0.001690511389554319 0.001431454347997219 0.07562764328873041 0.1623428807671954 0.01540937643786035 0.1719901048065679 0.003815960156986577 0.09010466242377449 0.04812377727765592 0.002766084695652761 0.1122840889576469 0.2206286062697068 1.852583766439667e-009 0.02521864239984721 0.02826026438021696 0.01707626352097929 0.0433321195084912 0.1322274394654988 0.1420733132107049 0.05942608374038838 0.09084945677223837 0.01098878637286485 0.0801626170577632 0.0324730610953843 0.004999255395685102 0.09247811565976333 0.3324886148532294 6.46740339838381e-010 0.02507933614595574 0.04926249501297105 0.01300953932311206 0.01866551320266789 0.01782695132726318 0.2909977446728521 0.033585059681908 0.02823405368475608 0.009708253665531718 0.06386828174618532 0.01543792039641064 0.009358119980653185 0.0678391870703129 0.2703478207388045 2.211690588088417e-010 0.01884631717196502 0.05568140709493961 0.0078127452630009 0.0269828700294094 0.04984557661719125 0.2839966562084314 0.0271169705741526 0.01546643471811598 0.01047948674352859 0.1392204528647933 0.02552394789831644 0.0008401267858690887 0.2019734686010993 0.1238673115866099 1.57575351044111e-008 0.06012499939878589 0.07135369685642054 0.02400530564333991 0.009484445725729922 0.1462413879757021 0.1421645864928342 0.05435057207105386 0.03186175485559018 0.009065762263136408 0.09016919347155079 0.01921000810572214 0.0161274911948896 0.1604938980678852 0.01249634732774286 9.405374088719648e-011 0.06690864398086625 0.09211444330333296 0.02467214269118389 0.008298708427450867 0.03782808867721328 0.2356455415311823 0.05284249265754899 0.05091167171905974 0.009693286755780146 0.2041295533972434 0.03262173807992108 0.01134344328953506 0.03391233596873792 0.2663919744897181 1.309015386513817e-010 0.01175740680750096 0.02274915745082551 0.01616786867632167 0.02411617837259897 0.1128633443638589 0.06973972914437523 0.08584108459490554 0.07924443156131839 0.0169257601744618 0.2349524905991633 0.02120665711966293 0.004131580545649423 0.07277651408282379 0.3155290924543018 1.798743720179303e-011 0.04318394171413392 0.008211518454551649 0.01590882430496869 0.004195000804947221 0.0589011531462308 0.2456830158191573 0.05935503227458079 0.1005485899493766 0.01117219258326562 0.0480194100602899 0.007933021298806445 0.008582693034578046 0.09144929369643974 0.2278700569728125 5.054688765038247e-008 0.008473370300267432 0.08909432157238453 0.009022352692194204 0.03712880840263164 0.1047726190179701 0.104298126286725 0.0464553083227524 0.1008078991677609 0.006826207508181281 0.1327661504005613 0.03872916997038615 0.002306265142045499 0.0589750155949265 0.2658122318119439 2.335205741302644e-009 0.02780232454045897 0.06738752779350209 0.01497325786130156 0.0269881373734722 0.1059432275516486 0.177150044971072 0.03557942398678537 0.04428750769482756 0.01294810721790582 0.1193222698320076 0.03111582525241355 0.01171509618252849 0.01910176584626682 0.2360178018774611 3.093741804233467e-010 0.02601011867811548 0.08846983657137089 0.0204884236012375 0.03922517665912436 0.1158297631530211 0.2265330719742698 0.01147451893978476 0.130162088623321 0.002490135676529303 0.05596206101604236 0.02497619744087354 0.003259039633207634 0.04778228520470329 0.2063907595238013 6.236391124930112e-011 0.04133437792588755 0.05843915616906258 0.009692438807830725 0.02606619106506545 0.014473816972575 0.2981156340467353 0.005403764438980391 0.0834779238329483 0.005517406652615704 0.1694899956685124 0.02376878039192052 0.0100474692369977 0.1036968803569254 0.1550635417103939 1.000364495197901e-010 0.04277650732347989 0.07330859693030546 0.01555566711024783 0.007672931017550417 0.03306528623809152 0.3075736633865805 0.03047206654311933 0.02018505199412714 0.01034919654702183 0.1965600855596798 0.001923970374974891 0.001796554807465614 0.1091339047089505 0.2707412128012914 1.857710525544215e-010 0.006892574569764743 0.05810347680290555 0.00622858238207325 0.02136799953064884 0.02575522095793132 0.2402701545673065 0.03199117362546616 0.01928913866679423 0.007101293668489959 0.1729653526101869 0.02002883060539892 0.01013108431702048 0.03533788997935525 0.2858113572699262 1.386874042825489e-009 0.03285607947684916 0.04996787866472811 0.01164515085757903 0.02503894837657576 0.09137622890258873 0.1835534204709692 0.02121359528833191 0.0507865149418129 0.01811678103514674 0.1636186790810065 0.02089710297922815 0.009780371289028169 0.1135344427998389 0.1255812741984637 7.786973294607557e-009 0.04723562816537652 0.1060993887504712 0.01306393207748774 0.02264489806539482 0.01603106305507632 0.207142214787924 0.06330113274279182 0.1247741242204584 0.004054229569102627 0.1380178481420484 0.01196639813088082 0.006553417507711563 0.09887384121493327 0.1323380691284553 7.563222856591471e-010 0.04164881003514195 0.07961249767678594 0.007890806212674168 0.03627356778352371 0.02446971613529037 0.3523035034400367 0.02675479939297787 0.1358587096710073 0.005620836406172106 0.0456686145312622 0.003643988124195437 0.009042239491221507 0.2560853567560282 0.06873838366448978 9.369138643562181e-011 0.03264869128417969 0.04165781631016336 0.002467948001037466 0.06284062508264961 0.03429485936886365 0.06629111142469196 0.000359530569807574 0.08671375986343669 0.009523295729042387 0.278592749237265 0.05588163933226179 0.003904233282391422 0.03955217716486022 0.1098180820739741 9.316793264907574e-012 0.02215881353891892 0.08159380989515426 0.007448170241155517 0.03088472655595626 0.1074398706010004 0.3348487214138344 0.02153048021025419 0.13651463613652 0.008037019531059404 0.08484647925919034 0.01422176922163669 0.00110524414716862 0.05780060753478202 0.1776907562860494 7.709653000325647e-011 0.009442585609662524 0.06666197979748895 0.008862557485004483 0.04263949106348742 0.0102518684035095 0.2255883174914307 0.001375272113501255 0.03009004034297819 0.02348357200257317 0.2919284084964199 0.05098385013661161 0.003200693159404342 0.02496492027375682 0.3304937177239627 2.340315464498862e-012 0.001571029036251822 0.04901385920047661 0.0005227159211688792 0.02216648913429051 0.04288938514132044 0.301056897268678 0.006534475912348589 0.0813865665367829 0.006101226625528149 0.1248067341691556 0.002255540296025378 0.006236442757913291 0.194038491682999 0.3168370042726846 7.251474135279628e-013 0.01366047518494545 0.1036488355892625 0.0005046005007319157 0.008226187969668361 0.01933760420900097 0.08496112106678863 0.005131391222556144 0.01917670596688376 0.01260324981880325 0.1955959218705176 0.02382275693083756 0.002455653713595338 0.06807007657760053 0.1514299506459522 9.444006598185972e-013 0.007425464702724321 0.04023052024230707 0.008346325054012191 0.06169727116528744 0.04132887362344102 0.388516270885654 0.0203814190154398 0.0378977304202968 0.01030516558941125 0.1229363423083232 0.03365686916756008 0.00777772060104574 0.1066319666703436 0.07876455915125766 9.745845778137505e-013 0.0004393008617877271 0.01652484685276294 0.009205415136401178 0.03645294042979151 0.04184389282804547 0.3223616720323688 0.01186081962662287 0.2391306077353881 0.006145825990203968 0.08823733299577162 0.0283374090485938 0.01406341063968631 0.01540547567323851 0.3147494385367102 2.864143797708879e-011 0.006435643691300215 0.02191692886868948 0.004998432939539928 0.01729405364985815 0.1098809979504631 0.3470477219035664 0.009808043233347939 0.05385292222463417 0.002763095742359041 0.07304538675350965 0.0221277469122735 0.0006741118918683806 0.1504042087464357 0.2943468479800039 3.7358949427675e-012 0.01601373482361376 0.05420531151941075 0.005802155224705351 0.005884205371021673 0.03285479453198684 0.06606976462181018 0.006744081882718543 0.08928676688190597 0.01102927012907294 0.2428800963219161 0.01594219641786556 0.008536565543797073 0.160844778439826 0.2397406600993945 2.823302020813124e-012 0.02458630920958481 0.1045884995429593 0.002029179516100745 0.01260318085680503 0.110469817543803 0.1218709684061613 0.01531467044819408 0.01337239367276084 0.0007631570198836585 0.1495973970266165 0.03152782425362648 0.01269116396146047 0.01682683152821206 0.3270276903726954 7.339049476209289e-014 0.001499071187821186 0.0338144715687153 0.005543494575364492 0.03064874096524522 0.003795565059788779 0.3119937019670649 0.003526040475090446 0.1209390245743035 0.01382263021565572 0.1005811502834007 0.02926566507485983 0.0007159221517091328 0.01237737517268818 0.3552989932589847 2.150074385567128e-012 0.01343219317154817 0.05805432315983854 0.005102581379939219 0.005682594794599071 0.1414648623460341 0.02955124141295968 0.01496757247670003 0.0641629744165616 0.02014873906830537 0.2382711004886637 0.03044614218043358 0.01103930667059416 0.1552650951444515 0.1806431820375084 1.167734529315403e-012 0.01540347582357378 0.000409986422578299 0.004856043492773718 0.00333200033399122 0.008706560128803473 0.1870823353185353 0.005550215366074948 0.1449930366402989 0.007577350446193761 0.2598920097846791 0.01616615063348749 0.01012255842588226 0.05806338872209763 0.09848278174932604 5.41513262215324e-011 0.001625044110215084 0.05663901609229286 0.002213027630628106 0.002937505244262752 0.03689538332326739 0.2414111920342804 0.004804987138661295 0.1297934393636663 0.0004522994775033657 0.3577394808166881 0.007919202709215544 0.001023251533743845 0.1569180841788725 0.1774599815401588 4.200768447294866e-013 0.01791607396627856 0.007723688171637079 0.002653572653268519 0.0194184461973037 0.02413290546352134 0.3551323839511407 0.009760109449477684 0.02999905337729459 0.001347023464644205 0.1744322254438985 0.02159662240831567 0.001509829733768209 0.08615468484091235 0.2637563992912724 2.679477428833758e-012 0.02243456913449328 0.06691256981741475 0.004912738520430854 0.02779729656817898 0.03520802756139866 0.04956649346545633 0.009446329249614485 0.07098469597525677 0.01087971515168744 0.3097690093224197 0.0314453218987473 0.01073214920003708 0.006946526756343606 0.1460971774136727 3.860898808661576e-012 0.04432643359583122 0.1942791231449348 0.009734602248369747 0.01666442200143256 0.09190861108622346 0.1218043579686264 0.005020123294771008 0.2081473399694875 0.005151005599957384 0.1031911061145881 0.0466326573933679 9.651340853298178e-005 0.04738071510412176 0.483691747016817 3.325433516242674e-011 0.05447890998501196 0.1023575518823865 0.002938398364088433 0.01327910202682516 0.04702685416926511 0.1062645341279175 0.007118174009396355 0.02963827179702601 0.01306009854529173 0.02752671443047325 0.05616468397215801 0.009074244535966926 0.004373231735694979 0.4365900808294744 2.486828736226193e-012 0.03898941630643579 0.01200253857189387 0.009464540460533095 0.005311849003593099 0.05753004959623539 0.1269988263352143 0.01731142080769178 0.1494415833745727 0.0108532543930413 0.1139256835527284 0.01582350268083075 0.001384022349573221 0.1403599713362388 0.38513918063567 5.234695895057225e-012 0.02761663837777424 0.05788183102091207 0.004960696422309627 0.0324092023863742 0.04985855706875018 0.08793843500686162 0.006659357759920561 0.02605036153534919 0.0007366343881843648 0.1110909669430156 0.06439707815738924 0.004901088956015564 0.05137143818675137 0.1579005800418087 7.697860665206008e-011 0.05676273838861501 0.1383180794218442 0.00743372316677171 0.03727616378337222 0.06190099779752411 0.2392782767701948 0.02635573657332134 0.1110597275772521 0.01319794408716902 0.02710844730173512 0.04877161093757514 0.02326453588908665 0.1679815050288873 0.1390620421319665 5.271886736329031e-013 0.04628523761519372 0.01082966349984023 0.007101998184171916 0.02571768061314175 0.1351147134496464 0.3235615190828077 0.01276946054457624 0.05482885279120375 0.01901477193365459 0.00968942726406808 0.03380787099037274 0.01423525686994186 0.01062033895099686 0.02349998080846344 1.309109710676772e-013 0.04478807549232636 0.06032840815743305 0.008454015055484744 0.02947540106670664 0.03634440501392694 0.2065111573137169 0.02848821370185554 0.300362473694849 0.01358262401876949 0.1791591440299876 0.02688498552918173 0.03150077716617086 0.03919524302528558 0.4035213582000066 1.312408816397943e-011 0.006694561119564373 0.04236810736303199 0.004480067297630148 0.004362953841104507 0.01163511478159235 0.2027400876680064 0.01144794799414755 0.1581359798148042 0.00348932648754626 0.07557464005338042 0.02105997939645525 0.01529463294432043 0.0302605452844492 0.3690581631808929 8.148658383573856e-013 0.001077648170656158 0.112393675452839 0.002945949335647533 0.01005639405883772 0.04670995105416475 0.2313947644785482 0.01111897479253881 0.09754894963159105 0.007313782807899696 0.05865874393914677 0.01389358624297859 0.007568871568994968 0.02496917400148885 0.1834838722163906 1.407591746936409e-012 0.01035969689651695 0.1265552143665006 0.006973271238571178 0.0184408451661012 0.07092682821866546 0.2722147990175154 0.02355868013023402 0.1256611295198797 0.01009108595316055 0.08820366177364448 0.03280366467975542 0.005758076820168119 0.06190741638305865 0.2189015920429574 6.313799943824404e-013 0.05820268440321347 0.3086818384501922 0.01753756410494423 0.004611933240097964 0.01801198366400797 0.02415513095957257 0.02124830724327898 0.0160208828589876 0.02262110539889163 0.1594982625798486 0.06545885175556522 0.00314244691475233 0.173869008411782 0.2432845769690752 2.334459997690671e-012 0.07453456093232455 0.1588922939661813 0.005285421097302148 0.02305975687352381 0.07895852208630888 0.0751636069140023 0.02189347296058058 0.02664202889060652 0.01194042214739413 0.08478383583520915 0.00277628588541109 0.0189162070279638 0.06043987532603562 0.110483585713903 1.95485170680992e-012 0.02142997863286033 0.1893882869142071 0.003311119988475796 0.005363733365788131 0.04352876089184404 0.3306065616425558 0.006848644519198708 0.1194306974275757 0.0003766466082390282 0.0818137095502373 0.01891524531211747 0.008063154105007131 0.05919061146841319 0.3233753089138647 1.447667742052979e-011 0.02641667905138686 0.004489288337815521 0.007531029071662044 0.02301670933150331 0.02822026761662932 0.2848657650717004 0.021505071477953 0.07397295582918126 0.005508762756876519 0.1107495893690118 0.01984048977590595 0.01131747191361959 0.08004505578002025 0.1629911832201462 2.624498504529887e-010 0.04877044278072382 0.09570568434558487 0.00597068103840571 0.004944322333338891 0.05627178744306493 0.1915699963707788 0.001971370969592254 0.1288310339906074 0.006639953638611797 0.1788781849644983 0.03459875537940484 0.002811547482772247 0.006702596530530826 0.3493472516633734 2.629891986485666e-012 0.004640614479796241 0.09832298648090591 0.001585302497466616 0.01081249207010922 0.07612347417548238 0.2127551390069516 0.003991286279099979 0.1269422934657092 0.004798667254423862 0.06383511036160423 0.02613997400716747 0.01400281172474929 0.07348577474577227 0.2201051065592439 4.45010978438956e-011 0.01870284082603971 0.142765482690234 0.007618892898817765 0.01072416107589536 0.07555606180680312 0.07684376031057355 0.007662473829526677 0.2523859316224662 0.007498955233247366 0.0897726236265208 0.001642105686262021 0.01523582904409614 0.142986948764091 0.08673592489581965 2.675801225554195e-011 0.002686831441728226 0.2317700607486491 0.003327225075508187 0.003152728453076736 0.08066967252386714 0.03961795933767205 0.003054664495181624 0.2473392720488345 0.006798545076904877 0.08162676831536518 0.05867284487182451 0.01156055392471924 0.03747123038377506 0.1363289533226356 1.337444212805482e-011 0.01557056540168728 0.1897958365255777 0.0127362169687305 0.0006633109213271608 0.05454961544747632 0.1475941220401473 0.009737873633313417 0.3350088839045533 0.003097025480976004 0.003897734887367376 0.03120775567959755 0.0223408753894611 0.09044378720006066 0.3137861415884544 2.453141826995007e-011 0.01101050353087207 0.109373687398357 0.01483422452370612 0.011333971506881 0.01022799701259077 0.1091514915094209 0.0003191899824064505 0.1722868291233584 0.001422457153705625 0.1064785516763082 0.04137525751714894 0.007955910252198035 0.02459548085031435 0.2487278210272804 1.460502095325152e-010 0.02449160021948464 0.01149553916014285 0.001592877780120546 0.02941007405917578 0.06492455530692459 0.1435041140089701 0.002560813580941891 0.2926601133754924 0.005148607209193915 0.08848469115543838 0.04674113047374384 0.01566258164672617 0.1049176282697209 0.1979417190922149 2.004537435108838e-010 0.01972996289263847 0.2695989193738281 0.006056244447581057 0.00850522234472471 0.06279535730593155 0.03823088820177058 0.009001843632020369 0.2510338781338258 0.003515184983567747 0.02279626062725762 0.00283742180367163 0.003039468690792928 0.01100814774225885 0.09400254406709371 1.600525422438834e-011 0.00366855176851386 0.2889213690776349 0.007114363357033597 0.02071541250770071 0.06557043708212067 0.2721283255445328 0.008052925596848845 0.0716949979102105 0.009719638936121815 0.1257820224194821 0.003946529106607058 0.01767473486783512 0.07793285638101118 0.2798286139831255 1.40414478325729e-009 0.02140579567848262 0.1842105901369053 0.002867274131495476 0.002317944669430655 0.04464757282205049 0.1290963838528697 0.008630811297247786 0.0728937141576357 0.006677315056305908 0.127129646089667 0.04182007541447311 0.0005414049251547086 0.08862832903503075 0.3441694343020347 5.887969569280455e-011 0.01625118850407716 0.1008132146196037 0.01024178832221787 0.007701723134482581 0.03274091117011098 0.1303594783231318 0.002565745929898501 0.1301024340188287 0.0004406865476656903 0.07979429379319511 0.04350960426354205 0.01268116797730103 0.0493557948525413 0.1329832026574747 4.558036030218308e-010 0.01002669108843853 0.2410536923262398 0.02208152899654413 0.003905817761866946 0.04782510530890752 0.1566253284130437 0.008861561419233933 0.2067013757677493 0.002655115149060791 0.05388391450521054 0.05444312020852496 0.009597751089360101 0.1075857164426805 0.3839784396786938 1.638305575095564e-012 0.02024202081105722 0.1286598270375607 0.00538194589089044 0.01713914239345872 0.04412354163999997 0.1210379499010859 0.008778328822810147 0.01604863628030096 0.007330420032800053 0.1023642300299723 0.02883048198723738 0.008499319049813764 0.1484476715052994 0.3106324221770647 4.107866006199018e-012 0.02502095405629996 0.02567354727026112 0.01514999225734356 0.001238225258963707 0.03917972151796022 0.06464937208997623 0.00430754535400741 0.2043186397444875 0.006059196890658916 0.1329472087844207 0.02024562388898069 0.002129879200168201 0.08417754360856757 0.05372686257698379 4.055863296621822e-011 0.005612965161396233 0.2255558866722288 0.01929808964836471 0.02358149327202878 0.06441968089214457 0.1145634412127174 0.007756805666880481 0.2758290585096738 0.006527345139953827 0.0628439914430594 0.04777784374054574 0.008328992414896309 0.08172145086973688 0.05316557786767723 9.509146022291943e-010 0.01179235144238079 0.2036719005132904 0.01248827324021944 0.01108170741968617 0.02577274695170368 0.2731504104990079 0.005727817139862163 0.2027120713318806 0.004018318877578185 0.0714933646334321 0.03899496149719667 0.004209046765433127 0.03268808260121846 0.0440276225645402 9.649590849929173e-012 0.01905618370443578 0.1307132121523477 0.001407911122511152 0.01605386260253505 0.1183271040987009 0.2647920251923864 0.008310070384103217 0.2083263620158863 0.002657836532729763 0.1047977462919554 0.02530505685517485 0.02353692387182524 0.1259275833033943 0.167385948461656 1.266592315863134e-010 0.01883847461423184 0.09861493967304244 0.009096837395658084 0.004822122595247389 0.07899722056342871 0.2080066080107003 0.002630259948396123 0.08216063516567791 0.00452503036867507 0.1406554554970245 0.03971225993819935 0.01862662433800865 0.02698391749193115 0.02973379757779379 0.0003287106192605599 0.02674356010688061 0.2167960036002119 0.05177245109198967 0.04560611533576206 0.006711644440816345 0.01668848411250641 1.096284149799113e-012 0.3114157745580877 0.001653624305362093 0.2220142316020398 0.008044181644849617 0.03550750351141198 0.1085787115532182 0.03700412716140933 0.0002753948109211951 0.02097091290702026 0.1367662246582456 0.05339106663393913 0.03781454591788271 0.07447987888769131 0.02427337792061045 1.250050824369301e-011 0.1262835560526353 0.03642838146865932 0.1779006536626469 0.03144227890010765 0.134390889452512 0.02235345647278302 0.0114405907653339 0.0001443398359386502 0.0722222956168008 0.2043355042077606 0.02996368121841039 0.03111878582344801 0.04613391634997017 0.04656916988146571 6.822341933806468e-012 0.2538142978781485 0.04397714904731239 0.03489541404712419 0.02802630458207127 0.1750050942666099 0.01325909152876334 0.004703909702666291 9.257401865415089e-007 0.3713327761950185 0.07294002444771865 0.09411676756518263 0.05619148433199116 0.08197061429475293 0.07635911695953085 7.280092984544097e-013 0.01039382860444867 0.03630777806510062 0.1299413481158852 0.03070640908355402 0.02177592536447234 0.06745804610751299 0.05562366459295462 6.130997878793936e-005 0.2319483062539357 0.173754754193424 0.0191536221315398 0.005199205018462573 0.09157899294043755 0.01466535631282524 1.448202523765199e-011 0.07771119700554857 0.01435603549953106 0.1122938131094711 0.02817019126619856 0.1080255055748882 0.02393737969824406 0.07222829343727 1.22630327650248e-005 0.1107583511214293 0.2427321330806057 0.02789013319403248 0.01982229465542586 0.09436104210545779 0.04643493923742876 5.542135572346491e-012 0.1564357111675497 0.009410090209905247 0.1219793371548507 0.03928482640550817 0.03471320549398497 0.05933194231311911 0.0759596736269236 0.0002558510182746582 0.2255399193569629 0.09046907446436762 0.005575060327429864 0.04376682324495725 0.05244609151230544 0.03767265369330845 2.585036485483945e-011 0.1444207026944636 0.03746284825001624 0.153615063400893 0.03809154510007168 0.03539275097105618 0.0514588476045976 0.05063053532312541 0.0002521357806037076 0.2005919790273111 0.2055801566033462 0.06976428138365227 0.02650294883118606 0.005045106336992113 0.04546566236266431 3.210337498208209e-013 0.1239223312903982 0.01206416065999624 0.01408949152969529 0.02459506346251486 0.1700372998035958 0.02301769578261746 0.06665870318504594 4.275362810664551e-005 0.3540462060273016 0.02048829128648641 0.03021890950779834 0.02647281375729615 0.06457917103567462 0.04851571081241145 4.464893709954549e-012 0.07114525014000776 0.02506984167409584 0.07364178811961214 0.02493662337957332 0.1711662416595075 0.006677314970888608 0.07847491182146446 0.0001034121737398406 0.2471381412254319 0.1499809005798249 0.03456906487062748 0.02519441568370208 0.09351116925267787 0.02090096518342607 5.308285371703816e-013 0.05130970480484193 0.008311403771330375 0.221613336311281 0.005183446883742481 0.05703181246649016 0.02113038532213403 0.1027487594806367 0.0001254478296451388 0.09213187575032839 0.08407601617757624 0.03490758293009683 0.06586141972115682 0.243218816386972 0.05543376300609867 6.709031907847774e-013 0.08186023433368629 0.07294494164618293 0.07480508369004514 0.06280451875417728 0.007951154970592737 0.04753229477697264 0.0007436247071546251 0.0002288246026380074 0.31057578042377 0.2056499702275298 0.03603468369096283 0.01108499381494934 0.009532507983344827 0.03199487232133361 5.336672744244052e-013 0.216061111602651 0.01555547584493843 0.05629103654757096 0.01358378807322593 0.04513103538242414 0.0151034312335823 0.05143584381637781 0.0003016521507433884 0.3530211344085064 0.1188824307276246 0.05320710469474455 0.03010560759787629 0.09658368395084568 0.01351000666192751 5.567108041094525e-012 0.02434557356787527 0.01645049256622625 0.1744134412352773 0.006810270623347301 0.04582932675947849 0.1063752906732932 0.09500726927222319 3.76636946569198e-006 0.009629160353378711 0.2981981090248447 0.06654897033325315 0.05242796079786184 0.05647035550357828 0.06968374637184922 5.36447084284204e-014 0.0238199895903738 0.05417228836347472 0.09848191838308101 0.03283245926770481 0.03634871569556387 0.08512409328994144 0.02981493980964545 4.461890944000236e-005 0.03317352453512663 0.227993537350616 0.01345538937001821 0.01106267881817208 0.05497086146924578 0.03723239893705832 1.825461738683634e-014 0.2467142068874966 0.01475989560195028 0.0843589430623647 0.02250610857027292 0.1387888033886333 0.04442139339765664 0.0318347570604306 0.0001710512861486007 0.1314797342273739 0.2555805881829787 0.02850596198254378 0.01396867662374247 0.05189706138727251 0.01270873574569677 4.01869566220933e-014 0.1504368196818706 0.04761180213044757 0.1095059397267391 0.04234196806036563 0.07953551050669272 0.06832859646107985 0.03672150962089679 0.0006973788592737443 0.06459282252350249 0.181354567391076 0.04411451432251962 0.05709631212575708 0.0852650080218547 0.1486749476573607 0.0006183437197315253 0.04683678707925004 0.04277589950289977 0.06649886906924991 0.04884893482527006 0.1075755088202776 0.05228725850570692 0.1105201064972844 0.0009471794662556269 0.217997416540919 0.1941530248920419 0.038723352881663 0.05337892800973366 0.04152314328701352 0.0098200447311382 0.000134035717200532 0.1354768844756779 0.04748786327161236 0.03256014504305493 0.0194453703572834 0.04554524632341488 0.06240333613023658 0.06361963559305016 0.001515228148443848 0.1941894741229756 0.07168237755519959 0.06121085719000565 0.05121992368468467 0.09250379084259305 0.08921593248313318 0.0003516198780848458 0.1862244575134207 0.02575296140458677 0.07644424792769744 0.02035557473948255 0.003310582786405505 0.02456604078240792 0.09323835604914868 0.002256076926306527 0.04634689685069758 0.1662704785197035 0.003916130691015487 0.0257478927071372 0.1526149311165836 0.113281613081156 0.001047371125680999 0.1451189251287352 0.06767341983258633 0.003721456596872419 0.03306553278493676 0.1211348778070318 0.005592475245920673 0.05552675078774457 0.0006640418685050505 0.2630318945690903 0.1182467409141511 0.003783058138464034 0.08161486617291026 0.09948450622401124 0.1516410848713455 0.0001441306793387408 0.002327426829102114 0.0223023105039536 0.1070015520821286 0.02540191857730485 0.0632372425360293 0.0352976710068904 0.0465607859072816 0.0005968824535584119 0.3049864118635687 0.07857075592465068 0.0109968475386259 0.03883481217841901 0.09431162888391491 0.09472220167871764 8.797694284734123e-005 0.1752886095234365 0.0124702104524823 0.0146713767500833 0.03253920128568483 0.06006462760983848 0.02503754136173576 0.03323046600449574 0.0001806624298819533 0.1463058783864335 0.1289847729569172 0.02937323163331151 0.05699132480530979 0.08929430016486202 0.04144904526539071 0.0004538995623181146 0.1627262868236129 0.007742195653328669 0.2052787327204934 0.02816480920317981 0.04478685302872894 0.05815216451680346 0.07763372113608517 0.001482088182996861 0.02745395979993142 0.008744853419898294 0.06433256255403234 0.1634752118330155 0.03003679185106003 0.02730204357831392 0.0005734454983162823 0.245638099058503 0.02547948447003327 0.1649212966195899 0.04704026263840716 0.05773401484301342 0.0111598956804116 0.06901514146949511 0.001488269514168376 0.1313626606557603 0.1727283676535069 0.02961393333358017 0.05161724875104299 0.009228973858449657 0.1060038386702717 0.0008437137823051495 0.2114551684217104 0.01084140459271201 0.1143074861521723 0.04456903226273445 0.03576486520167893 0.05774274147367078 0.05651494753526983 0.0005476021874729619 0.2111323838052511 0.133395882012731 0.006098127847555195 0.1567581578056892 0.04303133948005292 0.03527993557506486 0.0009080814298875351 0.02225267815054657 0.05137539212481031 0.1485579473552807 0.001185692337850505 0.07521909087886662 0.001249798742224738 0.04299191125817437 0.0005680051891966904 0.04262172827200816 0.04537622394553801 0.06896656674980294 0.01601891352856592 0.06184265972637617 0.129987811086538 0.0005553707584674325 0.2125469919848664 0.002732711511722539 0.2516687197280813 0.04000169227577459 0.08287089524266282 0.04391946006720977 0.06473456830580833 0.00102788533940173 0.3304267702488831 0.01950093315115136 0.03570886233075693 0.03538207529917237 0.05063095649540476 0.1412143334583486 0.0009228361276310234 0.05565043603778438 0.02683960148919978 0.1108561054718269 0.04598654234637167 0.03719863383104949 0.0400076476079984 0.0735258209341856 0.001007654039367312 0.04232820184134965 0.08484978625700522 0.02605361087712308 0.06993225332574519 0.1310803206368004 0.1700702460740252 0.000735948070535621 0.1873248382757791 0.02938909114613319 0.04254013451141449 0.03179682142940921 0.06935762497312814 0.08780443824041045 0.0006903175472134694 0.0002043257404686553 0.01641124688337308 0.2310661252398045 0.07297244334424492 0.1113350589797635 0.00384201781023665 0.0354819015715965 0.0002083872863875081 0.2747895141815588 0.03541650861962642 0.002664055706409273 0.05807779719710827 0.06903586165179799 0.06624497092439438 0.09805332939378866 0.001331272120660791 0.1882930921460708 0.003929579325437993 0.03571528621825117 0.003304139943981268 0.04545596254477552 0.1768417729289794 0.0001987294610107418 0.109631092514026 0.0517921314521999 0.08835657116612054 0.04383755002337091 0.08701451983693188 0.04630388158560035 0.1045797717986176 0.0008365277413543523 0.2617117816545786 0.1445073659697087 0.06205289468804276 0.01583884895015074 0.0150505336721266 0.05468302104938194 0.0002954283297254877 0.05207862033984476 0.0110308090914897 0.1293554888586143 0.01642857610059175 0.08524645017017221 0.0776085531006121 0.04049003008356357 0.003869766436940246 0.1369308763192426 0.0603117784925651 0.04313537558705657 0.2225031806983005 0.06461672796454381 0.1892188900264121 0.005260263231711125 0.01316554331944431 0.01441843936265954 0.02528873123550244 0.04161781121371503 0.06156403292773116 0.03985685430168046 0.03528734054877118 0.003533418097910933 0.07092393282254213 0.03304535518701747 0.03576235707291858 0.05618500897522689 0.08648587091012171 0.3147789600168344 0.001594016106301132 0.07996966677660128 0.005553959703845689 0.1772004931211489 0.01852455466009729 0.04129821169898212 0.02773779515308458 0.1497114807200451 0.00297844725694522 0.04396698531347764 0.06754211654349382 0.06760446305634504 0.01734231281759997 0.006547919541175115 0.4528958471846423 0.006518670845225358 0.008819621223256489 0.01047423811988755 0.05103324648589977 0.01911713826824616 0.06770971747067604 0.01692174443373659 0.1252271938601192 0.004811926126782923 0.2393669950600033 0.03972268436031617 0.03414988796304008 0.1854900435779268 0.05902387682639756 0.06299051685357006 0.004199565834181159 0.07377451535189766 0.01548330517211726 0.07073640824492586 0.02600610338749942 0.04209523294748583 0.05636800365539233 0.0824028616537044 0.005599894737755772 0.202851022466042 0.04761060111404475 0.05368787209096301 0.1042724484126544 0.09902013760694119 0.02229839916453199 0.001540560242612325 0.0495143651622697 0.02217064337223988 0.1446512318515266 0.04175010456484056 0.06626185390448117 0.02635728367545287 0.09401109165060491 0.004626024322585783 0.112979837590036 0.06698093040429064 0.0553129521936015 0.1148313887119351 0.1645923474654894 0.2055046970649466 0.003480478261905778 0.02842902944808805 0.003171162561127714 0.05655768312423345 0.03117785537925347 0.031987238146449 0.01616120405959945 0.06274880580659427 0.002470782601576397 0.1713504193697182 0.09078209124703852 0.04407390601368331 0.2451643028238876 0.06890514345441956 0.02680956623596784 0.0005691387061153625 0.05827586404525767 0.02196574107453311 0.1189089388750206 0.006006353904989493 0.06580774178159858 0.03228629578949958 0.006648050031621505 0.003910332518446086 0.2411975404391324 0.03185812018942572 0.0667714920022542 0.2844253673877075 0.06024016964309489 0.02145280159949839 0.007559660880510224 0.09069117845981023 0.01684460963272471 0.07639018735915153 0.01441182929104371 0.0453123647760792 0.03899322605172537 0.08783097668035411 0.005343065212496907 0.1301259874880025 0.02961124787773766 0.01334727593300802 0.07379841094978 0.2274590847818059 0.1042614790732228 0.004962205904245265 0.0682096567198392 0.02000518944027343 0.09946885210941282 0.02315428518625301 0.07342905659184298 0.06166990753135298 0.03904794523520012 0.004813650997502401 0.1934500788779301 0.01491613186588209 0.05082078996255281 0.2023619982241287 0.01312994038873308 0.1443443620425657 0.001600597749694097 0.02169955458524325 0.01707064636827085 0.1448803394657739 0.02803804739910103 0.06215600930606872 0.04716529849365826 0.03602127031309119 0.0004630893964668222 0.1619095534511703 0.01402016987283062 0.06654579450236858 0.1630729964969135 0.2239547193129948 0.1449331327878214 0.005996800299503156 0.02261436152925046 0.02041861440532164 0.01218702523532958 0.05023547778166979 0.0304616961216099 0.06284948061335111 0.1074531698964662 0.001463990405810253 0.1286929029086282 0.05788993788556364 0.04490852031222032 0.1829807925968356 0.07352406612254479 0.114052307129409 0.003025142358885103 0.06144286710740609 0.01416696295754209 0.080513912421307 0.03650174471998214 0.03053420256404857 0.08652991207882625 0.01459619222248354 0.002066090720804388 0.111770870431381 0.05785912769231291 0.05243212525585026 0.1504862245114818 0.167040000099389 0.1084571676472999 0.0007264485321098686 0.06721248274964799 0.01993390972283254 0.1058713404494037 0.03993243634799497 0.01508567153818189 0.07531817594788155 0.1248082885158834 0.004676316973501168 0.1279450867707503 0.03632158930253444 0.003210272836501572 0.105335106133502 0.04890065947863577 0.3459979378330959 0.005087956658338946 0.04901179990932229 0.01920972267549428 0.02752724581074423 0.0033634262861611 0.02328641486765297 0.04665683047640504 0.1375995714540538 0.003376020575667925 0.1430729253209108 0.005272277333327783 0.02548887887098367 0.05120928821828258 0.1076259951294763 0.2948406513076499 0.001328241367280936 0.0112962291473439 0.0113100161492009 0.06968086074010763 0.03489779415890017 0.0563444197504088 0.08068406317398622 0.09292215591230832 0.003448947896611906 0.2213728189281498 0.01574094030351452 0.05362642636337989 0.1571715351810695 0.05036818035680381 0.1206677909384405 0.00652050723893579 0.04546241414073687 0.01851540633583003 0.03405119661018191 0.03277785649945228 0.06666976012059857 0.2075746676112716 0.1285742283059321 0.0005618990562925569 0.09365525844734293 0.06021665419378444 0.02049364539229196 0.111456307577627 0.139391875300337 0.1270903904757574 0.003622000231785232 0.01230809076184011 0.02306152154785047 0.002292821309451295 0.03436327465059304 0.03533736513784279 0.08817466433162209 0.02029833101424508 0.0004388526842495671 0.1670908912212215 0.03989902167451536 0.0444325155207908 0.2024547632311722 0.03472350998572026 0.1802996236338169 0.0008038190612794161 0.02305031535328837 0.01172702604071894 0.110561030592425 0.01951150915541148 0.05653412649952323 0.02755167848119671 0.09453622896105229 0.00018573416225789 0.1438730179106584 0.0288796469074463 0.0663090982314684 0.2790403931428939 0.08190596607350693 0.1962731388286568 0.001028268493700911 0.006720970695286393 0.01495515868769949 0.009934543111475841 0.02723041907863682 0.02157573723406339 0.1598456987774369 0.1046298084633205 0.0003820912392206971 0.0601731699463998 0.005185732148579838 0.009665851789081435 0.07187903462690022 0.01992283015836122 0.2773041557047841 0.0003457555666342199 0.06524658126054954 0.009205889921478644 0.1358214479016106 0.0315274831501858 0.04886446934545672 0.03250750915197928 0.1131180044722177 0.0002991914853132908 0.1500033046593313 0.02655179605036976 0.1032937345281962 0.2032993552951095 0.07049527936417409 0.07857294371481299 0.001274072815720863 0.04646300560191035 0.01126795004587285 0.1108435231390372 0.02494328329018692 0.02706704638576799 0.1388601861657161 0.02260491553562596 0.0003684196330703169 0.220046659847875 0.004229575766863528 0.05351228572199875 0.159821577804129 0.01323266035674948 0.1815387194666389 0.0002432671925947247 0.02229635841631532 0.02541103936622169 0.09384214203772047 0.008814150681071966 0.05517804200740879 0.06682841705610043 0.04833326065743679 0.0001728294192630491 0.04511261352619754 0.03877607286397457 0.1001487070322557 0.1244577170678311 0.01156892207854077 0.2562586317324888 0.001472925183307824 0.05667162284446477 0.008606003914921155 0.1575834305307675 0.02146688320022624 0.0625419628922239 0.08858940986993877 0.08368506586425151 0.0005184135160928984 0.1891113593377179 0.05575183714710057 0.03473003547289261 0.04354208645820964 0.06516520960663903 0.2933238109684603 0.001249505428439961 0.0399807755035372 0.02377611768924911 0.04845706493067817 0.00870668913295174 0.02341261907384042 0.09034743839062409 0.1349364520779504 0.0005298724997707932 0.05255778529340475 0.06529059705428841 0.07189611772378675 0.05871606446586004 0.04059786697048506 0.1655676805299895 0.001599919550042939 0.07307575104992166 0.0184593091709708 0.1562058681518758 0.03477871392679043 0.03544056314423852 0.09070983613646598 0.1212125402641905 7.476926349384818e-005 0.1733250872149814 0.08024215423864639 0.02173105937284603 0.05294869934013335 0.1317401612216916 0.09193898919467565 0.0008966026348784603 0.07352622856743239 0.0432950366487851 0.0512334916311488 0.03971659994624376 0.02740874432438693 0.186394018109406 0.05474403052685957 0.0004566809124259273 0.1392014995320327 0.04879337409535783 0.02163193097248266 0.09073960168397921 0.09071441296651087 0.01155998362953213 0.001804879203261368 0.06404984768267351 0.03659342002483915 0.1755189179540472 0.01147037108135128 0.0663270316252408 0.01436809001024736 0.1611117238630762 0.0001164746672802475 0.2011094663016303 0.09098595906292555 0.04356339657076971 0.02475846337615132 0.1543511188779669 0.07687610506397453 0.003833919060731845 0.02921937143978259 0.04866433654234622 0.001658197271391823 0.02573865300341455 0.1236447248883109 0.1944605409902664 0.02874961015806495 0.0006051093102432658 0.01182174336040095 0.003430182882114472 0.05647762503055552 0.3204520301232526 0.01701832999291676 0.1063490052809003 0.001241838990437013 0.05398554103820023 0.03311417484222733 0.0839307052289765 0.0008617322545609065 0.0875018305168829 0.01263265777838916 0.0319227995056839 7.347372504530248e-005 0.1623066550689515 0.0649498423828806 0.08545886397096121 0.2835598739931688 0.01162345370943675 0.06963213163373941 0.0001528441290178171 0.06488967365243289 0.01019593443565216 0.1243980468786796 0.01122784746684847 0.06697590166911265 0.02355945979911467 0.1407032694289072 0.0004931339613217811 0.07894544568416768 0.0513230531596166 0.02238001920523686 0.1694453583751538 0.07085111841789878 0.06120525583372509 0.001610682458662435 0.04373371928143209 0.01924869793182472 0.2208876700790282 0.02091373925120861 0.07469937713270147 0.04502561432643152 0.09669861834328572 8.992308666521244e-005 0.1900972195528248 0.05160431650898389 0.0104904576873725 0.007895130674283699 0.09876473544520679 0.2844102269568999 0.002025997201128287 0.04426336599341143 0.00428244361639778 0.0914801797125796 0.02776051666807081 0.04511125422645818 0.008182611377620391 0.02106449263654102 8.945900039943409e-007 0.3022741198556625 0.03823881930308625 0.03053809735329089 0.09894764906002589 0.09982954864530022 0.1017215828792631 1.931352248970665e-006 0.07195871849718842 0.00646743818002551 0.1047368597464916 0.004409387086009345 0.1116278494372417 0.04375312645688766 0.05800962365754454 1.083060034720455e-007 0.258887000382184 0.1147149355886106 0.08415880939794142 0.03854746388242752 0.04372612656234105 0.05464584715695726 1.25414948894601e-006 0.03674598045300641 0.006118121067987923 0.1199389734983355 0.0266579555419671 0.1140946738983167 0.05843402302631649 0.09636952339387077 1.688455451677611e-007 0.2092853574372774 0.059665872136073 0.04934508831189849 0.1089221073785483 0.07242372750906902 0.05394419046600594 2.485396219591686e-006 0.05234008838115523 0.02571447864667258 0.1459456020173325 0.02558019820830045 0.04202708884571525 0.04665872114752315 0.1314513880419426 4.613679037750189e-010 0.08330236943759503 0.1569429533599222 0.02696721944943124 0.03666440065113926 0.1427274170137686 0.0650127307976793 3.893683057139145e-009 0.09690885715578854 0.0371366443897849 0.04852012072232553 0.0269854721045 0.1007217013735487 0.01274668009707413 0.0764518870032871 1.866049153863326e-010 0.247149534137445 0.1121460423969296 0.0939195634992427 0.09125704311305925 0.04612420908147535 0.05158752468587156 1.965497356465706e-009 0.1519843948240466 0.02040304784913804 0.0354519933069489 0.00282373651521701 0.05795434133816232 0.02246250693646251 0.05023353883810199 1.057322697307825e-008 0.2857311482697055 0.05783253991258427 0.03895991907988271 0.06294895093061527 0.1044774526119842 0.1511161092024012 6.709695294336408e-008 0.09286114210584556 0.0212808797386112 0.06860543870007975 0.008257298186411782 0.03523299781713404 0.0187183764342248 0.1209820008544505 5.738726878503373e-009 0.09414218753618063 0.073157595476757 0.09687125499940069 0.119559503538099 0.07847838488846673 0.09313742665449533 8.447371279431791e-008 0.034509825654519 0.02907487562263771 0.1208111904474689 0.01659533781583599 0.1039619498650241 0.05429579478691251 0.09247371552425605 1.220420297787754e-008 0.08180532900069698 0.01845742446349949 0.08968451058359236 0.05241328424424616 0.1158577404737253 0.01562155755456717 3.052793062120973e-009 0.09096090466354051 0.02863715556045952 0.1865946131327197 0.01994642105742234 0.1532515336973656 0.04528831146112319 0.08407163416801024 1.073272173396519e-007 0.2609505740196882 0.05139623903224445 0.0444461439860477 0.03708824361643323 0.1761212825308067 0.04634313382204404 8.652717756784207e-008 0.08157879035319388 0.01262011506040388 0.06664953745916447 0.01242258453278584 0.08102321610365942 0.00283246084107896 0.02104473214886867 4.366118232620605e-009 0.3025812196989321 0.1508271468574684 0.08863831021389532 0.07850307740789879 0.02510142317402679 0.05319783623907851 2.224529575459643e-009 0.03045138415566348 0.008983672339156578 0.1148799084181957 0.01833212266038172 0.1046266992547072 0.03872087128532441 0.03957549811913289 8.474006272898213e-010 0.1541719051897553 0.05324301913245836 0.02489577691502225 0.09514076137438764 0.1836557922292709 0.06637891764821026 3.603509293378933e-009 0.01240249335346583 0.02934074855844677 0.1676346634847463 0.007535600176088188 0.127303948082781 0.0473362597013199 0.02708240862101428 5.577952008099866e-009 0.2903403328793575 0.06714013834200142 0.03036097389917915 0.1115239172629359 0.04576295907982388 0.07763726765160131 1.204237707485301e-008 0.1532119499237225 0.01405959646485012 0.006813717774319365 0.0290713982748461 0.09965906250469948 0.06974856897216022 0.0577025896300138 2.967959947051986e-009 0.3232282361948496 0.1667557701951152 0.03887315191671552 0.02144532308734109 0.04855166997616501 0.07863225463983212 1.290657669722989e-009 0.01059984052773408 0.005262366623824399 0.04367543509157304 0.01531633660490222 0.120208452281156 0.05039521832016245 0.08214797154780239 3.064023700022493e-008 0.2107596428927151 0.05912568933451715 0.04511643419135879 0.08443716077460536 0.1520270261379083 0.09365240371847881 2.00454416311766e-009 0.09348738733404204 0.02276218480159055 0.05713422749164213 0.007956707594116897 0.04099791321627917 0.01681314455180814 0.01317670073877351 1.21984380204585e-009 0.1772496992941683 0.1367782400130144 0.03131175829249552 0.04644875935851016 0.07698043692226161 0.06238172785748 7.980456460856724e-011 0.1278095344272454 0.03049407950724966 0.1928187584017854 0.01903878592653552 0.06869837340902382 0.01913887763748469 0.1192533002342741 1.60815668551471e-009 0.187025309337713 0.1119573096515755 0.0865294200424695 0.06761415879864392 0.08384110403707931 0.07004504003038349 1.052087520505632e-010 0.07438216415234281 0.003008879646086448 0.07663257619521771 0.02589543469458024 0.07467642382878366 0.08137360626226234 0.02179405794062425 0.001654183191587795 0.1236362315849844 0.003751745214705358 0.2463617308018412 0.05017208361674665 0.2415041301225528 0.1869803795813696 0.002910054915932482 0.02767570164221544 0.001948171857523902 0.006942902294093234 0.001443024355471714 0.001851996618088822 0.0555136739396964 0.0001890898764980782 0.0004736174775897624 0.2009568829663438 0.03526893561696864 0.140587660506561 0.1118730395225712 0.144152367353763 0.1423905412811669 0.004468941072356123 0.03029752777091627 0.009482444373748575 0.05552929712994034 0.0004131595332455851 0.06840282157863427 0.0677332504572483 0.008979542128960669 0.0002318685789585945 0.1837003236368432 0.005630745687458953 0.1374166491611622 0.1366043483315644 0.1715544689502813 0.1114708099447158 0.002781173353328978 0.003879331892680492 0.004642313694131562 0.04537784490744425 0.003438593828619413 0.1165587354466021 0.07241290865675144 0.007207760784415085 0.0001019967985656785 0.217794668071505 0.07302084365367971 0.1174393919095484 0.06909054560668099 0.1252705345512459 0.07505936311013101 0.0007014228215828834 0.0145552831323221 0.01741799672635182 0.09297977274398107 0.007207117740025096 0.109740393693214 0.06936979694108332 0.01255904168080369 0.0001398084516319621 0.2470905252555439 0.05148011792022589 0.06447649305386846 0.1008713136380065 0.1403433039898497 0.1060324598668851 0.001199949428465154 0.006742106695852 0.01070262834213431 0.09715591984869745 0.004024736232628496 0.08781179865432402 0.07596789455253281 0.01862459402948812 7.660003439403231e-005 0.2396659326415804 0.05173967190300628 0.05546764436214378 0.08004865206578535 0.1021660674403641 0.1115542087408692 0.0003960995418913948 0.01093108023221743 0.008750731544679672 0.125989141654226 0.003274274624062975 0.1153474066327584 0.07143871090388942 0.02645233219909233 6.174811274309937e-005 0.1988774745368943 0.05410664733327474 0.0376097132778636 0.1117465177525954 0.08072734089897583 0.1103138525727458 0.0007406445778499737 0.01950719547637312 0.008217615062695194 0.1731435107712064 0.005224990201475956 0.1018317063223247 0.05798284357340565 0.03621465815922145 0.00253206856240358 0.1591076469256813 0.08534141162946832 0.03931708431518364 0.08336973602008843 0.0689218765267727 0.0950780040102604 0.000516111501809881 0.02360035473759545 0.01701539110232085 0.2204132404814238 0.006366674948302911 0.1042228975060617 0.0126705314761696 0.02133019636259051 0.0001589992711783819 0.08650038975800241 0.3312581334269024 0.01624321328363733 0.02198122977589724 0.03302718947952785 0.02351621753869726 0.0001044522824054818 0.008977187072961796 0.0099131142479836 0.3927353274237382 0.005430747629010716 0.03615307097129741 0.009461937919281486 0.01544093972783786 6.226683751687041e-005 0.03013440674723329 0.3701608709101938 0.005397463438408391 0.007410377897269119 0.007721110863954388 0.01105971739379256 2.585113606177355e-005 0.01277793109500181 0.007184428638617134 0.5064036993371833 0.007191425260904121 0.009567572796743983 0.0288159826785044 0.05182788022227014 4.856506003703774e-005 0.2252168869173893 0.162133446191781 0.04155186986093043 0.02004171420957349 0.04041874164907328 0.04193465838004384 0.0001682832643386093 0.1300524645945161 0.04398391989991053 0.09350117877096334 0.08545153839756772 0.03485286990310084 0.02783084634872867 0.07505419351897964 6.085783476007087e-005 0.1288306162848641 0.2244328539651721 0.01406438205974049 0.02153484846671187 0.02655460594280059 0.0356512142379999 0.0001070616858623493 0.1323056307726385 0.03906219653773997 0.1829467174853774 0.06206132814488582 0.02950264671373854 0.008399974397863021 0.01614748028134515 8.491589420124413e-005 0.02077482498423319 0.5057723820661195 0.006325935845760358 0.003677368705691568 0.004552710512911318 0.006787095373754149 3.008999742676063e-005 0.1175940944321072 0.009418355079312926 0.2788418504607019 0.01603968891338869 0.005553233055183166 0.01119641124027945 0.01042331825999168 0.0004075552410366696 0.009731080506603755 0.4859434377205577 0.003964469470436753 0.001784790204940586 0.002550908986128425 0.00342951566802822 2.172651769610432e-005 0.3186385115102273 0.0068045320728056 0.1283806556865608 0.01240173114227875 0.004321355772428291 0.01921315446513196 0.006337156767142637 0.0001094676741587337 0.01422371800160931 0.1169320396506248 0.007308376091109937 0.0001006121627690767 0.001534979234203786 0.003337295311928062 5.835653968555192e-006 0.7792386243582657 0.002191686709317215 0.03267088209933689 0.01079081860152287 0.006005353218910355 0.0191905548279559 0.004240149060526073 0.000131115956559313 0.004975288702271133 0.2445392109005215 0.002289423360059985 0.0001205091828647051 0.001838536098789069 0.001045441798738413 6.989710506927943e-006 0.6628743717587887 0.0001544184573632352 0.05049390808842431 0.005604562096715564 0.00249551999991501</probabilities>
		</cpt>
		<cpt id="workclass">
			<state id="S_" />
			<state id="SFederal_gov" />
			<state id="SLocal_gov" />
			<state id="SNever_worked" />
			<state id="Private" />
			<state id="SSelf_emp_inc" />
			<state id="SSelf_emp_not_inc" />
			<state id="SState_gov" />
			<state id="SWithout_pay" />
			<parents>occupation</parents>
			<probabilities>0.9962018448181546 9.609788372122126e-015 9.609788372122126e-015 0.003798155181778137 9.609788372122126e-015 9.609788372122126e-015 9.609788372122126e-015 9.609788372122126e-015 9.609788372122126e-015 5.494540272800952e-016 0.08408488063660492 0.07506631299734767 5.494540272800952e-016 0.7514588859416415 0.008222811671088043 0.01326259946949651 0.06710875331565008 0.0007957559681703068 1.111111111111111e-005 0.9999111111111105 1.111111111111111e-005 1.111111111111111e-005 1.111111111111111e-005 1.111111111111111e-005 1.111111111111111e-005 1.111111111111111e-005 1.111111111111111e-005 3.932077451387822e-016 0.01561356428397204 0.03561844352281071 3.932077451387822e-016 0.7794584044888974 0.02585996584532843 0.1295437911685776 0.01366186874847558 0.0002439619419374502 4.061260067601217e-016 0.04426955238563723 0.05263157894736864 4.061260067601217e-016 0.661829808165271 0.09837678307919336 0.09640924741760951 0.04648303000491907 4.061260067601217e-016 1.133613913390358e-013 0.008048289738535734 0.02917505030189447 1.133613913390358e-013 0.4577464788728858 0.05130784708255599 0.4325955734403159 0.01509054325965531 0.006036217303930141 3.144906016786493e-014 0.01678832116790991 0.03430656934308744 3.144906016786493e-014 0.9291970802917393 0.001459854014629576 0.0109489051095174 0.00656934306572302 0.0007299270073305125 6.902933560255298e-015 0.006993006993013462 0.005994005994012525 6.902933560255298e-015 0.9555444555444032 0.006493506493512993 0.01798201798202377 0.006493506493512993 0.0004995004995073714 9.41474753396446e-016 0.0106221547799705 0.0585735963581188 9.41474753396446e-016 0.8315629742033323 0.00819423368740603 0.05311077389984874 0.03763277693475024 0.0003034901365715004 2.194787379972565e-010 2.194787379972565e-010 2.194787379972565e-010 2.194787379972565e-010 0.9999999982441703 2.194787379972565e-010 2.194787379972565e-010 2.194787379972565e-010 2.194787379972565e-010 3.778649143767786e-016 0.04227053140096641 0.1702898550724636 3.778649143767786e-016 0.5586956521739115 0.03864734299516933 0.090096618357488 0.1 3.778649143767786e-016 6.224494162591566e-013 0.04314329738096627 0.4684129429872125 6.224494162591566e-013 0.2927580893672412 0.007704160247112417 0.009244992296410411 0.1787365177191897 6.224494162591566e-013 6.253312878938539e-016 0.003835616438356768 0.001917808219178697 6.253312878938539e-016 0.8060273972602701 0.07972602739726044 0.1054794520547946 0.003013698630137594 6.253312878938539e-016 1.491745150195818e-013 0.07327586206901632 0.04094827586216316 1.491745150195818e-013 0.7931034482749464 0.003232758620834489 0.0280172413794219 0.06142241379317015 1.491745150195818e-013 1.703924669304946e-014 0.01565435190984557 0.07201001878522828 1.703924669304946e-014 0.792736380713734 0.01690670006263186 0.07639323731998028 0.02567313713213584 0.0006261740764101806</probabilities>
		</cpt>
		<cpt id="Vmarital_status">
			<state id="Divorced" />
			<state id="SMarried_AF_spouse" />
			<state id="SMarried_civ_spouse" />
			<state id="SMarried_spouse_absent" />
			<state id="SNever_married" />
			<state id="Separated" />
			<state id="Widowed" />
			<parents>age</parents>
			<probabilities>0.2870379559995424 0.08000900991269307 0.03212070869601857 0.234456913949923 0.05137318493759044 0.2609823681987784 0.05401985830545426 0.2164617576429062 0.1409651384248874 0.1683545449637336 0.1112559245031027 0.1900329806414562 0.0778683857515115 0.09506126807240245 0.1097056098790484 0.1951935533625773 0.1859359490370101 0.1542847056999694 0.1080338749589779 0.1126819225849574 0.1341643844774595 0.1614208540842198 0.1520873688436538 0.174954181942767 0.1639983734137683 0.1558561834612755 0.1355823771899534 0.05610066106436219 0.1446482440334933 0.2410410230382731 0.01423519261118006 0.2173204051223681 0.09202661257713203 0.0634800645549253 0.227248458062628 0.1695744811688743 0.07732497521185713 0.2749668542538938 0.1095037196069914 0.2016969416645717 0.09781752539707288 0.0691155026967388</probabilities>
		</cpt>
		<cpt id="Vnative_country">
			<state id="S_" />
			<state id="Cambodia" />
			<state id="Canada" />
			<state id="China" />
			<state id="Columbia" />
			<state id="Cuba" />
			<state id="SDominican_Republic" />
			<state id="Ecuador" />
			<state id="SEl_Salvador" />
			<state id="England" />
			<state id="France" />
			<state id="Germany" />
			<state id="Greece" />
			<state id="Guatemala" />
			<state id="Haiti" />
			<state id="SHoland_Netherlands" />
			<state id="Honduras" />
			<state id="Hong" />
			<state id="Hungary" />
			<state id="India" />
			<state id="Iran" />
			<state id="Ireland" />
			<state id="Italy" />
			<state id="Jamaica" />
			<state id="Japan" />
			<state id="Laos" />
			<state id="Mexico" />
			<state id="Nicaragua" />
			<state id="SOutlying_US_Guam_USVI_etc_" />
			<state id="Peru" />
			<state id="Philippines" />
			<state id="Poland" />
			<state id="Portugal" />
			<state id="SPuerto_Rico" />
			<state id="Scotland" />
			<state id="South" />
			<state id="Taiwan" />
			<state id="Thailand" />
			<state id="STrinadad_Tobago" />
			<state id="SUnited_States" />
			<state id="Vietnam" />
			<state id="Yugoslavia" />
			<probabilities>0.02245497376140551 0.05585588517874016 0.02890999077841937 0.07640056145997577 0.04954186828779407 0.001124734772387567 0.001974898901131735 0.03731632150557279 0.07391464348832891 0.02261714937961682 0.01552543006025471 0.02941390090847455 0.02016510879271175 0.05180709615521609 0.00474331370887315 0.01154273118550186 0.01358893568590952 0.001039068648681045 0.0005467022110251133 0.01034848402671689 0.009518013824853667 0.01382476481307104 0.06380213307860323 0.05627452753749258 0.03024894077936317 0.006720599870824151 0.008280517799057642 0.02329005946760846 0.01612150040953242 0.00823170067612243 0.01639540328273038 0.03297901637138799 0.007870549135337522 0.02794454929471768 0.005644176075374886 0.0313702732773429 0.03543824010196943 0.0209330604086281 0.01790236965369236 0.005945608917317427 0.0006446308603174277 0.03178756546791779</probabilities>
		</cpt>
		<cpt id="race">
			<state id="SAmer_Indian_Eskimo" />
			<state id="SAsian_Pac_Islander" />
			<state id="Black" />
			<state id="Other" />
			<state id="White" />
			<parents>Vnative_country</parents>
			<probabilities>0.0005021174439966633 0.02411704537907733 0.1394161977766591 0.007424345129517796 0.8285402942707492 0.001621351248159871 0.03587575221423463 0.05913416483903606 0.01134761451571729 0.892021117182852 0.007058035387717743 0.05062784764125967 0.1124916957547106 0.01364552679275548 0.8161768944235567 0.001490779755395495 0.01446702830066282 0.03083246530591064 0.006521745309118482 0.9466879813289124 0.0001659642526705305 0.02000249812140565 0.07100918270921977 0.003757809628775707 0.9050645452879285 0.003740751378032692 0.008238690859208515 0.05135319048249806 0.009957017030608121 0.9267103502496525 0.08311797355626195 0.119982619657531 0.37346669734584 0.1043861609214513 0.3190465485189157 0.000603553153023796 0.02526144157646128 0.02704601091022839 0.003525815828908033 0.9435631785313785 0.01156642840260029 0.009382693122808832 0.0296920724046157 0.001078137242638913 0.9482806688273363 0.01695403113039707 0.01832218104537525 0.1806592680935476 0.01107681505837737 0.7729877046723027 0.01308020118007183 0.04540967322419016 0.1845954721600682 0.01848829906762899 0.7384263543680409 0.02443487563820828 0.01283954671333243 0.02381445183684651 0.002330431177900133 0.9365806946337127 0.01355935791786651 0.03084512321338406 0.3051264651950338 0.01193575758074579 0.6385332960929698 0.008787076704033718 0.01550963074317828 0.08881277764015805 0.01075113963671095 0.876139375275919 0.025545075218491 0.07892639702651517 0.3056616702072048 0.02527255153651398 0.564594306011275 0.01111943785207027 0.02873129699155029 0.09922388715864508 0.006267364581536352 0.8546580134161981 0.006547813709766239 0.01875949087853465 0.002267148967325085 0.002396194741519048 0.970029351702855 0.003626219896804511 0.02538594475048236 0.100619885701416 0.008421016392041725 0.8619469332592555 0.03747373144611418 0.1360146812980355 0.5214618086668151 0.04418764919169793 0.2608621293973373 0.03313326242633459 0.08735086844197201 0.02579543139793075 0.0423761600445623 0.8113442776892003 0.01737976425545001 0.2280286966924345 0.3396753396930494 0.03789704710447234 0.3770191522545939 0.01218220612493779 0.06989088184733434 0.1918401870414487 0.0003503331727019999 0.7257363918135773 0.009339668803752598 0.006877273068010794 0.1047776544327639 0.002486695115445665 0.876518708580027 0.005757963471009486 0.02123280151735687 0.1128821189235688 0.002834626462139931 0.8572924896259249 0.005588642716182645 0.04527540770451348 0.01518073856034161 0.00187513024900848 0.9320800807699539 0.001403015625728524 0.02754562576530228 0.2688208753311373 0.01519441406797308 0.6870360692098588 0.02255834033267135 0.04489659197065934 0.09783005351922441 0.01003884603922058 0.8246761681382243 0.01698801816415326 0.01385906408047765 0.06182324791732883 0.0077559959358597 0.8995736739021806 0.03144468391613682 0.1125023560589712 0.1198809458423115 0.01269381769868302 0.7234781964838976 0.03773443840677212 0.2040911726698402 0.1312174935723366 0.1104124373544318 0.5165444579966191 0.005428829377136782 0.1714633327059919 0.3508591286896441 0.009042868058323982 0.4632058411689031 0.004553960018607047 0.01864610513332955 0.08529231514082374 0.009858311477708482 0.8816493082295311 0.005439300762824863 0.02694544847934364 0.08801716745362673 0.005780198101468952 0.8738178852027358 0.005275409117948199 0.02971311214064329 0.02688660282005129 0.005953905829161441 0.9321709700921959 0.01034614493077464 0.01036596506663454 0.3529853044820514 0.02957778669665504 0.5967247988238843 0.02939778328412293 0.007545606297799656 0.1104282963124568 0.007238869717126839 0.8453894443884938 0.005848661499579769 0.04919373914183343 0.06071195497984364 0.003547769162756731 0.8806978752159864 0.01118170415855192 0.0181824509196375 0.08283540312698666 0.002321964749363744 0.8854784770454602 0.009696919028340068 0.02458130104351812 0.08461892920199927 0.001408381499639168 0.8796944692265034 0.01018319322987474 0.01836368074208845 0.724559684275925 0.03636691411163381 0.2105265276404782 0.01965417154120827 0.02671493790142364 0.2209590649596363 0.02573616727454233 0.7069356583231895 0.01278724844506403 0.03330650413011264 0.09135124506431656 0.005550389327773893 0.8570046130327328</probabilities>
		</cpt>
		<cpt id="Vhours_per_week">
			<state id="s1_below_16" />
			<state id="s2_16_34" />
			<state id="s3_34_52" />
			<state id="s4_52_79" />
			<state id="s5_79_93" />
			<state id="s6_93_up" />
			<parents>age</parents>
			<probabilities>0.1726125237540406 0.204272806254554 0.1671342131841934 0.2151374836627664 0.03938862009662821 0.2014543530478173 0.09833718344487143 0.0774659475355563 0.07694681375581954 0.3205143073706611 0.1437372801650345 0.2829984677280569 0.1943092049017172 0.1298058509719255 0.2000593871429333 0.2087566805736474 0.1154988600910813 0.1515700163186954 0.01706269821160638 0.2622998960179453 0.110446000417311 0.2516335796748552 0.2894538355046044 0.06910399017367777 0.1864317999297144 0.3029381380204631 0.04847819011730691 0.1577504376136076 0.09595467629965206 0.2084467580192559 0.2823714444996267 0.1982892077662881 0.07158736265100542 0.08120787950584926 0.2737615150902384 0.09278259048699228</probabilities>
		</cpt>
		<cpt id="pay">
			<state id="Slower50K" />
			<state id="Sgreater50K" />
			<parents>relationship sex occupation race</parents>
			<probabilities>0.6961933908153187 0.3038066091846814 0.6961933908153187 0.3038066091846814 0.6961933908153187 0.3038066091846814 0.6961933908153187 0.3038066091846814 0.6961933908153187 0.3038066091846814 0.6237541640807248 0.3762458359192753 0.6237541640807248 0.3762458359192753 0.6237541640807248 0.3762458359192753 0.6237541640807248 0.3762458359192753 0.6237541640807248 0.3762458359192753 0.131348293076447 0.8686517069235531 0.131348293076447 0.8686517069235531 0.131348293076447 0.8686517069235531 0.131348293076447 0.8686517069235531 0.131348293076447 0.8686517069235531 0.6035904200236264 0.3964095799763736 0.6035904200236264 0.3964095799763736 0.6035904200236264 0.3964095799763736 0.6035904200236264 0.3964095799763736 0.6035904200236264 0.3964095799763736 0.3218557285162974 0.6781442714837027 0.3218557285162974 0.6781442714837027 0.3218557285162974 0.6781442714837027 0.3218557285162974 0.6781442714837027 0.3218557285162974 0.6781442714837027 0.821884204298217 0.1781157957017831 0.821884204298217 0.1781157957017831 0.821884204298217 0.1781157957017831 0.821884204298217 0.1781157957017831 0.821884204298217 0.1781157957017831 0.8561503080230518 0.1438496919769483 0.8561503080230518 0.1438496919769483 0.8561503080230518 0.1438496919769483 0.8561503080230518 0.1438496919769483 0.8561503080230518 0.1438496919769483 0.799769281631963 0.200230718368037 0.799769281631963 0.200230718368037 0.799769281631963 0.200230718368037 0.799769281631963 0.200230718368037 0.799769281631963 0.200230718368037 0.8381620450073379 0.1618379549926622 0.8381620450073379 0.1618379549926622 0.8381620450073379 0.1618379549926622 0.8381620450073379 0.1618379549926622 0.8381620450073379 0.1618379549926622 0.9520514379322711 0.04794856206772898 0.9520514379322711 0.04794856206772898 0.9520514379322711 0.04794856206772898 0.9520514379322711 0.04794856206772898 0.9520514379322711 0.04794856206772898 0.307363488352964 0.6926365116470361 0.307363488352964 0.6926365116470361 0.307363488352964 0.6926365116470361 0.307363488352964 0.6926365116470361 0.307363488352964 0.6926365116470361 0.4980862520861782 0.5019137479138218 0.4980862520861782 0.5019137479138218 0.4980862520861782 0.5019137479138218 0.4980862520861782 0.5019137479138218 0.4980862520861782 0.5019137479138218 0.6686080793356978 0.3313919206643022 0.6686080793356978 0.3313919206643022 0.6686080793356978 0.3313919206643022 0.6686080793356978 0.3313919206643022 0.9585760099169622 0.04142399008303777 0.5041799530741049 0.4958200469258952 0.5041799530741049 0.4958200469258952 0.5041799530741049 0.4958200469258952 0.5041799530741049 0.4958200469258952 0.5041799530741049 0.4958200469258952 0.5748280922758314 0.4251719077241686 0.5748280922758314 0.4251719077241686 0.5748280922758314 0.4251719077241686 0.5748280922758314 0.4251719077241686 0.5748280922758314 0.4251719077241686 0.7501651141873249 0.2498348858126752 0.727297823653597 0.272702176346403 0.8076904252031405 0.1923095747968594 0.9915051582746519 0.00849484172534801 0.7309417044803434 0.2690582955196567 0.501060090561086 0.4989399094389141 0.5882363267946388 0.4117636732053612 0.537037610886973 0.462962389113027 0.9540639150169685 0.04593608498303143 0.570873786856405 0.4291262131435949 0.8037009090549537 0.1962990909450463 0.8037009090549537 0.1962990909450463 0.8037009090549537 0.1962990909450463 0.8037009090549537 0.1962990909450463 0.5112481818168501 0.4887518181831498 0.799960614895329 0.200039385104671 0.6000002915817542 0.3999997084182458 0.5684211320423395 0.4315788679576605 0.7856707195885238 0.2143292804114763 0.6786478391068426 0.3213521608931574 0.9990138266923028 0.0009861733076970396 0.3552629954015563 0.6447370045984437 0.3108107403369688 0.6891892596630314 0.4982486372695109 0.5017513627304892 0.3076543209844587 0.6923456790155412 0.9990566264969589 0.000943373503040986 0.799997168537448 0.2000028314625521 0.9998820783121198 0.0001179216878801233 0.9983698505867452 0.001630149413254824 0.8110687021875397 0.1889312978124604 0.9990493647317299 0.0009506352682700053 0.8334728005582106 0.1665271994417894 0.7916674274374748 0.2083325725625252 0.9994498638493807 0.000550136150619216 0.8315508030799755 0.1684491969200243 0.9994960660122203 0.0005039339877797557 0.588261657372815 0.411738342627185 0.7692307139715079 0.2307692860284922 0.9230109277690439 0.07698907223095598 0.7467700258295154 0.2532299741704847 0.8335236634077268 0.1664763365922731 0.7500021563318706 0.2499978436681294 0.8666668074268281 0.133333192573172 0.9998609280505492 0.0001390719494508723 0.8681592044454465 0.1318407955545535 0.9849642766710915 0.01503572332890849 0.9849642766710915 0.01503572332890849 0.9849642766710915 0.01503572332890849 0.9849642766710915 0.01503572332890849 0.9849642766710915 0.01503572332890849 0.5713473010035761 0.4286526989964238 0.3367346530717718 0.6632653469282283 0.3333330759337099 0.6666669240662901 0.4166122625794583 0.5833877374205418 0.2854511970561062 0.7145488029438939 0.06255695074313385 0.9374430492568662 0.2861337023553615 0.7138662976446385 0.5526306993645533 0.4473693006354466 0.5000168742942619 0.4999831257057381 0.5216049376555115 0.4783950623444885 0.8322868039776529 0.1677131960223471 0.5294104810207425 0.4705895189792575 0.4878046967628271 0.5121953032371729 0.888474373764335 0.1115256262356651 0.4720848056545165 0.5279151943454835 0.4375382025498982 0.5624617974501017 0.3750127291273254 0.6249872708726746 0.3636791309042534 0.6363208690957466 0.4375382025498982 0.5624617974501017 0.3993808060754334 0.6006191939245665 0.8888577782521008 0.1111422217478991 0.8180992482819212 0.1819007517180787 0.7976188487702522 0.2023811512297478 0.9990539388663554 0.0009460611336445334 0.6914016489729306 0.3085983510270693 0.9998865363767333 0.0001134636232666587 0.9999563535874436 4.364641255637061e-005 0.9999982271308865 1.772869113541543e-006 0.9997310491892938 0.000268950810706154 0.9627906956021123 0.03720930439788768 0.9993715529799041 0.0006284470200959444 0.9523780469686785 0.04762195303132157 0.976190387045182 0.02380961295481785 0.9997709741180407 0.0002290258819591633 0.9749340368169802 0.02506596318301985 0.5168757500118556 0.4831242499881445 0.5168757500118556 0.4831242499881445 0.5168757500118556 0.4831242499881445 0.5168757500118556 0.4831242499881445 0.5168757500118556 0.4831242499881445 0.9893827113154412 0.0106172886845588 0.9893827113154412 0.0106172886845588 0.8889150616905236 0.1110849383094765 0.9968541366860566 0.003145863313943346 0.9384614570696307 0.06153854293036939 0.9995518355483237 0.0004481644516762318 0.8181542475698738 0.1818457524301263 0.8499988470829027 0.1500011529170972 0.9713174750927212 0.02868252490727883 0.8074245935100121 0.1925754064899879 0.9702805635994383 0.02971943640056179 0.9702805635994383 0.02971943640056179 0.9962850704499298 0.003714929550070223 0.9702805635994383 0.02971943640056179 0.9411814610019889 0.05881853899801107 0.9971004694517631 0.002899530548236839 0.9971004694517631 0.002899530548236839 0.9998926099796949 0.0001073900203050681 0.9768037556141054 0.02319624438589471 0.9999995772662853 4.227337145701763e-007 0.9987342385933542 0.001265761406645841 0.9998417798241692 0.0001582201758307301 0.969696871169398 0.03030312883060196 0.9957280552525702 0.004271944747429713 0.986577175059094 0.01342282494090607 0.9990161089842164 0.0009838910157835149 0.9285847214644663 0.07141527853553369 0.9999999658848506 3.411514936168902e-008 0.9999481151222145 5.18848777854588e-005 0.9866962304550643 0.01330376954493565 0.992932168435419 0.007067831564580955 0.9998895651318034 0.0001104348681965775 0.9999929321684354 7.067831564580956e-006 0.992932168435419 0.007067831564580955 0.9999999467185957 5.328140432096974e-008 0.5717938275076451 0.4282061724923549 0.7692268366195023 0.2307731633804977 0.8947345444070857 0.1052654555929144 0.9995282025076451 0.0004717974923549538 0.8490259736403119 0.1509740263596881 0.8753335614010989 0.1246664385989012 0.8753335614010989 0.1246664385989012 0.6668753335614012 0.333124666438599 0.8753335614010989 0.1246664385989012 0.8000183919827639 0.1999816080172361 0.9996969159935751 0.000303084006424756 0.9999101973314296 8.98026685702981e-005 0.9999938517895016 6.148210498473641e-006 0.1168167318265316 0.8831832681734684 0.9358288769807902 0.06417112301920987 0.984746157189963 0.01525384281003701 0.9996442252405822 0.0003557747594177727 0.9090728988758794 0.09092710112412053 0.9954803428711001 0.004519657128899853 0.9193548175202599 0.08064518247974016 0.9881693936881331 0.011830606311867 0.9053551495050641 0.09464485049493598 0.9997240674912684 0.0002759325087315917 0.9053551495050641 0.09464485049493598 0.909090602050588 0.09090939794941191 0.9985049323569377 0.001495067643062173 0.7502875626524518 0.2497124373475483 0.9999956412022067 4.358797793184178e-006 0.9993692683380832 0.0006307316619168543 0.9424460494289992 0.05755395057100086 0.9988143039894183 0.001185696010581705 0.9999429868184243 5.70131815756793e-005 0.9615365602527726 0.03846343974722741 0.9993929236425823 0.0006070763574178333 0.9109311749534422 0.08906882504655772 0.9666315353612536 0.03336846463874651 0.9666315353612536 0.03336846463874651 0.9958289419201567 0.004171058079843314 0.9666315353612536 0.03336846463874651 0.9994786177400196 0.0005213822599804143 0.8461829306878271 0.1538170693121728 0.8571632479429326 0.1428367520570673 0.9655170487820439 0.03448295121795608 0.80058315651573 0.1994168434842699 0.9176646706863936 0.08233532931360652 0.9958513515597833 0.004148648440216687 0.7499787194784995 0.2500212805215005 0.7499996937298843 0.2500003062701158 0.9901661666602271 0.009833833339772892 0.7079646020552168 0.2920353979447831 0.9987071302147835 0.001292869785216457 0.9987071302147835 0.001292869785216457 0.999979798909606 2.020109039400713e-005 0.9997207401263932 0.0002792598736067546 0.9315068598881594 0.06849314011184059 0.9998503744535425 0.0001496255464575944 0.9993072891367703 0.0006927108632296033 0.9761905404153934 0.02380945958460648 0.9997077626045752 0.0002922373954249891 0.9813084112137857 0.01869158878621437 0.994144378323089 0.005855621676911015 0.8889531550265848 0.1110468449734153 0.97499968304329 0.02500031695671008 0.9996252402126777 0.000374759787322305 0.9861751120201774 0.0138248879798226 0.9997547586963976 0.0002452413036023605 0.9411838656647067 0.0588161343352933 0.9622642909144729 0.03773570908552704 0.9999273359100438 7.266408995625495e-005 0.971875000375786 0.02812499962421405 0.9978471226361531 0.002152877363847052 0.9978471226361531 0.002152877363847052 0.9978471226361531 0.002152877363847052 0.9978471226361531 0.002152877363847052 0.999920263801339 7.973619866100193e-005 0.9907202813779082 0.009279718622091792 0.6923105953156126 0.3076894046843873 0.8157883552925236 0.1842116447074765 0.667960118706305 0.332039881293695 0.7255278312622188 0.2744721687377813 0.984545514027932 0.01545448597206805 0.9980681892534915 0.001931810746508506 0.8333360873031823 0.1666639126968177 0.8763641122234557 0.1236358877765444 0.8068182804692293 0.1931817195307705 0.03202217854506115 0.9679778214549388 0.9090651613545814 0.0909348386454186 0.8333343828277237 0.1666656171722763 0.9989167905657332 0.001083209434266792 0.8211764711499096 0.1788235288500904 0.9943054219008888 0.00569457809911124 0.8571215749830546 0.1428784250169453 0.7692588361484416 0.2307411638515583 0.9807807989154995 0.01921920108450044 0.8632478529002425 0.1367521470997574 0.8006315811202738 0.1993684188797263 0.9994913721758331 0.0005086278241669804 0.9999982308351276 1.769164872439896e-006 0.9990065862809239 0.0009934137190761333 0.9297520665805084 0.07024793341949168 0.9992276193470098 0.000772380652990118 0.9998331657789541 0.0001668342210458655 0.9996741519120198 0.000325848087980206 0.9992276193470098 0.000772380652990118 0.9600010893105582 0.0399989106894419 0.9964252334149416 0.003574766585058395 0.9999607707370638 3.922926293616893e-005 0.9999941790896233 5.820910376647091e-006 0.9714018673195329 0.02859813268046716 0.9705882377708596 0.02941176222914039 0.7559856808303896 0.2440143191696103 0.7559856808303896 0.2440143191696103 0.7559856808303896 0.2440143191696103 0.7559856808303896 0.2440143191696103 0.7559856808303896 0.2440143191696103 0.9689415428323867 0.03105845716761333 0.9995147116067562 0.0004852883932439583 0.9995147116067562 0.0004852883932439583 0.9961176928540485 0.003882307145951667 0.9999393389508445 6.066104915549479e-005 0.9067538789023275 0.09324612109767254 0.7512540310312187 0.2487459689687814 0.9965464399593454 0.003453560040654537 0.9067538789023275 0.09324612109767254 0.9473633442348629 0.05263665576513721 0.9895334684296216 0.01046653157037834 0.9895334684296216 0.01046653157037834 0.9895334684296216 0.01046653157037834 0.9895334684296216 0.01046653157037834 0.9999694853306986 3.051466930139456e-005 0.9918662182210181 0.008133781778982017 0.9918662182210181 0.008133781778982017 0.9998729096597034 0.000127090340296594 0.9996987488230006 0.0003012511769993339 0.9999623436028751 3.765639712491675e-005 0.9879282045173858 0.01207179548261428 0.9998113781955842 0.0001886218044158482 0.9999034256361391 9.657436386091425e-005 0.9995528964636069 0.0004471035363931217 0.9999984910255647 1.508974435326785e-006 0.9988330041838072 0.00116699581619289 0.999981765690372 1.82343096280139e-005 0.9999994024981422 5.975018578907596e-007 0.9996542234618687 0.0003457765381312267 0.9843750229004405 0.01562497709955951 0.9975479492583889 0.002452050741611155 0.9996934936572988 0.0003065063427013945 0.9999616867071623 3.83132928376743e-005 0.9975479492583889 0.002452050741611155 0.9999991063955023 8.936044976717035e-007 0.9009130457672351 0.09908695423276501 0.8572283457925142 0.1427716542074859 0.8335303587340152 0.1664696412659847 0.5148486313247124 0.4851513686752876 0.875005274383425 0.124994725616575 0.9531235992713314 0.0468764007286686 0.9531235992713314 0.0468764007286686 0.9982638370100492 0.001736162989950689 0.9531235992713314 0.0468764007286686 0.9982638370100492 0.001736162989950689 0.9970475678641049 0.002952432135895229 0.9996309459830131 0.0003690540169869035 0.9999913923261343 8.607673865583757e-006 0.9991252052930681 0.0008747947069319193 0.9729730350733145 0.02702696492668551 0.9542007102898524 0.0457992897101475 0.9942750887862316 0.00572491121376844 0.9542007102898524 0.0457992897101475 0.9542007102898524 0.0457992897101475 0.7502801107137035 0.2497198892862965 0.9651578130447396 0.03484218695526034 0.9651578130447396 0.03484218695526034 0.9651578130447396 0.03484218695526034 0.9651578130447396 0.03484218695526034 0.9994555908288241 0.000544409171175943 0.9856819062743278 0.01431809372567233 0.998210238284291 0.001789761715709041 0.9999582562865141 4.174371348592515e-005 0.9856819062743278 0.01431809372567233 0.9999984539365374 1.546063462441672e-006 0.9724252002885107 0.02757479971148926 0.9997794016023081 0.0002205983976919142 0.9999724252002885 2.757479971148928e-005 0.9965531500360638 0.003446849963936158 0.9230794302291464 0.0769205697708536 0.9985274575268537 0.001472542473146308 0.9882196602148295 0.01178033978517046 0.9882196602148295 0.01178033978517046 0.9882196602148295 0.01178033978517046 0.9985274575268537 0.001472542473146308 0.7517850424121807 0.2482149575878194 0.833740904669162 0.166259095330838 0.9999475201201613 5.247987983871937e-005 0.9995801609612902 0.000419839038709755 0.969696981112376 0.03030301888762407 0.8890203035877633 0.1109796964122367 0.8890203035877633 0.1109796964122367 0.9861275379484704 0.01387246205152958 0.8890203035877633 0.1109796964122367 0.681835211662989 0.318164788337011 0.9876636204607368 0.01233637953926328 0.9876636204607368 0.01233637953926328 0.9999428871317626 5.711286823732998e-005 0.9984579525575921 0.00154204744240791 0.9473734579525577 0.05262654204744241 0.9991826550558491 0.0008173449441508151 0.9998978318819811 0.0001021681180188519 0.9999976170701336 2.382929866328907e-006 0.9991826550558491 0.0008173449441508151 0.9841270197343461 0.01587298026565381 0.9979139264844215 0.002086073515578574 0.9999227380179414 7.726198205846571e-005 0.9999513452241264 4.865477587355274e-005 0.9998664912950031 0.0001335087049970288 0.9999995356154346 4.643845653401393e-007 0.9993154608341468 0.0006845391658531655 0.9999945236866732 5.476313326825324e-006 0.9999994856955929 5.143044071023033e-007 0.9999144326042684 8.556739573164567e-005 0.9999999733355731 2.666442687336741e-008 0.9992555065264712 0.0007444934735287887 0.9992555065264712 0.0007444934735287887 0.9992555065264712 0.0007444934735287887 0.9992555065264712 0.0007444934735287887 0.999972426167647 2.75738323529181e-005 0.8965007889721766 0.1034992110278234 0.9870625986215221 0.01293740137847792 0.9991720063117775 0.000827993688222587 0.8965007889721766 0.1034992110278234 0.8636390647480047 0.1363609352519954 0.9535452286187492 0.04645477138125079 0.9941931535773436 0.00580684642265635 0.999274144197168 0.0007258558028320438 0.9535452286187492 0.04645477138125079 0.9997849316139758 0.0002150683860243092 0.9486945751920715 0.05130542480792859 0.6016143267370003 0.3983856732629996 0.9998504215020176 0.0001495784979822991 0.9486945751920715 0.05130542480792859 0.9729725305178451 0.02702746948215497 0.9409622559472385 0.05903774405276142 0.9990775352491756 0.0009224647508243975 0.9926202819934048 0.00737971800659518 0.9409622559472385 0.05903774405276142 0.9999556440690813 4.435593091867876e-005 0.9770911709046907 0.02290882909530928 0.6715170495453858 0.3284829504546142 0.9996420495453858 0.0003579504546142075 0.5176700433668403 0.4823299566331596 0.9999971363963631 2.86360363691366e-006 0.992812312799729 0.007187687200270875 0.9999958404587961 4.15954120386046e-006 0.9999997052897945 2.94710205431583e-007 0.9999424985023979 5.750149760216702e-005 0.9953051640648851 0.004694835935114849 0.9999711135386165 2.888646138348737e-005 0.9999994966185919 5.033814080443107e-007 0.9852941322519132 0.01470586774808683 0.9999711135386165 2.888646138348737e-005 0.988235294141663 0.01176470585833691 0.9011302357237552 0.09886976427624489 0.9011302357237552 0.09886976427624489 0.9011302357237552 0.09886976427624489 0.9011302357237552 0.09886976427624489 0.9011302357237552 0.09886976427624489 0.9892217033561565 0.01077829664384358 0.9892217033561565 0.01077829664384358 0.9999789486393675 2.105136063250699e-005 0.9892217033561565 0.01077829664384358 0.9545483045700137 0.04545169542998635 0.9997298009260783 0.0002701990739216992 0.9997298009260783 0.0002701990739216992 0.999980454349398 1.954565060197477e-005 0.9987490783614735 0.001250921638526385 0.9687499972335281 0.03125000276647193 0.9964174865066884 0.003582513493311584 0.9964174865066884 0.003582513493311584 0.9964174865066884 0.003582513493311584 0.9964174865066884 0.003582513493311584 0.9999964174865067 3.582513493311585e-006 0.9996525320783264 0.0003474679216736504 0.9999565665097908 4.34334902092063e-005 0.9999945708137239 5.429186276150789e-006 0.9972202566266109 0.002779743373389204 0.9999999493413149 5.065868518350347e-008 0.9958636188920705 0.004136381107929454 0.9994829523615089 0.000517047638491182 0.9999996115344565 3.884655435696332e-007 0.9958636188920705 0.004136381107929454 0.9999999874086217 1.259137834253994e-008 0.9998817355169491 0.0001182644830507369 0.9999976009458736 2.399054126498796e-006 0.9999999625147793 3.748522072654368e-008 0.9998817355169491 0.0001182644830507369 0.9975062344031995 0.002493765596800364 0.9991651525095504 0.0008348474904495831 0.9991651525095504 0.0008348474904495831 0.9999690797225759 3.092027742405863e-005 0.9991651525095504 0.0008348474904495831 0.9999998300737858 1.699262142172976e-007 0.9954951797015021 0.004504820298498024 0.9999296121828359 7.038781716403161e-005 0.9999954951797015 4.504820298498023e-006 0.9994368974626877 0.0005631025373122528 0.9466666716899072 0.05333332831009282 0.9835570854075481 0.01644291459245198 0.9979446356759435 0.002055364324056497 0.9998684566832603 0.0001315433167396158 0.9835570854075481 0.01644291459245198 0.9285877206178985 0.07141227938210147 0.9998725650780135 0.0001274349219865553 0.9231019840251432 0.07689801597485682 0.9999999347533199 6.524668005711632e-008 0.9999622415045966 3.77584954034238e-005 0.9942693409176481 0.005730659082351836 0.9839466835182058 0.0160533164817942 0.999749166929972 0.0002508330700280345 0.9979933354397758 0.002006664560224275 0.9839466835182058 0.0160533164817942 0.9814814962986237 0.0185185037013763 0.9878777158665149 0.01212228413348524 0.9878777158665149 0.01212228413348524 0.9984847144833143 0.001515285516685654 0.9878777158665149 0.01212228413348524 0.9999944823467759 5.517653224162603e-006 0.9999772527065185 2.274729348137182e-005 0.999996308478293 3.691521706969433e-006 0.999999894688456 1.053115438952399e-007 0.999818021652149 0.0001819783478509746 0.999999999626193 3.738070372318002e-010 0.9904530586764949 0.009546941323505065 0.8574032286302276 0.1425967713697725 0.9999994568194514 5.43180548674617e-007 0.9904530586764949 0.009546941323505065 0.9856459335334262 0.01435406646657395 0.9959642683625153 0.004035731637484683 0.9959642683625153 0.004035731637484683 0.9959642683625153 0.004035731637484683 0.9959642683625153 0.004035731637484683 0.9994955335453144 0.0005044664546855855 0.9999728909230869 2.710907691309696e-005 0.8751587127388461 0.1248412872611539 0.9999996556143193 3.443856807848983e-007 0.5181741328377336 0.4818258671622664 0.970588235989253 0.0294117640107471 0.9592940587151143 0.04070594128488573 0.9998813237863414 0.000118676213658559 0.9999441619461112 5.583805388873213e-005 0.9949117573393893 0.005088242660610715 0.9619047597127651 0.03809524028723483 0.9957722152934607 0.004227784706539335 0.9999661777223476 3.382227765231468e-005 0.9999975533653318 2.446634668136189e-006 0.9957722152934607 0.004227784706539335 0.9919354858353743 0.00806451416462577 0.9999983228572502 1.677142749842827e-006 0.9999821417839997 1.785821600032642e-005 0.9999999521545568 4.784544324504464e-008 0.9997209653749949 0.0002790346250051003 0.9968750000269899 0.003124999973010078 0.9992830077421488 0.0007169922578511301 0.9999832771485049 1.672285149507009e-005 0.9999979096435631 2.090356436883761e-006 0.9999103759677688 8.962403223139128e-005 0.9933333336036621 0.006666666396337927 0.9999708085782633 2.91914217367821e-005 0.9999974372414388 2.562758561253848e-006 0.9999999951975079 4.802491899207628e-009 0.9997664686261057 0.0002335313738942568 0.9971346705103615 0.002865329489638507 0.9997468088242463 0.0002531911757537189 0.9997468088242463 0.0002531911757537189 0.9997468088242463 0.0002531911757537189 0.9997468088242463 0.0002531911757537189 0.999997974470594 2.025529406029752e-006 0.9952798747336064 0.004720125266393625 0.9000467610802921 0.09995323891970785 0.9999482016431671 5.179835683285184e-005 0.962238997868851 0.037761002131149 0.9316239502572061 0.06837604974279389 0.9993966540583956 0.000603345941604263 0.9993966540583956 0.000603345941604263 0.9999877608261283 1.223917387176191e-005 0.9993966540583956 0.000603345941604263 0.9777778387200992 0.02222216127990079 0.9997179539343224 0.0002820460656776685 0.9999983047569305 1.695243069437527e-006 0.958334844739315 0.04166515526068501 0.9977436314745787 0.002256368525421348 0.9710743809231639 0.02892561907683618 0.9791182500760913 0.02088174992390862 0.5177451203731885 0.4822548796268114 0.9999391202626125 6.087973738748868e-005 0.9791182500760913 0.02088174992390862 0.9999998744898577 1.255101422924635e-007 0.9920933134859062 0.00790668651409388 0.999976948435819 2.305156418103171e-005 0.9999988472537521 1.152746247863227e-006 0.9997071597587373 0.0002928402412627362 0.9999999963167991 3.683200740346588e-009 0.99562083318391 0.004379166816090037 0.9994526041479888 0.0005473958520112547 0.9999996625667287 3.374332713244685e-007 