<?xml version="1.0" encoding="ISO-8859-1"?>
<smile version="1.0" id="Unnamed" numsamples="1000" discsamples="10000">
	<nodes>
		<cpt id="age">
			<state id="s1_below_24" />
			<state id="s2_24_38" />
			<state id="s3_38_48" />
			<state id="s4_48_66" />
			<state id="s5_66_78" />
			<state id="s6_78_up" />
			<probabilities>0.1666666666666667 0.1666666666666667 0.1666666666666667 0.1666666666666667 0.1666666666666667 0.1666666666666667</probabilities>
		</cpt>
		<cpt id="sex">
			<state id="Female" />
			<state id="Male" />
			<probabilities>0.3307945087681616 0.6692054912318385</probabilities>
		</cpt>
		<cpt id="relationship">
			<state id="State0" />
			<state id="State1" />
			<parents>age</parents>
			<probabilities>0.5 0.5 0.5 0.5 0.5 0.5 0.5 0.5 0.5 0.5 0.5 0.5</probabilities>
		</cpt>
		<cpt id="Veducation_num">
			<state id="State1" />
			<state id="State2" />
			<state id="State3" />
			<state id="State4" />
			<state id="State5" />
			<state id="State6" />
			<state id="State7" />
			<state id="State8" />
			<state id="State9" />
			<state id="State10" />
			<state id="State11" />
			<state id="State12" />
			<state id="State13" />
			<state id="State14" />
			<state id="State15" />
			<state id="State16" />
			<parents>sex relationship</parents>
			<probabilities>0.01647724700723031 0.01878020532953172 0.07835420062831831 0.02425413299734629 0.05028742042200838 0.101220780496408 0.1413793742534235 0.04783034097196578 0.1103376132807918 0.04552653608877975 0.06499040830078322 0.03819336207727685 0.05413793078509757 0.05110560359407606 0.09315981320520286 0.06396503056175974 0.0289923187514278 0.00623345024027578 0.06987006127471127 0.09840249898598803 0.0213728692297578 0.1353906224908062 0.03883758187557696 0.07220766741606448 0.02866475017268874 0.02712118643010162 0.1169845058879948 0.03363026081604786 0.04465858864726281 0.1894867818935592 0.04061624906379377 0.04753060682394287 0.005560000047441209 0.0121943685080129 0.02640815804103065 0.04974170594938472 0.07099570009118286 0.08190657684672938 0.09711546200874596 0.00294286961988808 0.03944255492804121 0.1176647707873452 0.06802742126789223 0.03208625342548814 0.1546013235201679 0.07340957339401986 0.04420112733245434 0.1237021342321754 0.03602777849053877 0.07159236325957513 0.1208514883849245 0.07404872043111374 0.0009242929071328454 0.1150308098676788 0.06733385368692371 0.1041470589101061 0.06646602581685865 0.08009140013085404 0.006408065725584086 0.001732193623178915 0.003755394429550395 0.08456204633474969 0.09873382405117782 0.06829468395005295</probabilities>
		</cpt>
		<cpt id="occupation">
			<state id="S_" />
			<state id="SAdm_clerical" />
			<state id="SArmed_Forces" />
			<state id="SCraft_repair" />
			<state id="SExec_managerial" />
			<state id="SFarming_fishing" />
			<state id="SHandlers_cleaners" />
			<state id="SMachine_op_inspct" />
			<state id="SOther_service" />
			<state id="SPriv_house_serv" />
			<state id="SProf_specialty" />
			<state id="SProtective_serv" />
			<state id="Sales" />
			<state id="STech_support" />
			<state id="STransport_moving" />
			<parents>sex Veducation_num</parents>
			<probabilities>0.05559587647707406 0.2178843552075264 4.458695753883719e-007 0.03531865438570311 0.1494974813581347 0.003197427852631758 0.009968029650492568 0.06538531869370898 0.07560285934627417 0.01666752963814621 0.1407797295362993 0.009328744600805237 0.1676420987534803 0.04597009533308546 0.007161353297062388 0.04759933623053879 0.1429834328237006 6.76212492210286e-007 0.01218732511237295 0.09319061083363296 0.01058557567589369 0.0131806479044782 0.07656461908160248 0.2802917883599466 0.02863139153968042 0.1397849872974502 0.01017785098095701 0.1226782248776236 0.01045731535617088 0.01168621771345967 0.01139259183991798 0.09618733601702191 3.379136179346085e-008 0.04918496423653022 0.2585245072843259 0.009469611996838672 0.022821134234712 0.07763443812467424 0.2029635239635891 0.002641267229390274 0.01811472402870925 0.005050606343211145 0.2002217711248137 0.04353637947780712 0.002257110307096587 0.135310922308032 0.03475339774026433 1.338461260200334e-008 0.006990416553190367 0.2308511634283084 0.003384702049038124 0.02067327894890067 0.0303733513604402 0.2471946434869604 0.0009934292800072508 0.1997957810191416 0.0119741828708967 0.06024601600724832 0.01258479173420134 0.004873909828757826 0.1415664278315277 0.2340219320735188 6.90146371061276e-008 0.02429917450603532 0.1895996721179526 0.01230014271775774 0.01920601633775377 0.04389831865959361 0.09908879434628898 0.004592365068317237 0.003698938307208421 0.005893513342340592 0.1864944532125084 0.0327105056108648 0.002629676853695175 0.05569426667252771 0.2999065684736426 5.337502647566779e-009 0.04045693376465596 0.07087540761436878 0.001470604236854734 0.01998872029732631 0.09431428945185351 0.1023932025398517 0.02432953810339666 0.2143148153014397 0.0004784604377234297 0.04538524804114721 0.01910741364946847 0.01128452607824056 0.09932858662605631 0.3141412331180452 1.457528066547064e-008 0.01601012774080075 0.01015135097900708 0.001706417089268517 0.007493150143184298 0.04564029864764826 0.1980821310172742 0.00435995923643671 0.1288437613288946 0.002478821284424863 0.1172121104301806 0.04275626279974519 0.01179577498375295 0.1297752695336418 0.2238680150687608 3.608246347490187e-007 0.005372457628771529 0.04240046570920381 0.009876780224764761 0.009130316534182545 0.02503325531614726 0.2356057725407832 0.03380196959109388 0.0985917981688352 0.008402990012019454 0.1387761851367352 0.03842061898234739 0.0009437447280782228 0.04647010444451025 0.1330786087525721 1.002037289481951e-007 0.05133576961225202 0.224098558952076 0.009327315393898842 0.01455994020296583 0.03661914818282463 0.2674485198124008 0.01731200324787783 0.06226668849779652 0.01492261182708372 0.08548676059166753 0.02937985830261057 0.007694011975734514 0.04451090486212082 0.02843947728402944 4.434439666168081e-008 0.02627435642643651 0.2563000556863997 0.01217477024104812 0.01923625172281726 0.1075848350051374 0.01812213818747639 0.02721931654282037 0.2611114637194772 0.01535521793549921 0.1539175647319861 0.01991378842038956 0.009839814889965085 0.08067970249515001 0.3239874129130034 3.357476803216024e-009 0.03031078242685313 0.01224744216496294 0.002610750680751882 0.01293857505584216 0.08381875922384244 0.1579020591223542 0.01856768839271042 0.2112448123703941 0.001563598725188549 0.01512846053745185 0.04378519947123973 0.005214753062778488 0.1381601000465324 0.3378697523830173 1.291590742019165e-008 0.01678197467029124 0.1746659884114871 0.01080309467758469 0.01129031041035269 0.04122044578489649 0.01951435653107019 0.01475565613102332 0.08384022541999786 0.01526902714894718 0.07647504600968784 0.04849637804626755 0.01085763141293642 0.1387327015486361 0.06558923142526386 2.149469726540733e-008 0.008889373305914888 0.2689174253859859 0.01084910513732028 0.02216877501213137 0.1064830230888408 0.1548605877522913 0.01661752334008212 0.09427918442974581 0.006312247344411657 0.06266114433874066 0.03456991084338644 0.009069745552551438 0.04654316089053102 0.3557552967870723 1.939399676487606e-008 0.003841923567553082 0.00292137967233039 0.005976880349168754 0.01167305025071214 0.00156532657215838 0.169848801259186 0.00165072440888912 0.09224616284988393 0.01230509345391382 0.2443296762353189 0.03846506810641022 0.0128774362028751 0.03241305324513795 0.3673119237740129 1.510105295693952e-008 0.01800170790339262 0.05733202534273073 0.009216895471015653 0.01977802196518734 0.01104198361855588 0.1826135267048943 0.02740690592992373 0.1780679884687388 0.002150576116374666 0.0386349915427613 0.04259080803225251 0.01343957678396847 0.1121285962439293 0.1052368209785318 1.787858873928393e-008 0.004309008431578781 0.190683151991376 0.007993092615357529 0.006840921197471897 0.04893143425595415 0.21415124560123 0.001965309952071447 0.1768212232798676 0.00116422724793981 0.1157958917441542 0.004012644450852521 0.009966414131096399 0.07469118674833367 0.0274481208956405 0.001009069253063051 0.1353007950191231 0.02714061761155136 0.01588245946497788 0.3150362789093109 0.04912459001180015 0.1043212733327186 0.0002152393565682298 0.09239298474306061 0.01074591745174009 0.07603317717270917 0.01654962028876157 0.05410866974064106 0.1051837582330498 0.05709663657091284 0.0009603186082135392 0.1303576569217474 0.006734844732326123 0.02393043977859193 0.224760899894919 0.0943637419106462 0.1696119983799018 0.0004365823032186622 0.03433201356431449 0.007197622989510076 0.1115079064084595 0.02356002498841564 0.00996555471577318 0.05280408867547756 0.1038263449059222 0.0006889178014916058 0.0005193475393947746 0.01511179167747321 0.01053797444274574 0.07983697286658997 0.04854133858588136 0.3277520178604345 0.0007853240975952903 0.03473525786563173 0.02964029214610903 0.1666591902096397 0.01699892474441054 0.111562216581203 0.02394701475689173 0.07421590889230594 8.207066838301742e-005 0.05073876244053057 0.1796123426432345 0.03604491540313678 0.1404941987885846 0.09616770858478412 0.1046653971152693 1.155524927775642e-005 0.1471246559021105 0.02340558230171761 0.04034860664538313 0.03508452969379824 0.04805675091459231 0.002707351942487862 0.0556468703166069 1.572281435665523e-006 0.2220200907429474 0.02518667700120043 0.07176930092780993 0.01538593755558843 0.1597651979446265 0.007638111674808594 1.975074239116945e-009 0.06639713346726998 0.0298257324558756 0.2365207243151237 0.03507356529967805 0.0720617320994667 0.1020697044414024 0.07941474074810255 0.0003325115873150675 0.2607667610110157 0.0469945004267129 0.08233185251485864 0.06044467967134892 0.06142517656686265 0.01996207618776763 1.666490013990442e-006 0.04724798125552422 0.05243480655243631 0.152183696280694 0.009048309217638389 0.02534153704830684 0.0558136439370896 0.0287556934242872 7.955219607955731e-006 0.2431992426289159 0.09306679235946234 0.04351846812159444 0.03363261744965078 0.05067826039693341 0.04684679147478399 7.047940001172561e-007 0.2398581437086995 0.04637053401318167 0.005303186922662654 0.01979946602476195 0.0931484995243685 0.07445796310884041 0.1059629336833178 0.005047238181203101 0.1089851073277851 0.02662667850097527 0.03898713225739914 0.1547571640769687 0.03081556921431534 0.317063435518855 0.008614174711400687 0.01082343899609348 0.002248894192299599 0.07993444317062301 0.007322755309840474 0.02835307175008298 0.05751683431036357 0.04765929457043793 0.0004689615989646398 0.2044298461374872 0.134820909555592 0.03346513338386589 0.1013856977664596 0.07451680911632881 0.03665394625814334 2.756518873070058e-005 0.191778947226266 0.008038520105077369 0.01814997514980966 0.05015001943876517 0.04093754019370799 0.01194463438214738 0.05652092632545479 6.050102247982735e-005 0.1485265481599861 0.1787251188689714 0.03754883257299405 0.03910020522176569 0.01364895827592567 0.04747806773823352 6.867795967258557e-007 0.2100580925697412 0.02501279463040841 0.1296771361260224 0.0226502502114605 0.0790472471148124 0.03858348761878292 0.04458108364109951 9.681970567373455e-006 0.021225192849553 0.2596189533732035 0.03661839321532157 0.01174293957207548 0.1600800545675217 0.02882715636166003 7.673160628513419e-009 0.1223132464825698 0.04812366465553856 0.06883631629545101 0.01239711869030628 0.1470427030331887 0.03503585730529924 0.005935055564947774 2.241239565209068e-006 0.2352586926414443 0.2422080651044194 0.04533033794982253 0.001825255152637531 0.11876371913801 0.007257883100748807 2.577830992776367e-009 0.1054457079849556 0.02159562501334965 0.09312373324753255 0.03124965097074552 0.05696817300869092 0.01142624102166927 0.02639168370612985 3.656453912787729e-006 0.2299678105970798 0.2886931284083938 0.03400701394469173 0.01608496301009484 0.01881372243216531 0.01162187816473683 5.192224017650792e-009 0.08815753865716179 0.01348998351951402 0.1538955585524001 0.0161792577924794 0.0912675585473466 0.06345886112332423 0.06331330708193247 0.0004341243159244434 0.2162374825265445 0.1184818573895307 0.08381554156905238 0.03572272475523209 0.0903901454680844 0.00401885733245236 1.97903026161667e-005 0.07533103710890053 0.005106079614910228 0.09468514949039433 0.06332372650453025 0.08566131541657064 0.07996828826530565 0.1217373777320463 0.0009190679666591164 0.02189281100537851 0.1108846582519276 0.01850604654229794 0.02888504356818345 0.07539939665763323 0.1464031205457132 0.0001679119521046201 0.0864055290815261 0.02521262359173566 0.1715364303060696 0.05004730714441787 0.06203438738900132 0.02541410054402598 0.02344725319637983 3.421718763776654e-005 0.319901826601977 0.1522414175010705 0.02880525502553714 0.008695784882062182 0.06198458572068288 0.01646102432019957 1.292476899387908e-007 0.1702262655502922 0.02994006657204395 0.09426133817083265 0.02215624281489823 0.04643049266467036</probabilities>
		</cpt>
		<cpt id="workclass">
			<state id="S_" />
			<state id="SFederal_gov" />
			<state id="SLocal_gov" />
			<state id="SNever_worked" />
			<state id="Private" />
			<state id="SSelf_emp_inc" />
			<state id="SSelf_emp_not_inc" />
			<state id="SState_gov" />
			<state id="SWithout_pay" />
			<parents>occupation</parents>
			<probabilities>0.9962018448181546 9.609788372122126e-015 9.609788372122126e-015 0.003798155181778137 9.609788372122126e-015 9.609788372122126e-015 9.609788372122126e-015 9.609788372122126e-015 9.609788372122126e-015 5.494540272800953e-016 0.08408488063660492 0.07506631299734767 5.494540272800953e-016 0.7514588859416415 0.008222811671088043 0.01326259946949651 0.06710875331565008 0.0007957559681703068 1.111111111111111e-005 0.9999111111111105 1.111111111111111e-005 1.111111111111111e-005 1.111111111111111e-005 1.111111111111111e-005 1.111111111111111e-005 1.111111111111111e-005 1.111111111111111e-005 3.932077451387823e-016 0.01561356428397204 0.03561844352281071 3.932077451387823e-016 0.7794584044888974 0.02585996584532843 0.1295437911685776 0.01366186874847558 0.0002439619419374502 4.061260067601218e-016 0.04426955238563723 0.05263157894736864 4.061260067601218e-016 0.661829808165271 0.09837678307919336 0.09640924741760951 0.04648303000491907 4.061260067601218e-016 1.133613913390358e-013 0.008048289738535734 0.02917505030189447 1.133613913390358e-013 0.4577464788728858 0.05130784708255599 0.4325955734403159 0.01509054325965531 0.006036217303930141 3.144906016786493e-014 0.01678832116790991 0.03430656934308744 3.144906016786493e-014 0.9291970802917393 0.001459854014629576 0.0109489051095174 0.00656934306572302 0.0007299270073305125 6.9029335602553e-015 0.006993006993013462 0.005994005994012525 6.9029335602553e-015 0.9555444555444032 0.006493506493512993 0.01798201798202377 0.006493506493512993 0.0004995004995073714 9.414747533964458e-016 0.0106221547799705 0.0585735963581188 9.414747533964458e-016 0.8315629742033323 0.00819423368740603 0.05311077389984874 0.03763277693475024 0.0003034901365715004 2.194787379972565e-010 2.194787379972565e-010 2.194787379972565e-010 2.194787379972565e-010 0.9999999982441703 2.194787379972565e-010 2.194787379972565e-010 2.194787379972565e-010 2.194787379972565e-010 3.778649143767785e-016 0.04227053140096641 0.1702898550724636 3.778649143767785e-016 0.5586956521739115 0.03864734299516933 0.090096618357488 0.1 3.778649143767785e-016 6.224494162591567e-013 0.04314329738096627 0.4684129429872125 6.224494162591567e-013 0.2927580893672412 0.007704160247112417 0.009244992296410411 0.1787365177191897 6.224494162591567e-013 6.253312878938539e-016 0.003835616438356768 0.001917808219178697 6.253312878938539e-016 0.8060273972602701 0.07972602739726044 0.1054794520547946 0.003013698630137594 6.253312878938539e-016 1.491745150195818e-013 0.07327586206901632 0.04094827586216316 1.491745150195818e-013 0.7931034482749464 0.003232758620834489 0.0280172413794219 0.06142241379317015 1.491745150195818e-013 1.703924669304946e-014 0.01565435190984557 0.07201001878522828 1.703924669304946e-014 0.792736380713734 0.01690670006263186 0.07639323731998028 0.02567313713213584 0.0006261740764101806</probabilities>
		</cpt>
		<cpt id="Vmarital_status">
			<state id="Divorced" />
			<state id="SMarried_AF_spouse" />
			<state id="SMarried_civ_spouse" />
			<state id="SMarried_spouse_absent" />
			<state id="SNever_married" />
			<state id="Separated" />
			<state id="Widowed" />
			<parents>age</parents>
			<probabilities>0.2440525713689028 0.254248263503528 0.06256707577688317 0.2167785357761078 0.03522278890237395 0.08449586438453065 0.1026349002876738 0.2742317986605082 0.2141493927614141 0.121385665507899 0.06318704344340413 0.09952186600300254 0.1526659219131945 0.07485831171057764 0.1569450187687057 0.2315949494857829 0.3150859508117149 0.08052592551808957 0.02365399047038693 0.03427112756025704 0.1579230373850628 0.1733170215714415 0.008183375845249223 0.2935646553108166 0.05228779926284952 0.004946010568998419 0.3589261805397497 0.1087749569008951 0.03877426107129505 0.2522125999969553 0.1143912859339176 0.1611841084841798 0.0309229611221274 0.1589240112299497 0.2435907721615751 0.1656525527895616 0.09030094462952751 0.1716481251588631 0.02818878666976028 0.1536496715023222 0.1767422545640195 0.213817664685946</probabilities>
		</cpt>
		<cpt id="Vnative_country">
			<state id="S_" />
			<state id="Cambodia" />
			<state id="Canada" />
			<state id="China" />
			<state id="Columbia" />
			<state id="Cuba" />
			<state id="SDominican_Republic" />
			<state id="Ecuador" />
			<state id="SEl_Salvador" />
			<state id="England" />
			<state id="France" />
			<state id="Germany" />
			<state id="Greece" />
			<state id="Guatemala" />
			<state id="Haiti" />
			<state id="SHoland_Netherlands" />
			<state id="Honduras" />
			<state id="Hong" />
			<state id="Hungary" />
			<state id="India" />
			<state id="Iran" />
			<state id="Ireland" />
			<state id="Italy" />
			<state id="Jamaica" />
			<state id="Japan" />
			<state id="Laos" />
			<state id="Mexico" />
			<state id="Nicaragua" />
			<state id="SOutlying_US_Guam_USVI_etc_" />
			<state id="Peru" />
			<state id="Philippines" />
			<state id="Poland" />
			<state id="Portugal" />
			<state id="SPuerto_Rico" />
			<state id="Scotland" />
			<state id="South" />
			<state id="Taiwan" />
			<state id="Thailand" />
			<state id="STrinadad_Tobago" />
			<state id="SUnited_States" />
			<state id="Vietnam" />
			<state id="Yugoslavia" />
			<probabilities>0.01488529381024372 0.0246855233834885 0.01166052741460173 0.001738772976392498 0.03868498131787444 0.04763475970391624 0.02821925355568458 0.0008326238361280934 0.03299300810320936 0.01558976839783014 0.02186116933692302 0.02983758768075731 0.003949781079441088 0.03517509901738017 0.005672436735077066 0.02851909021391144 0.02530525295600115 0.02375752827575152 0.04185297899866658 0.01934452741275071 0.00181136112093293 0.0470613398133452 0.01720264171825356 0.0004310607686669625 0.03694386825436086 0.01326922362077599 0.03787153327613223 0.01972877341626462 0.05758664141444551 0.01919226528095235 0.005877189111351879 0.04034737937598366 0.001332078880765443 0.007977503044868039 0.01411472452860803 0.03529579600005978 0.006722446456727776 0.001688743207731913 0.04051952815530332 0.009174519706693803 0.0430381460046534 0.09061327263709348</probabilities>
		</cpt>
		<cpt id="race">
			<state id="SAmer_Indian_Eskimo" />
			<state id="SAsian_Pac_Islander" />
			<state id="Black" />
			<state id="Other" />
			<state id="White" />
			<parents>Vnative_country</parents>
			<probabilities>0.01377043565501041 0.02530868579782556 0.1114262354533392 0.01299276791175708 0.8365018751820678 0.0121320205653462 0.01070043917546762 0.09807884663946508 0.0120142669156692 0.8670744267040518 0.01847403676277259 0.0189345773213117 0.2235439449048156 0.02022150805493511 0.7188259329561649 0.00868070657794034 0.02283433210561719 0.1519392424786503 0.002884659345982935 0.8136610594918092 0.01441008138021493 0.01480563175337053 0.2689253863105212 0.007230538673088048 0.6946283618828054 0.003963759202945484 0.03062312041968409 0.006836868057325459 0.005914686123148517 0.9526615661968964 0.01270373855787717 0.03971836650136566 0.02851122981699143 0.01272335773285347 0.9063433073909123 0.005189917506282088 0.02011715520829116 0.5719906315243885 0.01163381970726162 0.3910684760537768 0.009307882682724132 0.03686143973812843 0.1666991100992548 0.005289793567440817 0.7818417739124518 0.05393277001033105 0.05268595629042987 0.2603665101283182 0.02130922307485469 0.6117055404960662 0.006326975790986301 0.0476336059225328 0.06570694824375939 0.01019451835110549 0.8701379516916161 0.01968685913442814 0.01711186516855673 0.1027362187364924 0.008884231162529128 0.8515808257979937 0.04089935153561049 0.1719631066037008 0.3656131643332122 0.05097029443169851 0.3705540830957781 0.004419189016000188 0.02185784324023536 0.1006221707974356 0.01181894887258701 0.8612818480737418 0.05837428789456159 0.2124401582625035 0.2819017325649652 0.06548573282561253 0.3817980884523573 0.003384388675302537 0.02374123610035869 0.2144080012259303 0.002934140201502926 0.7555322337969056 0.007164717500906001 0.02798662647223033 0.135240965710875 0.006601264162605404 0.8230064261533833 0.01017598424657408 0.01198299972921865 0.003562872279074865 0.005956923797461671 0.9683212199476708 0.008685848528377026 0.0485580521444297 0.08284576179769038 0.005385023000394168 0.8545253145291087 0.007534307351901123 0.03934408547187757 0.003926872780561952 0.01099114198404401 0.9382035924116154 0.01698001579518122 0.01286880306459258 0.1789640600293513 0.005386600876952482 0.7858005202339224 0.006185111518910486 0.04448320711356015 0.1448874998192058 0.003126284155386526 0.8013178973929371 0.01124823332398817 0.0242899754113463 0.05645364580564243 0.00271596290755488 0.9052921825514682 0.0050962063101848 0.03210251261815812 0.06604295754708572 0.008180517184540038 0.8885778063400314 0.004515605774341253 0.02528071380247977 0.08005980779213576 0.007072926830154255 0.883070945800889 0.005703210855265247 0.04537970799382342 0.1765348518454489 0.009311237296190435 0.7630709920092721 0.01575643876361691 0.04378696781727232 0.02946610322568278 0.007820539495462372 0.9031699506979657 0.009958931883277665 0.02202424637295234 0.08170695899485168 0.0005887159442398152 0.8857211468046784 0.007223039894857152 0.01060191310247998 0.08835945684107516 0.00699929501722176 0.8868162951443659 0.01483234325396355 0.109280822403418 0.1630620666954006 0.02296579679677032 0.6898589708504478 0.01580363985437048 0.1005369739823423 0.2339742716340248 0.01712976483004273 0.6325553496992197 0.005152279043258228 0.02699903045746024 0.01682862850495044 0.005621195286233064 0.945398866708098 0.01357991543497455 0.1244516231095204 0.3626062553249455 0.05022216255476007 0.4491400435757996 0.003517889725868795 0.01741770401762902 0.08879542321443447 0.003956441663926729 0.886312541378141 0.03045875629177181 0.03161212291542572 0.1090260737710276 0.01609076059426685 0.8128122864275079 0.009954272584581697 0.02250341219784113 0.009539178175119683 0.004943245574299723 0.9530598914681578 0.006647940145092767 0.06079046728469786 0.3102150590711492 0.02766932516700365 0.5946772083320567 0.01590620961471428 0.06521409368690578 0.1144604490022298 0.01880669486458554 0.7856125528315645 0.00528946373593352 0.02159042948461161 0.06422939033498923 0.003921753145343215 0.9049689632991225 0.01902961224386935 0.1613870624404956 0.07626912928716879 0.02635671377271956 0.7169574822557466 0.005481692972844857 0.03075721498206017 0.1633077690535325 0.00724025333327061 0.793213069658292 0.0008674565808235333 0.009046532099297393 0.01157065628728389 0.003802694820216008 0.9747126602123791</probabilities>
		</cpt>
		<cpt id="Vhours_per_week">
			<state id="s1_below_16" />
			<state id="s2_16_34" />
			<state id="s3_34_52" />
			<state id="s4_52_79" />
			<state id="s5_79_93" />
			<state id="s6_93_up" />
			<parents>age</parents>
			<probabilities>0.2892435915578694 0.07673357421662282 0.2576383977034074 0.1733745713033521 0.01630061713702056 0.1867092480817278 0.02600292073676556 0.05511744774059926 0.284124177035621 0.3121559239115715 0.2542735411280122 0.06832598944743058 0.1957528968181093 0.1578590221606949 0.2088922643984888 0.07330477876650193 0.1507261439200746 0.2134648939361306 0.1212688928599077 0.1153051777583358 0.1158420074935014 0.2662200777993098 0.1989496974074606 0.1824141466814848 0.2281465475560535 0.05109415507661021 0.1844288644144897 0.2621737140341725 0.2160255668703158 0.05813115204835834 0.2021446308709635 0.1681523864816221 0.1321300266531206 0.2018812881962061 0.2012960289446607 0.0943956388534269</probabilities>
		</cpt>
		<cpt id="pay">
			<state id="Slower50K" />
			<state id="Sgreater50K" />
			<parents>sex occupation race</parents>
			<probabilities>0.8997071839088707 0.1002928160911294 0.9910645114945681 0.008935488505431806 0.9658428046890104 0.03415719531098953 0.864481964165607 0.135518035834393 0.9309393191933161 0.06906068080668397 0.9401632245252489 0.0598367754747511 0.9121875495723895 0.08781245042761042 0.9582167232719584 0.04178327672804151 0.9311877082040363 0.06881229179596377 0.9079744768754668 0.0920255231245331 0.1313482930764471 0.8686517069235531 0.1313482930764471 0.8686517069235531 0.1313482930764471 0.8686517069235531 0.1313482930764471 0.8686517069235531 0.1313482930764471 0.8686517069235531 0.8678634733412088 0.1321365266587912 0.9433700600033751 0.05662993999662479 0.8683802541469178 0.1316197458530823 0.9207180840047253 0.07928191599527472 0.9099625170761616 0.09003748292383844 0.816092786425815 0.1839072135741852 0.7580463932129075 0.2419536067870926 0.8043128572604653 0.1956871427395348 0.8643711457032595 0.1356288542967405 0.7487953535056404 0.2512046464943596 0.9109421021491084 0.08905789785089155 0.821884204298217 0.1781157957017831 0.9406280680994056 0.05937193190059437 0.821884204298217 0.1781157957017831 0.9654267334015589 0.034573266598441 0.964037577005763 0.03596242299423706 0.9820187885028815 0.01798121149711853 0.9957691267065604 0.004230873293439654 0.9520501026743506 0.04794989732564942 0.9654679192335254 0.03453208076647456 0.9713956116617091 0.028604388338291 0.8999895128014529 0.1000104871985471 0.9755707578750531 0.02442924212494685 0.9856978058308545 0.0143021941691455 0.9601043813166192 0.03989561868338067 0.935453446944852 0.06454655305514789 0.8837389065095723 0.1162610934904276 0.9823443038538892 0.01765569614611078 0.9922934307146351 0.007706569285364865 0.9720221129362223 0.02797788706377761 0.9520514379322711 0.04794856206772898 0.9904102875864542 0.009589712413545797 0.9983466013080093 0.001653398691990655 0.9880128594830677 0.01198714051693225 0.9902060882049744 0.009793911795025503 0.7067102180220602 0.2932897819779398 0.6461472697670593 0.3538527302329408 0.8157265931966639 0.1842734068033361 0.8942102180220602 0.1057897819779398 0.7394995118775714 0.2605004881224287 0.6996172504172358 0.3003827495827644 0.8326954173620594 0.1673045826379406 0.8392173661459349 0.1607826338540651 0.4980862520861782 0.5019137479138218 0.8749565057292312 0.1250434942707687 0.9167880049584811 0.08321199504151888 0.9314296493922264 0.0685703506077736 0.9697105460093405 0.03028945399065946 0.8057173399446415 0.1942826600553585 0.9256040940920357 0.07439590590796433 0.8347266510247016 0.1652733489752984 0.9690112470671316 0.03098875293286845 0.9376044988268527 0.06239550117314738 0.8347266510247016 0.1652733489752984 0.8505298280174367 0.1494701719825632 0.7874140461379158 0.2125859538620843 0.8582760307586105 0.1417239692413895 0.9806740041943559 0.01932599580564403 0.5748280922758314 0.4251719077241686 0.8593257924220273 0.1406742075779727 0.9107732550669018 0.08922674493309828 0.8402295116316111 0.159770488368389 0.9429411151701626 0.05705888482983742 0.9968144343529946 0.003185565647005503 0.8510231613271932 0.1489768386728067 0.750530045280543 0.249469954719457 0.7296187971546027 0.2703812028453972 0.7785247467643832 0.2214752532356168 0.9885159787542421 0.01148402124575786 0.758008540921949 0.241991459078051 0.9018504545274768 0.09814954547252316 0.8037009090549537 0.1962990909450463 0.9018504545274768 0.09814954547252316 0.8037009090549537 0.1962990909450463 0.8167180681813188 0.1832819318186812 0.8557992985657038 0.1442007014342962 0.6976192246508269 0.3023807753491731 0.78326062768812 0.21673937231188 0.7914024317531143 0.2085975682468858 0.7647315312998009 0.2352684687001992 0.9992603700192271 0.0007396299807727797 0.4572706252156684 0.5427293747843316 0.5064864442021813 0.4935135557978188 0.6864053982934443 0.3135946017065557 0.4106021177207916 0.5893978822792084 0.9994339758981754 0.0005660241018245917 0.8705864031712899 0.1294135968287102 0.9999654863352547 3.451366474540193e-005 0.9993207710778105 0.0006792289221895099 0.8698021881129489 0.1301978118870512 0.9997623411829326 0.0002376588170675014 0.9314299767004397 0.06857002329956033 0.9237530880573894 0.07624691194261046 0.9996999257360258 0.0003000742639741179 0.9309365660974319 0.06906343390256803 0.9997120377212687 0.000287962278731289 0.7843258931464274 0.2156741068535726 0.8673739751982698 0.1326260248017302 0.9600797403246895 0.03992025967531051 0.8358334172223007 0.1641665827776994 0.9314509202267111 0.06854907977328893 0.8538972520728142 0.1461027479271858 0.9502976573796272 0.04970234262037272 0.9999403977359496 5.960226405037387e-005 0.9456228763062143 0.05437712369378558 0.9849642766710915 0.01503572332890849 0.9849642766710915 0.01503572332890849 0.9849642766710915 0.01503572332890849 0.9849642766710915 0.01503572332890849 0.9983293640745656 0.001670635925434276 0.608958395529139 0.3910416044708608 0.4589618163340971 0.5410381836659028 0.6012459808275973 0.3987540191724027 0.4950564360901739 0.5049435639098261 0.4279631550453185 0.5720368449546815 0.6250227802972536 0.3749772197027465 0.5920764013459208 0.4079235986540791 0.7177973325686524 0.2822026674313476 0.7500084371471308 0.2499915628528691 0.6363136367673821 0.3636863632326179 0.7355006356536309 0.2644993643463691 0.7438074583648155 0.2561925416351844 0.7565291793277764 0.2434708206722235 0.9256495825095567 0.07435041749044336 0.6114301860325345 0.3885698139674654 0.8125127341832994 0.1874872658167006 0.5791738798388177 0.4208261201611823 0.6473984718439709 0.3526015281560291 0.7187691012749491 0.2812308987250509 0.5829775264379892 0.4170224735620108 0.8755319114715967 0.1244680885284033 0.8450811473845576 0.1549188526154424 0.8786506809698097 0.1213493190301904 0.9328918381376326 0.06710816186236746 0.7796844800208425 0.2203155199791575</probabilities>
		</cpt>
	</nodes>
	<extensions>
		<genie version="1.0" app="GeNIe 2.0.5219.0" name="adult" faultnameformat="nodestate">
			<node id="age">
				<name>age</name>
				<interior color="e5f6f7" />
				<outline color="000080" />
				<font color="000000" name="Arial" size="8" />
				<position>196 175 268 223</position>
			</node>
			<node id="workclass">
				<name>workclass</name>
				<interior color="e5f6f7" />
				<outline color="000080" />
				<font color="000000" name="Arial" size="8" />
				<position>682 146 754 194</position>
			</node>
			<node id="Veducation_num">
				<name>Veducation_num</name>
				<interior color="e5f6f7" />
				<outline color="000080" />
				<font color="000000" name="Arial" size="8" />
				<position>423 67 495 115</position>
			</node>
			<node id="Vmarital_status">
				<name>Vmarital_status</name>
				<interior color="e5f6f7" />
				<outline color="000080" />
				<font color="000000" name="Arial" size="8" />
				<position>204 82 276 130</position>
			</node>
			<node id="occupation">
				<name>occupation</name>
				<interior color="e5f6f7" />
				<outline color="000080" />
				<font color="000000" name="Arial" size="8" />
				<position>524 151 596 199</position>
			</node>
			<node id="relationship">
				<name>relationship</name>
				<interior color="e5f6f7" />
				<outline color="000080" />
				<font color="000000" name="Arial" size="8" />
				<position>313 152 395 208</position>
			</node>
			<node id="race">
				<name>race</name>
				<interior color="e5f6f7" />
				<outline color="000080" />
				<font color="000000" name="Arial" size="8" />
				<position>370 401 442 449</position>
			</node>
			<node id="sex">
				<name>sex</name>
				<interior color="e5f6f7" />
				<outline color="000080" />
				<font color="000000" name="Arial" size="8" />
				<position>428 200 500 248</position>
			</node>
			<node id="Vhours_per_week">
				<name>Vhours_per_week</name>
				<interior color="e5f6f7" />
				<outline color="000080" />
				<font color="000000" name="Arial" size="8" />
				<position>207 271 279 319</position>
			</node>
			<node id="Vnative_country">
				<name>Vnative_country</name>
				<interior color="e5f6f7" />
				<outline color="000080" />
				<font color="000000" name="Arial" size="8" />
				<position>244 403 316 451</position>
			</node>
			<node id="pay">
				<name>pay</name>
				<interior color="e5f6f7" />
				<outline color="000080" />
				<font color="000000" name="Arial" size="8" />
				<position>428 316 500 364</position>
			</node>
			<textbox>
				<caption>Input file: adult.csv\nData rows: 32561\n\nLearning algorithm: Bayesian Search\nElapsed time: 14.735 seconds\nBest score in iteration 0: -353631\n\nAlgorithm parameters:\nMax parent count: 8\nIterations: 20\nSample size: 50\nSeed: 0\nLink probability: 0.1\nPrior link probability: 0.001\nMax search time: 0\nUse accuracy as score: no\nNo background knowledge</caption>
				<font color="000000" name="Arial" size="8" />
				<position>6 172 183 410</position>
			</textbox>
		</genie>
	</extensions>
</smile>
