<?xml version="1.0" encoding="ISO-8859-1"?>
<smile version="1.0" id="Unnamed" numsamples="1000" discsamples="10000">
	<nodes>
		<cpt id="age">
			<state id="s1_below_24" />
			<state id="s2_24_38" />
			<state id="s3_38_48" />
			<state id="s4_48_66" />
			<state id="s5_66_78" />
			<state id="s6_78_up" />
			<probabilities>0.1710635422745002 0.366634931359602 0.2276957095912288 0.2036485365928565 0.02656552317189276 0.004391757009919843</probabilities>
		</cpt>
		<cpt id="sex">
			<state id="Female" />
			<state id="Male" />
			<probabilities>0.3307945087681583 0.6692054912318418</probabilities>
		</cpt>
		<cpt id="education">
			<state id="S10th" />
			<state id="S11th" />
			<state id="S12th" />
			<state id="S1st_4th" />
			<state id="S5th_6th" />
			<state id="S7th_8th" />
			<state id="S9th" />
			<state id="SAssoc_acdm" />
			<state id="SAssoc_voc" />
			<state id="Bachelors" />
			<state id="Doctorate" />
			<state id="SHS_grad" />
			<state id="Masters" />
			<state id="Preschool" />
			<state id="SProf_school" />
			<state id="SSome_college" />
			<probabilities>0.02865391112066584 0.03608611529129942 0.01329811737968736 0.005159546696968768 0.01022695863149167 0.01983968551334419 0.01578575596572587 0.03276926384324807 0.04244341390006451 0.1644605509658795 0.01268388563004822 0.32250238014803 0.05291606523141183 0.001566290961579804 0.0176898743896072 0.2239181843309481</probabilities>
		</cpt>
		<cpt id="occupation">
			<state id="S_" />
			<state id="SAdm_clerical" />
			<state id="SArmed_Forces" />
			<state id="SCraft_repair" />
			<state id="SExec_managerial" />
			<state id="SFarming_fishing" />
			<state id="SHandlers_cleaners" />
			<state id="SMachine_op_inspct" />
			<state id="SOther_service" />
			<state id="SPriv_house_serv" />
			<state id="SProf_specialty" />
			<state id="SProtective_serv" />
			<state id="Sales" />
			<state id="STech_support" />
			<state id="STransport_moving" />
			<parents>sex education</parents>
			<probabilities>0.1423728813560377 0.07457627118643548 9.757667344608837e-018 0.03728813559321525 0.02711864406779276 0.01355932203389798 0.02711864406779397 0.1016949152542232 0.362711864406749 0.0135593220338985 0.01355932203389613 0.01016949152541995 0.1559322033897952 0.003389830508474356 0.01694915254237072 0.1388888888889024 0.1134259259259241 1.128937033506235e-018 0.02083333333333331 0.02777777777777727 0.004629629629629874 0.0347222222222218 0.07870370370370201 0.3078703703703684 0.03240740740740693 0.0231481481481476 0.002314814814814757 0.2037037037036972 0.004629629629629616 0.006944444444444659 0.125000000002992 0.166666666666135 1.242531444478451e-014 0.006944444444625418 0.01388888888900073 0.006944444444490031 0.02083333333338118 0.08333333333282832 0.3055555555550202 0.02083333333331776 0.02083333333332318 5.222468489090684e-014 0.2083333333315332 0.006944444444431311 0.01388888888885662 0.06521739213419146 2.543319354865906e-012 5.472720262844863e-013 0.04347826076603592 7.650418174347213e-011 1.296101952857663e-010 0.0217391304578181 0.1521739127715615 0.4130434779522651 0.2391304343709165 0.04347826077517865 6.853269309709309e-012 0.0217391305260183 1.454895917793694e-012 2.850137915773185e-011 0.1190476190959023 0.03571428571290986 1.480362295590088e-014 0.03571428571058263 5.412345404863123e-013 0.02380952381115748 0.0238095238121069 0.2738095237735637 0.2500000000082077 0.1666666666508005 6.734232766839198e-013 1.853798659598319e-013 0.05952380951792272 0.0119047619027479 2.683411469712764e-012 0.1437500000026205 0.01250000000014788 3.202656815870387e-016 0.01875000000008008 0.0062500000001523 0.04374999999988977 0.02499999999996663 0.2437499999986715 0.3937499999984978 0.04999999999980689 0.006250000000066488 0.006249999999976431 0.03125000000010352 0.01874999999989564 1.242529495919854e-013 0.1666666666696859 0.05555555555537059 6.520202010546736e-016 0.03472222222210752 0.03472222222197358 0.006944444444576011 0.02777777777777318 0.1666666666656052 0.3055555555552738 0.06249999999970871 0.006944444444421595 0.006944444444367321 0.1180555555545951 0.006944444444393304 1.476715482261293e-013 0.04750593824228842 0.3159144893111613 1.470707872210552e-018 0.01662707838479801 0.135391923990496 0.002375296912114108 0.002375296912114311 0.01662707838479836 0.1116389548693581 0.004750593824227989 0.1733966745843188 0.002375296912114427 0.1021377672209039 0.05938242280285048 0.009501187648455603 0.0780000000000031 0.2499999999999988 5.386046684251729e-019 0.02600000000000011 0.1059999999999994 0.004000000000000241 0.009999999999999888 0.02000000000000042 0.1280000000000002 0.006000000000000038 0.187999999999998 0.01199999999999993 0.06000000000000052 0.1079999999999995 0.004000000000000013 0.04138357010500309 0.1649166151945646 6.299103042347655e-021 0.008647313156269302 0.205064854848672 0.001852995676343422 0.002470660901791229 0.008647313156269302 0.04941321803582458 0.003088326127239036 0.3576281655342804 0.008647313156269302 0.1006794317479926 0.04632489190858555 0.001235330450895615 0.0116279070010063 0.0116279069783491 1.046112922435302e-014 0.01162790697455833 0.1395348837127557 1.457355689092868e-013 8.763421797150074e-015 0.01162790697475609 7.565565878668066e-013 6.814185762819075e-014 0.7906976744037642 7.705914643033673e-015 0.01162790697796708 0.01162790697577395 7.179602560998048e-014 0.07256637168141593 0.2855457227138643 3.296716376282588e-022 0.03008849557522124 0.07846607669616519 0.006194690265486726 0.02625368731563422 0.07994100294985251 0.2138643067846608 0.01445427728613569 0.02949852507374632 0.006489675516224189 0.1244837758112094 0.01710914454277286 0.01504424778761062 0.02985074626865844 0.05410447761194057 5.00589508906123e-018 0.00373134328358205 0.2014925373134334 3.885051415437693e-017 1.998080538382201e-017 0.00373134328358208 0.02238805970149242 0.001865671641791036 0.6287313432835787 5.227517460270782e-017 0.03917910447761273 0.01492537313432849 1.91395452055e-017 0.1250001253266307 0.06249999427643935 2.497065857984993e-010 6.915871840403025e-009 5.370300214928706e-010 2.96712656100843e-008 0.0624999628845019 0.2499999096325993 0.3749999919012766 0.1249999656388657 1.135926169687739e-008 1.839397635474297e-010 6.579684025067231e-010 6.638327465610055e-010 1.008098369209368e-010 0.03260869566409691 0.02173913043532923 5.44845155402001e-015 2.623343256923922e-013 0.0869565217363919 2.902181188012606e-013 4.564237577532467e-015 1.796111803578446e-013 0.01086956521733549 3.549020398522871e-014 0.7826086956451337 6.822878573587673e-014 0.04347826086746456 0.02173913043329451 1.077809703453502e-013 0.09515324305060587 0.3218104062722737 5.17879857373142e-022 0.01746258018531718 0.1051318602993585 0.007483962936564506 0.009622238061297221 0.02565930149679259 0.1546685673556665 0.005702066999287243 0.0609408410548824 0.009622238061297221 0.1379187455452602 0.0413399857448325 0.007483962936564506 0.09404388714733769 0.025078369905956 3.776100209193887e-019 0.2492163009404382 0.02507836990595605 0.06269592476489015 0.09874608150470192 0.11128526645768 0.136363636363636 0.003134796238244489 0.007836990595611272 0.004702194357366784 0.05485893416927901 0.003134796238244504 0.123824451410658 0.07940780619111817 0.02422611036339164 1.464298475184052e-019 0.2234185733512783 0.02960969044414532 0.04710632570659483 0.1453566621803498 0.08748317631224756 0.1413189771197845 3.567148901131976e-018 0.01345895020188425 0.008075370121130542 0.07537012113055186 0.005383580080753693 0.1197846567967697 0.07612456747416017 0.04844290657438586 0.003460207612455835 0.1972318339100073 0.03806228373701662 0.0519031141868459 0.1211072664359689 0.07958477508649817 0.1418685121107063 0.003460207612455381 0.02422145328719346 0.02076124567473717 0.05882352941177282 0.006920415224912485 0.1280276816608836 0.0737704918094578 4.841785111528364e-015 8.942780786083677e-015 0.1721311475402439 0.03278688524540598 0.1475409836057312 0.1229508196712229 0.1311475409830527 0.1721311475393867 1.713779570209404e-013 0.01639344262300536 0.00819672131141839 0.05737704917952754 9.470972847536581e-015 0.06557377049135305 0.08032128514077382 0.01204819277107829 1.198114542980431e-016 0.1606425702810944 0.004016064257026344 0.1365461847389341 0.1526104417670276 0.1325301204819257 0.1726907630521288 2.918703425465003e-015 0.004016064257026232 0.004016064257027136 0.02811244979919281 2.1570949774582e-015 0.1124497991967596 0.1028806584362223 0.01851851851851804 2.017911778177365e-018 0.2325102880658413 0.03703703703703639 0.1296296296296288 0.08641975308641885 0.1111111111111108 0.07201646090534966 2.818389391472313e-017 0.01646090534979396 0.01646090534979409 0.04938271604938192 0.004115226337448583 0.1234567901234555 0.0729729729730067 0.0162162162162152 1.058715386199852e-017 0.2459459459459375 0.02162162162162109 0.07297297297297072 0.1216216216216168 0.1405405405405366 0.1540540540540456 0.002702702702702503 0.005405405405405205 0.008108108108108015 0.0405405405405406 0.002702702702702689 0.09459459459459081 0.04179566563467613 0.09287925696594414 4.10870685773032e-019 0.1671826625386994 0.1362229102167182 0.02012383900928791 0.03560371517027856 0.04024767801857577 0.04798761609907119 1.468007271387508e-018 0.1006191950464397 0.05108359133126924 0.1563467492260058 0.07430340557275528 0.03560371517027861 0.02494331065759664 0.04761904761904762 6.264419136946995e-020 0.2709750566893423 0.1099773242630385 0.05668934240362811 0.02607709750566893 0.06009070294784578 0.05782312925170067 0.001133786848072561 0.08616780045351477 0.04761904761904761 0.08616780045351469 0.08163265306122447 0.04308390022675736 0.02837259100642399 0.06397216274089936 0.0002676659528907923 0.05674518201284797 0.2775695931477516 0.01980728051391863 0.01231263383297645 0.01472162740899358 0.02703426124197002 0.0005353319057815846 0.2451820128479657 0.02301927194860814 0.1729122055674518 0.0414882226980728 0.01605995717344754 0.0428134556575203 0.01223241590213885 3.191362772850896e-017 0.003058103975536078 0.13149847094801 0.00305810397553529 4.803024118211562e-017 6.748187990761638e-016 0.003058103975534791 3.455296216726324e-018 0.7737003058103735 4.914792312431579e-017 0.02140672782874496 0.006116207951070383 0.003058103975535247 0.0403600056250879 0.05582899732808326 0.0005625087891998312 0.2559414990859232 0.07607931373927718 0.05386021656588385 0.07340739699057798 0.1057516523695683 0.07818872169877655 0.0001406271972999578 0.01870341724089439 0.02714104907889186 0.09098579665307272 0.01420334692729574 0.1088454507101674 0.02695871946082565 0.0328559393428812 0.0008424599831508002 0.01684919966301601 0.3310867733782645 0.008424599831508003 0.004212299915754001 0.005054759898904802 0.005897219882055603 2.322801761399902e-020 0.4271272114574558 0.012636899747262 0.09519797809604041 0.02443133951137321 0.008424599831508003 0.08571428965857357 0.02857142833088958 1.298386725110584e-011 0.1142857137701486 1.49417627014197e-011 0.2571428561058959 0.02857142874375625 0.1999999995508736 0.2571428553559921 4.639029309061641e-011 0.02857142834073037 1.999553654452199e-011 1.393026387674678e-011 1.37507400810498e-011 2.11474891795287e-011 0.03099173553719377 0.01446280991735509 3.285915409513225e-018 0.01446280991735544 0.09090909090909066 0.008264462809917411 4.945326522122844e-018 0.002066115702479332 0.006198347107437954 3.557668585834644e-019 0.7851239669421456 0.002066115702479348 0.02892561983471069 0.0103305785123967 0.006198347107438048 0.05551839464882943 0.08428093645484949 0.0004459308807134894 0.1826086956521739 0.1302118171683389 0.03411371237458194 0.05351170568561873 0.05306577480490524 0.07736900780379041 9.506514391073569e-023 0.05774804905239688 0.03901895206243032 0.1386845039018952 0.03500557413600892 0.05841694537346712</probabilities>
		</cpt>
		<cpt id="workclass">
			<state id="S_" />
			<state id="SFederal_gov" />
			<state id="SLocal_gov" />
			<state id="SNever_worked" />
			<state id="Private" />
			<state id="SSelf_emp_inc" />
			<state id="SSelf_emp_not_inc" />
			<state id="SState_gov" />
			<state id="SWithout_pay" />
			<parents>occupation</parents>
			<probabilities>0.9962018448182312 5.673811184689014e-022 7.306760180927812e-022 0.003798155181768855 1.102497423485445e-021 1.387308928349319e-021 3.614514610115865e-021 1.533814006970581e-021 4.864523387803134e-021 1.151103173332207e-022 0.08408488063660478 0.07506631299734749 2.048801901012829e-022 0.7514588859416446 0.008222811671087533 0.01326259946949602 0.06710875331564986 0.0007957559681697614 1.538335605388983e-006 0.9999902353129496 3.030371003074563e-007 2.738021218022546e-006 4.572445434592702e-007 5.753659138491653e-007 1.499066616867345e-006 6.361267341120055e-007 2.01748931854293e-006 7.600538590024568e-022 0.0156135642839717 0.03561844352281043 1.352789069887276e-021 0.7794584044888996 0.02585996584532812 0.1295437911685777 0.01366186874847524 0.0002439619419370577 1.580656456517991e-022 0.04426955238563698 0.05263157894736841 2.813346386308368e-022 0.6618298081652728 0.09837678307919329 0.09640924741760942 0.04648303000491882 2.072992074121958e-022 1.934525840514867e-018 0.008048289738430581 0.02917505030181084 3.443184165787586e-018 0.4577464788732393 0.05130784708249495 0.432595573440644 0.01509054325955733 0.00603621730382301 2.765229712585278e-019 0.01678832116788321 0.03430656934306569 4.921720331533517e-019 0.9291970802919708 0.00145985401459854 0.01094890510948906 0.006569343065693431 0.0007299270072992704 1.228440268857296e-020 0.006993006993006993 0.005994005994005995 2.186451064008301e-020 0.9555444555444557 0.006493506493506494 0.01798201798201798 0.006493506493506495 0.0004995004995004998 2.820421033905223e-022 0.01062215477996965 0.05857359635811835 5.019953128262221e-022 0.8315629742033384 0.008194233687405159 0.05311077389984825 0.03763277693474962 0.0003034901365705615 2.073328587384757e-014 3.171486529779552e-015 4.084254962991391e-015 3.690233551317132e-014 0.9999999999998714 7.754631650020139e-015 2.020402869346132e-014 8.573550130503727e-015 2.719119458865258e-014 1.140114639126003e-022 0.04227053140096618 0.1702898550724638 2.029243854182112e-022 0.558695652173913 0.03864734299516908 0.09009661835748793 0.1 1.495232313607874e-022 2.769015106077645e-017 0.04314329738058539 0.4684129429892127 4.928457800044523e-017 0.2927580893682596 0.007704160246533071 0.009244992295839699 0.1787365177195693 3.631495221085441e-017 2.46493262458607e-022 0.003835616438356165 0.001917808219178083 4.387233711207056e-022 0.8060273972602741 0.07972602739726029 0.1054794520547945 0.003013698630136986 3.232698524047308e-022 9.001774566831599e-019 0.07327586206896546 0.04094827586206895 1.602189384260425e-018 0.7931034482758621 0.003232758620689651 0.02801724137931039 0.06142241379310351 1.180560598928736e-018 2.288324058799233e-019 0.01565435190983093 0.07201001878522229 4.0728952802984e-019 0.7927363807138383 0.01690670006261741 0.07639323731997495 0.02567313713212273 0.0006261740763932374</probabilities>
		</cpt>
		<cpt id="Vmarital_status">
			<state id="Divorced" />
			<state id="SMarried_AF_spouse" />
			<state id="SMarried_civ_spouse" />
			<state id="SMarried_spouse_absent" />
			<state id="SNever_married" />
			<state id="Separated" />
			<state id="Widowed" />
			<parents>age</parents>
			<probabilities>0.18914743185255 0.2410916298122373 0.1376500599551037 0.1015424258438466 0.2295069175907067 0.06211878003749276 0.03894275490806298 0.2048004513506354 0.06750689177342543 0.20000714028112 0.1220931550160021 0.1905360384533983 0.2078532308215637 0.007203092303855176 0.2547175147008744 0.2259379881599392 0.1146410061434311 0.1298763903330778 0.1065879034401789 0.113066656589224 0.05517254063327467 0.2660363401593205 0.08705490381556891 0.1667697615671546 0.06363507162935805 0.1631639270650027 0.2513485496858931 0.001991446077702068 0.0999072999656006 0.1578685164614679 0.1723274845249253 0.162225373621892 0.1796448254610108 0.1456025365610893 0.08242396340401426 0.07778734439807766 0.2489454453274476 0.009200405878360508 0.004404893476860751 0.2552720281592907 0.2132108224293751 0.1911790603305875</probabilities>
		</cpt>
		<cpt id="relationship">
			<state id="Husband" />
			<state id="SNot_in_family" />
			<state id="SOther_relative" />
			<state id="SOwn_child" />
			<state id="Unmarried" />
			<state id="Wife" />
			<parents>age sex</parents>
			<probabilities>1.50753769290188e-022 0.2460127591706539 0.0558213716108453 0.5925039872408294 0.06977671451355662 0.03588516746411483 0.1071195297191378 0.2220770738079687 0.06499020248203789 0.5757674722403657 0.03004572175048987 1.729043219659657e-022 0.0002632964718272775 0.3628225381779884 0.03080568720379147 0.1540284360189574 0.2725118483412322 0.1795681937862033 0.5710073710073711 0.2554054054054055 0.02936117936117937 0.1041769041769042 0.03980343980343981 0.0002457002457002458 3.404670978523279e-021 0.3410507569011576 0.02671415850400712 0.05520926090828139 0.3735529830810329 0.2034728406055209 0.7395510835913313 0.175890092879257 0.0119969040247678 0.03192724458204335 0.04063467492260062 3.805841935142539e-023 1.116535452472758e-020 0.4689325544344131 0.04992033988316515 0.0238980350504514 0.2920870950610727 0.1651619755708975 0.8148694187026115 0.136899747262005 0.008635214827295701 0.009267059814658803 0.03032855939342881 4.128102867817552e-023 1.091006624741039e-016 0.6962457337883581 0.06143344709897196 0.003412969283276889 0.1638225255972992 0.07508532423209367 0.807692307692306 0.1468531468531483 0.01398601398601413 0.00174825174825175 0.02972027972027961 8.841200020997217e-019 1.003415959029402e-012 0.6279069765333452 0.0232558140064459 0.09302325563158745 0.1627906979964629 0.09302325583115519 0.6299999999997914 0.2800000000011894 0.01999999999977904 0.02000000000134568 0.04999999999788819 6.278955974762545e-015</probabilities>
		</cpt>
		<cpt id="Vnative_country">
			<state id="S_" />
			<state id="Cambodia" />
			<state id="Canada" />
			<state id="China" />
			<state id="Columbia" />
			<state id="Cuba" />
			<state id="SDominican_Republic" />
			<state id="Ecuador" />
			<state id="SEl_Salvador" />
			<state id="England" />
			<state id="France" />
			<state id="Germany" />
			<state id="Greece" />
			<state id="Guatemala" />
			<state id="Haiti" />
			<state id="SHoland_Netherlands" />
			<state id="Honduras" />
			<state id="Hong" />
			<state id="Hungary" />
			<state id="India" />
			<state id="Iran" />
			<state id="Ireland" />
			<state id="Italy" />
			<state id="Jamaica" />
			<state id="Japan" />
			<state id="Laos" />
			<state id="Mexico" />
			<state id="Nicaragua" />
			<state id="SOutlying_US_Guam_USVI_etc_" />
			<state id="Peru" />
			<state id="Philippines" />
			<state id="Poland" />
			<state id="Portugal" />
			<state id="SPuerto_Rico" />
			<state id="Scotland" />
			<state id="South" />
			<state id="Taiwan" />
			<state id="Thailand" />
			<state id="STrinadad_Tobago" />
			<state id="SUnited_States" />
			<state id="Vietnam" />
			<state id="Yugoslavia" />
			<probabilities>0.01354920641099945 0.03884555252836103 0.05012358642997745 0.01643300001008359 0.007344239121501633 2.556183484748024e-005 0.02390474360013756 0.04241485433479528 0.03882735370123393 0.015100164060843 0.02445869234081678 0.03704712419084217 0.004435129532271196 0.006643290981829427 0.02979576722260329 0.02527567462943362 0.009782339578821776 0.04918429372586924 0.005027016357865543 0.008116222833692368 0.01127528033136944 0.01589058032888039 0.05607187748224808 0.02019056157098906 0.0274326057390662 0.03467647107083401 0.02816289835329035 0.01376100066323687 0.0314267366476107 0.04745807248925071 0.01084905720087734 0.007192751865641196 0.03219715742492438 0.003686111258297127 0.005158047534088961 0.0004779422649617185 0.006157043865709215 0.03171960345358151 0.03088638249719135 0.04398631169461548 0.06325331444190735 0.03175637839460292</probabilities>
		</cpt>
		<cpt id="race">
			<state id="SAmer_Indian_Eskimo" />
			<state id="SAsian_Pac_Islander" />
			<state id="Black" />
			<state id="Other" />
			<state id="White" />
			<parents>Vnative_country</parents>
			<probabilities>0.006901627784817191 0.0141283808002313 0.1078495742721617 0.005412292680394948 0.8657081244623949 0.008272425429121497 0.03796901475377886 0.03362491352726212 0.005593521670813114 0.9145401246190243 0.01428115756657442 0.02617311871116432 0.05912501138839206 0.000297408251471307 0.9001233040823981 0.01764456630202104 0.03682730339359652 0.09542363572444934 0.004674362377839041 0.8454301322020941 0.00987394082236364 0.05984893760987557 0.03461943285062276 0.01699655836679782 0.8786611303503401 0.008438918248279012 0.01923640816431206 0.005535300523379892 0.007966454667355441 0.9588229183966737 0.01336316655236396 0.0554193226306463 0.02587637166302523 0.02304575278863016 0.8822953863653343 0.007628870474867901 0.0566138933206628 0.07458436835544752 0.0028573738241488 0.8583154940248731 0.004564085490389096 0.005073811131047391 0.1372834969565268 0.01415165610289813 0.8389269503191386 0.02574625123199672 0.09756990513846381 0.2354509661425074 0.008187218708540759 0.6330456587784914 9.218723564768133e-005 0.0297270795813516 0.1910047967460697 0.008963046365143057 0.7702128900717882 0.005257162397946893 0.01986528984832094 0.07841904530129354 0.01423998646983354 0.8822185159826051 0.01045629414691637 0.0205323828822624 0.09695811012448771 0.02558544648687985 0.8464677663594538 0.007147112294323929 0.01677510317920364 0.0161457375907779 0.01010934409049869 0.9498227028451958 0.007227384475496494 0.03975943134271388 0.1725277943384423 0.006032478352750726 0.7744529114905967 0.008123086630830445 0.02032202897973668 0.0630321798570822 0.01553438565247896 0.8929883188798716 0.03970667248495341 0.1220921204794285 0.1210435184487083 0.0422738866159663 0.6748838019709436 0.00968263025660608 0.02169148638035624 0.04084539858824674 0.003611428571760236 0.9241690562030307 0.009941243054974494 0.179539455723007 0.6181820926771453 0.00732645252150795 0.1850107560233654 0.0373231070302716 0.01542894006172689 0.4730776599958972 0.01197601598256232 0.4621942769295421 0.0166267671075403 0.04364002400590594 0.1933275095315965 0.02347371028473367 0.7229319890702236 0.01236064714692748 0.1563806076730013 0.1583769296640561 0.02567419696482101 0.6472076185511941 0.002534271111499795 0.01276374338607197 0.007577935478423996 0.007664479495168974 0.9694595705288353 0.0248359497345977 0.05342228474907101 0.219376084500238 0.01734245077473971 0.6850232302413536 0.007566021272811968 0.03498774241994278 0.1212899942082472 0.002324870165384027 0.833831371933614 0.007526540030247829 0.03485581662552008 0.06940336372980463 0.0001142908772894898 0.8880999887371379 0.001142930460178055 0.04754324800953345 0.1398465782556173 0.01816717621648577 0.7933000670581855 0.006477577523323202 0.02746417529416058 0.04574559525318672 0.0006772647781400074 0.9196353871511895 0.007076084700461633 0.02115465466975621 0.1003176922418795 0.003283866624412785 0.8681677017634898 0.004141326696329459 0.003301941711057562 0.1221155489068811 0.01146876045007146 0.8589724222356603 0.0109641568430926 0.01611842937516929 0.08960272290145557 0.0101328306560657 0.8731818602242167 0.01863019722601162 0.01360233188399192 0.03931822341469878 0.02670902297580531 0.9017402244994923 0.008786625671217976 0.01613405281840599 0.06766842429559999 0.007890011465785671 0.8995208857489904 0.03552263717905721 0.3023006550609038 0.2381135312078369 0.02168906105636256 0.4023741154958395 0.01367289327326681 0.04102202106300453 0.1547579765005424 0.004021938314679842 0.7865251708485064 0.003415738100548437 0.01591371447344946 0.1176284175266179 0.003110102084196803 0.8599320278151873 0.06249663230237004 0.2110006150028053 0.08549754257720631 0.03586031981269791 0.6051448903049205 0.01700492416704108 0.006050264778938032 0.09304626566195234 0.0005705940907735238 0.883327951301295 0.005493943397991527 0.008483826380418551 0.01228629767315405 0.008541942890909426 0.9651939896575265 0.01348103358210114 0.01460896732318209 0.01910432421054668 0.001783289137751489 0.9510223857464186 0.007083132403251748 0.005674522539218524 0.1011375820133752 0.001485693675911257 0.8846190693682433 0.0002807534464489046 0.04624713572567772 0.1784597786794599 0.007126065348987258 0.7678862667994262</probabilities>
		</cpt>
		<cpt id="Vhours_per_week">
			<state id="s1_below_16" />
			<state id="s2_16_34" />
			<state id="s3_34_52" />
			<state id="s4_52_79" />
			<state id="s5_79_93" />
			<state id="s6_93_up" />
			<parents>age</parents>
			<probabilities>0.2644339607153976 0.1418479762405905 0.1227577558422178 0.2024785914425955 0.03190510351909644 0.2365766122401023 0.2937840340138681 0.2628837383871879 0.2450726486953772 0.1635424134041028 0.0315856976542819 0.003131467845182329 0.05192190759212232 0.2671034846874656 0.235360201666491 0.1662162578238501 0.04350454510005507 0.235893603130016 0.1880375921412187 0.1965504283032182 0.03019787360959936 0.2275893533649953 0.2279298231610456 0.1296949294199226 0.1186417082103456 0.1152410710659748 0.2806675966791216 0.2830550777885874 0.1353704221253064 0.06702412413066405 0.04557669697508656 0.2504288854782992 0.05282790372341654 0.1935103083980695 0.22754528463738 0.2301109207877482</probabilities>
		</cpt>
		<cpt id="pay">
			<state id="S__50K" />
			<state id="S_50K" />
			<parents>education relationship sex occupation</parents>
			<probabilities>0.8328025477707007 0.1671974522292994 0.8328025477707007 0.1671974522292994 0.8328025477707007 0.1671974522292994 0.8328025477707007 0.1671974522292994 0.8328025477707007 0.1671974522292994 0.8328025477707007 0.1671974522292994 0.8328025477707007 0.1671974522292994 0.8328025477707007 0.1671974522292994 0.8328025477707007 0.1671974522292994 0.8328025477707007 0.1671974522292994 0.8328025477707007 0.1671974522292994 0.8328025477707007 0.1671974522292994 0.8328025477707007 0.1671974522292994 0.8328025477707007 0.1671974522292994 0.8328025477707007 0.1671974522292994 0.9230746833871166 0.07692531661288336 0.999833862428496 0.000166137571503915 0.8338624284960849 0.166137571503915 0.9132653099005712 0.0867346900994289 0.7143211444232581 0.2856788555767419 0.944428322266875 0.05557167773312493 0.9583306835977119 0.04166931640228812 0.860464803982303 0.139535196017697 0.9523698217908054 0.04763017820919459 0.8338624284960849 0.166137571503915 0.1042328035620106 0.8957671964379894 0.9938467566109661 0.00615324338903389 0.8333334104721527 0.1666665895278472 0.1042328035620106 0.8957671964379894 0.8627454834092957 0.1372545165907043 0.9999999596665944 4.033340561079617e-008 0.9999995936086012 4.063913988073224e-007 0.9998606077502091 0.0001393922497909116 0.999997821996097 2.178003902982994e-006 0.9999912879843881 8.712015611931975e-006 0.9998606077502091 0.0001393922497909116 0.9999993546655102 6.453344897727389e-007 0.9999999586985927 4.130140734545529e-008 0.9999999948373242 5.162675918181909e-009 0.9999948373240818 5.16267591818191e-006 0.9999825759687762 1.742403122386395e-005 0.9998606077502091 0.0001393922497909116 0.9999998606077503 1.393922497909116e-007 0.9998606077502091 0.0001393922497909116 0.999997821996097 2.178003902982994e-006 0.9999908325662492 9.167433750875926e-006 0.9994132842399439 0.000586715760056059 0.9841586744784864 0.0158413255215136 0.9999998436289508 1.563710493111326e-007 0.9980198343098108 0.0019801656901892 0.999873269395828 0.0001267306041721088 0.9999961324888863 3.867511113650781e-006 0.9999972837233331 2.7162766669262e-006 0.9999988452161013 1.154783898637819e-006 0.9841586744784864 0.0158413255215136 0.5179318027584624 0.4820681972415375 0.9980198343098108 0.0019801656901892 0.999873269395828 0.0001267306041721088 0.9841586744784864 0.0158413255215136 0.9777819139546288 0.02221808604537122 0.9999881628787879 1.183712121212122e-005 0.999905303030303 9.46969696969697e-005 0.9992424242424242 0.0007575757575757576 0.9992424242424242 0.0007575757575757576 0.9992424242424242 0.0007575757575757576 0.9992424242424242 0.0007575757575757576 0.9992424242424242 0.0007575757575757576 0.9992424242424242 0.0007575757575757576 0.9999964927048259 3.507295173961842e-006 0.9992424242424242 0.0007575757575757576 0.9992424242424242 0.0007575757575757576 0.9992424242424242 0.0007575757575757576 0.9999939393939394 6.060606060606064e-006 0.9992424242424242 0.0007575757575757576 0.999905303030303 9.46969696969697e-005 0.9999940814393939 5.918560606060605e-006 0.9996212121212121 0.0003787878787878788 0.9996212121212121 0.0003787878787878788 0.9999992601799242 7.398200757575758e-007 0.9996212121212121 0.0003787878787878788 0.9999526515151516 4.734848484848485e-005 0.9999988956621611 1.104337839031717e-006 0.9999526515151516 4.734848484848485e-005 0.9999994478310805 5.521689195158584e-007 0.9999526515151516 4.734848484848485e-005 0.9996212121212121 0.0003787878787878788 0.9996212121212121 0.0003787878787878788 0.9999940814393939 5.918560606060605e-006 0.9996212121212121 0.0003787878787878788 0.9999526515151516 4.734848484848485e-005 0.9999999741199237 2.588007632262254e-008 0.9999841063981285 1.589360187163057e-005 0.9998728511850269 0.0001271488149730445 0.9999841063981285 1.589360187163057e-005 0.9998728511850269 0.0001271488149730445 0.9998728511850269 0.0001271488149730445 0.9999841063981285 1.589360187163057e-005 0.9999996293037465 3.706962535657275e-007 0.9999999988414052 1.158594683746214e-009 0.9999952907846306 4.70921536937202e-006 0.9999841063981285 1.589360187163057e-005 0.9999952907846306 4.70921536937202e-006 0.9999999841063982 1.589360187163056e-008 0.9998728511850269 0.0001271488149730445 0.9998728511850269 0.0001271488149730445 0.9999996002802629 3.997197370999754e-007 0.9998850821744627 0.0001149178255372946 0.9856352718078382 0.01436472819216182 0.909135205597111 0.09086479440288899 0.1232044089759798 0.8767955910240204 0.9999892075670984 1.079243290169934e-005 0.9999957437842394 4.256215760640539e-006 0.9999802952974044 1.970470259555804e-005 0.9999998061126202 1.938873797667884e-007 0.9982044089759798 0.001795591024020228 0.9982044089759798 0.001795591024020228 0.9856352718078382 0.01436472819216182 0.9999892075670984 1.079243290169934e-005 0.9982044089759798 0.001795591024020228 0.99993349662874 6.650337126000841e-005 0.9999828206044885 1.717939551143712e-005 0.9999971497998799 2.850200120126916e-006 0.9874762206721625 0.01252377932783767 0.9999420195401489 5.79804598511003e-005 0.6716793159480026 0.3283206840519975 0.9995361563211912 0.0004638436788088023 0.9984345275840203 0.001565472415979708 0.9999828206044885 1.717939551143712e-005 0.9999994864988591 5.135011409995351e-007 0.9874762206721625 0.01252377932783767 0.9995361563211912 0.0004638436788088023 0.9874762206721625 0.01252377932783767 0.9999942995997597 5.700400240253832e-006 0.9984345275840203 0.001565472415979708 0.9874762206721625 0.01252377932783767 0.9881270559210527 0.01187294407894737 0.9881270559210527 0.01187294407894737 0.905016447368421 0.09498355263157894 0.9998144852487665 0.0001855147512335526 0.905016447368421 0.09498355263157894 0.9999072426243832 9.275737561677631e-005 0.9992401315789474 0.0007598684210526316 0.9964820906432748 0.003517909356725146 0.9881270559210527 0.01187294407894737 0.905016447368421 0.09498355263157894 0.1131270559210527 0.8868729440789474 0.905016447368421 0.09498355263157894 0.905016447368421 0.09498355263157894 0.905016447368421 0.09498355263157894 0.7146582352487665 0.2853417647512336 0.9994444444444444 0.0005555555555555556 0.9974279835390947 0.002572016460905349 0.9305555555555556 0.06944444444444445 0.5159465020576132 0.484053497942387 0.9994444444444444 0.0005555555555555556 0.9987139917695473 0.001286008230452675 0.9913194444444444 0.008680555555555554 0.9974279835390947 0.002572016460905349 0.9999523700655388 4.762993446121017e-005 0.9305555555555556 0.06944444444444445 0.9305555555555556 0.06944444444444445 0.9913194444444444 0.008680555555555554 0.5159465020576132 0.484053497942387 0.9305555555555556 0.06944444444444445 0.9913194444444444 0.008680555555555554 0.9166666666666666 0.08333333333333333 0.9166666666666666 0.08333333333333333 0.9166666666666666 0.08333333333333333 0.9166666666666666 0.08333333333333333 0.9166666666666666 0.08333333333333333 0.9166666666666666 0.08333333333333333 0.9166666666666666 0.08333333333333333 0.9166666666666666 0.08333333333333333 0.9166666666666666 0.08333333333333333 0.9166666666666666 0.08333333333333333 0.9166666666666666 0.08333333333333333 0.9166666666666666 0.08333333333333333 0.9166666666666666 0.08333333333333333 0.9166666666666666 0.08333333333333333 0.9166666666666666 0.08333333333333333 0.8701923076923077 0.1298076923076923 0.8701923076923077 0.1298076923076923 0.8701923076923077 0.1298076923076923 0.8701923076923077 0.1298076923076923 0.8701923076923077 0.1298076923076923 0.8701923076923077 0.1298076923076923 0.8701923076923077 0.1298076923076923 0.8701923076923077 0.1298076923076923 0.8701923076923077 0.1298076923076923 0.8701923076923077 0.1298076923076923 0.8701923076923077 0.1298076923076923 0.8701923076923077 0.1298076923076923 0.8701923076923077 0.1298076923076923 0.8701923076923077 0.1298076923076923 0.8701923076923077 0.1298076923076923 0.9999779456141117 2.205438588837212e-005 0.7501665004410137 0.2498334995589863 0.8713788214990138 0.1286211785009862 0.8651685478447483 0.1348314521552517 0.7222439683367107 0.2777560316632893 0.882351059468707 0.117648940531293 0.8000040611527935 0.1999959388472065 0.9249992219907068 0.07500077800929327 0.9583318841222881 0.04166811587771203 0.8713788214990138 0.1286211785009862 0.9952362526481116 0.004763747351888377 0.5137547711666302 0.4862452288333699 0.8235376163960045 0.1764623836039954 0.9839223526873767 0.01607764731262328 0.9509802834078485 0.0490197165921516 0.9999977133054486 2.28669455133236e-006 0.9999845891216314 1.541087836858145e-005 0.9887654696693042 0.01123453033069588 0.7519101237573544 0.2480898762426456 0.9999101237573544 8.987624264556704e-005 0.9887654696693042 0.01123453033069588 0.999947988285506 5.20117144939624e-005 0.9999948864222437 5.113577756347693e-006 0.9999995393607638 4.606392361595752e-007 0.9995839062840483 0.0004160937159516993 0.998595683708663 0.001404316291336985 0.9887654696693042 0.01123453033069588 0.9999948864222437 5.113577756347693e-006 0.9887654696693042 0.01123453033069588 0.9887654696693042 0.01123453033069588 0.9998690623157429 0.0001309376842570755 0.751463679245283 0.248536320754717 0.9329599056603773 0.06704009433962263 0.4571430572692222 0.5428569427307778 0.9975170335429771 0.002482966457023061 0.9996896291928721 0.0003103708071278825 0.9999942523924607 5.747607539405232e-006 0.9999694856193265 3.051438067347411e-005 0.9999801362683438 1.986373165618449e-005 0.9329599056603773 0.06704009433962263 0.9329599056603773 0.06704009433962263 0.5160355520614955 0.4839644479385046 0.751463679245283 0.248536320754717 0.9975170335429771 0.002482966457023061 0.8666828515394679 0.1333171484605321 0.9999957133058985 4.286694101508917e-006 0.9999925925925925 7.407407407407407e-006 0.9990740740740741 0.000925925925925926 0.9998842592592593 0.0001157407407407408 0.9990740740740741 0.000925925925925926 0.9998842592592593 0.0001157407407407408 0.9998842592592593 0.0001157407407407408 0.9998842592592593 0.0001157407407407408 0.999998191550926 1.808449074074074e-006 0.999965706447188 3.429355281207133e-005 0.9990740740740741 0.000925925925925926 0.9990740740740741 0.000925925925925926 0.9999962962962963 3.703703703703703e-006 0.9990740740740741 0.000925925925925926 0.9990740740740741 0.000925925925925926 0.9988834422657953 0.001116557734204793 0.9698529411764706 0.03014705882352941 0.9698529411764706 0.03014705882352941 0.9997588235294117 0.0002411764705882352 0.1212316176470589 0.8787683823529412 0.9962316176470589 0.003768382352941177 0.9999121077002229 8.789229977705366e-005 0.9988834422657953 0.001116557734204793 0.9999890134625278 1.098653747213171e-005 0.9698529411764706 0.03014705882352941 0.9962316176470589 0.003768382352941177 0.9698529411764706 0.03014705882352941 0.9698529411764706 0.03014705882352941 0.9962316176470589 0.003768382352941177 0.9988834422657953 0.001116557734204793 0.9999996784894364 3.21510563733733e-007 0.9999997346511238 2.653488762295309e-007 0.9943491303318159 0.00565086966818409 0.5183092270493265 0.4816907729506735 0.999790708530808 0.0002092914691920033 0.9943491303318159 0.00565086966818409 0.999293641291477 0.0007063587085230115 0.999790708530808 0.0002092914691920033 0.9999999727860414 2.72139586998261e-008 0.9999835251613172 1.647483868275244e-005 0.9999835251613172 1.647483868275244e-005 0.999293641291477 0.0007063587085230115 0.99999997740077 2.259923001749306e-008 0.999293641291477 0.0007063587085230115 0.999790708530808 0.0002092914691920033 0.999999925492237 7.450776303235323e-008 0.9999813730592418 1.86269407580883e-005 0.995976580796253 0.004023419203747073 0.9705888274421176 0.0294111725578823 0.9994970725995316 0.000502927400468384 0.9999959765807962 4.023419203747074e-006 0.9999999896894625 1.031053754701678e-008 0.9999921417593677 7.858240632318503e-006 0.9999999856927799 1.430722008615113e-008 0.995976580796253 0.004023419203747073 0.9999882699148579 1.173008514211975e-005 0.9998509844739353 0.0001490155260647064 0.9999998880424298 1.119575702965488e-007 0.995976580796253 0.004023419203747073 0.9999991810667201 8.189332798182524e-007 0.9999718558486545 2.81441513455902e-005 0.9999897433850782 1.025661492186231e-005 0.9718558486544098 0.0281441513455902 0.9989576240242375 0.001042375975762601 0.8337371890631324 0.1662628109368676 0.9964819810818013 0.003518018918198776 0.9999179470806252 8.205291937489854e-005 0.9999942714937216 5.72850627836153e-006 0.947368833861809 0.05263116613819089 0.9997748467892353 0.0002251532107647216 0.9989576240242375 0.001042375975762601 0.9718558486544098 0.0281441513455902 0.9999613934823792 3.860651762083704e-005 0.9964819810818013 0.003518018918198776 0.9964819810818013 0.003518018918198776 0.9994901079136691 0.0005098920863309354 0.9920329361510791 0.007967063848920866 0.9362634892086331 0.06373651079136691 0.9994901079136691 0.0005098920863309354 0.9362634892086331 0.06373651079136691 0.9990041170188849 0.000995882981115108 0.9990041170188849 0.000995882981115108 0.9997450539568346 0.0002549460431654677 0.9995020585094425 0.000497941490557554 0.9362634892086331 0.06373651079136691 0.05851646807553958 0.9414835319244604 0.9362634892086331 0.06373651079136691 0.6708791170188849 0.3291208829811151 0.9362634892086331 0.06373651079136691 0.9998524617805755 0.0001475382194244604 0.9995351100319883 0.0004648899680117162 0.9984309963579605 0.001569003642039543 0.8995837669094693 0.1004162330905307 0.8995837669094693 0.1004162330905307 0.8995837669094693 0.1004162330905307 0.8995837669094693 0.1004162330905307 0.9962808802559062 0.00371911974409373 0.9984309963579605 0.001569003642039543 0.8571554322272325 0.1428445677727676 0.8995837669094693 0.1004162330905307 0.1124479708636837 0.8875520291363164 0.8995837669094693 0.1004162330905307 0.9962808802559062 0.00371911974409373 0.8995837669094693 0.1004162330905307 0.8995837669094693 0.1004162330905307 0.8870967741935484 0.1129032258064516 0.8870967741935484 0.1129032258064516 0.8870967741935484 0.1129032258064516 0.8870967741935484 0.1129032258064516 0.8870967741935484 0.1129032258064516 0.8870967741935484 0.1129032258064516 0.8870967741935484 0.1129032258064516 0.8870967741935484 0.1129032258064516 0.8870967741935484 0.1129032258064516 0.8870967741935484 0.1129032258064516 0.8870967741935484 0.1129032258064516 0.8870967741935484 0.1129032258064516 0.8870967741935484 0.1129032258064516 0.8870967741935484 0.1129032258064516 0.8870967741935484 0.1129032258064516 0.7548076923076924 0.2451923076923077 0.7548076923076924 0.2451923076923077 0.7548076923076924 0.2451923076923077 0.7548076923076924 0.2451923076923077 0.7548076923076924 0.2451923076923077 0.7548076923076924 0.2451923076923077 0.7548076923076924 0.2451923076923077 0.7548076923076924 0.2451923076923077 0.7548076923076924 0.2451923076923077 0.7548076923076924 0.2451923076923077 0.7548076923076924 0.2451923076923077 0.7548076923076924 0.2451923076923077 0.7548076923076924 0.2451923076923077 0.7548076923076924 0.2451923076923077 0.7548076923076924 0.2451923076923077 0.9980580621301775 0.001941937869822485 0.9992922966946711 0.0007077033053288941 0.9696572207840237 0.03034277921597633 0.7714282676990371 0.228571732300963 0.7998021192882971 0.2001978807117028 0.9980580621301775 0.001941937869822485 0.5020580621301776 0.4979419378698225 0.8887572577662722 0.1112427422337278 0.8569477690747503 0.1430522309252496 0.7572577662721894 0.2427422337278108 0.339957152598003 0.660042847401997 0.9910095468989699 0.008990453101030024 0.202579897066075 0.797420102933925 0.9696572207840237 0.03034277921597633 0.6470777190957257 0.3529222809042743 0.9999800701530612 1.992984693877552e-005 0.9999897959183675 1.020408163265307e-005 0.9987244897959184 0.001275510204081633 0.9987244897959184 0.001275510204081633 0.9999527588813303 4.72411186696901e-005 0.9987244897959184 0.001275510204081633 0.9987244897959184 0.001275510204081633 0.9999940948601662 5.905139833711263e-006 0.999999041690305 9.583096950275228e-007 0.9998405612244898 0.0001594387755102042 0.9999527588813303 4.72411186696901e-005 0.9987244897959184 0.001275510204081633 0.9999962813113583 3.718688641637413e-006 0.9987244897959184 0.001275510204081633 0.9999527588813303 4.72411186696901e-005 0.9999119054506642 8.809454933583598e-005 0.995986192095886 0.004013807904114028 0.9357790735341756 0.06422092646582442 0.9091063536305174 0.09089364636948252 0.833632008960741 0.166367991039259 0.9998513404479958 0.0001486595520042232 0.9999119054506642 8.809454933583598e-005 0.9994862325882734 0.0005137674117265955 0.9994862325882734 0.0005137674117265955 0.9357790735341756 0.06422092646582442 0.991972384191772 0.008027615808228056 0.9357790735341756 0.06422092646582442 0.7514862325882734 0.2485137674117266 0.991972384191772 0.008027615808228056 0.8889357790735343 0.1110642209264658 0.1028645833333334 0.8971354166666666 0.9778645833333335 0.02213541666666666 0.8229166666666666 0.1770833333333333 0.8229166666666666 0.1770833333333333 0.8229166666666666 0.1770833333333333 0.8229166666666666 0.1770833333333333 0.8229166666666666 0.1770833333333333 0.9778645833333335 0.02213541666666666 0.9934413580246915 0.006558641975308642 0.8229166666666666 0.1770833333333333 0.8229166666666666 0.1770833333333333 0.8229166666666666 0.1770833333333333 0.8229166666666666 0.1770833333333333 0.8229166666666666 0.1770833333333333 0.8229166666666666 0.1770833333333333 0.9999486019736842 5.139802631578948e-005 0.9995888157894737 0.0004111842105263159 0.9967105263157894 0.003289473684210526 0.9999736842105262 2.631578947368422e-005 0.9967105263157894 0.003289473684210526 0.9967105263157894 0.003289473684210526 0.9967105263157894 0.003289473684210526 0.9999486019736842 5.139802631578948e-005 0.9995888157894737 0.0004111842105263159 0.9967105263157894 0.003289473684210526 0.9967105263157894 0.003289473684210526 0.9967105263157894 0.003289473684210526 0.9999486019736842 5.139802631578948e-005 0.9967105263157894 0.003289473684210526 0.9999486019736842 5.139802631578948e-005 0.9999999274594335 7.254056649830001e-008 0.9999999602689158 3.973108413017334e-008 0.9999471179270228 5.288207297726071e-005 0.9999471179270228 5.288207297726071e-005 0.9999471179270228 5.288207297726071e-005 0.9999933897408779 6.61025912215759e-006 0.9999933897408779 6.61025912215759e-006 0.9999933897408779 6.61025912215759e-006 0.9999999922901192 7.709880883111342e-009 0.9999471179270228 5.288207297726071e-005 0.9999933897408779 6.61025912215759e-006 0.9999471179270228 5.288207297726071e-005 0.9999999942898096 5.710190365755395e-009 0.9999471179270228 5.288207297726071e-005 0.9999471179270228 5.288207297726071e-005 0.9999999336799661 6.632003395585739e-008 0.9999998427969565 1.572030434509212e-007 0.9999660441426146 3.395585738539898e-005 0.9999999010033311 9.899666876209613e-008 0.9999660441426146 3.395585738539898e-005 0.9999999010033311 9.899666876209613e-008 0.9999999990833642 9.16635821871261e-010 0.9999999010033311 9.899666876209613e-008 0.999999998453177 1.546822949407752e-009 0.9999957555178268 4.244482173174873e-006 0.9999994694397284 5.305602716468593e-007 0.999999728353141 2.716468590831918e-007 0.9999998427969565 1.572030434509212e-007 0.9999660441426146 3.395585738539898e-005 0.999999728353141 2.716468590831918e-007 0.9999925807217474 7.419278252611587e-006 0.9999962013295347 3.798670465337134e-006 0.9995251661918329 0.0004748338081671416 0.9995251661918329 0.0004748338081671416 0.9995251661918329 0.0004748338081671416 0.9995251661918329 0.0004748338081671416 0.9999824135626604 1.758643733952376e-005 0.9999978016953325 2.19830466744047e-006 0.9999995251661918 4.748338081671416e-007 0.9999406457739791 5.93542260208927e-005 0.9995251661918329 0.0004748338081671416 0.9995251661918329 0.0004748338081671416 0.9999824135626604 1.758643733952376e-005 0.9995251661918329 0.0004748338081671416 0.9995251661918329 0.0004748338081671416 0.9990138067061145 0.0009861932938856018 0.9998767258382644 0.0001232741617357003 0.9990138067061145 0.0009861932938856018 0.9998767258382644 0.0001232741617357003 0.9990138067061145 0.0009861932938856018 0.9990138067061145 0.0009861932938856018 0.9999845907297831 1.540927021696253e-005 0.9998767258382644 0.0001232741617357003 0.9999634743224487 3.65256775513186e-005 0.9990138067061145 0.0009861932938856018 0.9990138067061145 0.0009861932938856018 0.9990138067061145 0.0009861932938856018 0.9990138067061145 0.0009861932938856018 0.9990138067061145 0.0009861932938856018 0.999992110453649 7.889546351084813e-006 0.6692564058171745 0.3307435941828255 0.8001500461680516 0.1998499538319483 0.8324099722991689 0.167590027700831 0.9790512465373962 0.02094875346260388 0.8324099722991689 0.167590027700831 0.8324099722991689 0.167590027700831 0.8324099722991689 0.167590027700831 0.8324099722991689 0.167590027700831 0.9992241202421257 0.0007758797578742176 0.9790512465373962 0.02094875346260388 0.8324099722991689 0.167590027700831 0.8324099722991689 0.167590027700831 0.9937929619370062 0.00620703806299374 0.1040512465373962 0.8959487534626038 0.8324099722991689 0.167590027700831 0.8157894736842105 0.1842105263157895 0.8157894736842105 0.1842105263157895 0.8157894736842105 0.1842105263157895 0.8157894736842105 0.1842105263157895 0.8157894736842105 0.1842105263157895 0.8157894736842105 0.1842105263157895 0.8157894736842105 0.1842105263157895 0.8157894736842105 0.1842105263157895 0.8157894736842105 0.1842105263157895 0.8157894736842105 0.1842105263157895 0.8157894736842105 0.1842105263157895 0.8157894736842105 0.1842105263157895 0.8157894736842105 0.1842105263157895 0.8157894736842105 0.1842105263157895 0.8157894736842105 0.1842105263157895 0.9084507042253521 0.09154929577464789 0.9084507042253521 0.09154929577464789 0.9084507042253521 0.09154929577464789 0.9084507042253521 0.09154929577464789 0.9084507042253521 0.09154929577464789 0.9084507042253521 0.09154929577464789 0.9084507042253521 0.09154929577464789 0.9084507042253521 0.09154929577464789 0.9084507042253521 0.09154929577464789 0.9084507042253521 0.09154929577464789 0.9084507042253521 0.09154929577464789 0.9084507042253521 0.09154929577464789 0.9084507042253521 0.09154929577464789 0.9084507042253521 0.09154929577464789 0.9084507042253521 0.09154929577464789 0.9996027941252104 0.0003972058747896875 0.9142035310454276 0.08579646895457251 0.9142035310454276 0.08579646895457251 0.8333701427087144 0.1666298572912857 0.03385939003871953 0.9661406099612805 0.8750537771344931 0.124946222865507 0.9998823093704328 0.0001176906295673148 0.9090938677841698 0.09090613221583019 0.9999503492656513 4.965073434871094e-005 0.9142035310454276 0.08579646895457251 0.9968223530016824 0.0031776469983175 0.9142035310454276 0.08579646895457251 0.9993136282483635 0.0006863717516365801 0.9142035310454276 0.08579646895457251 0.9998324287715731 0.0001675712284268994 0.999982709133036 1.729086696406958e-005 0.99953314659197 0.0004668534080298785 0.99953314659197 0.0004668534080298785 0.9999416433239963 5.835667600373485e-005 0.99953314659197 0.0004668534080298785 0.99953314659197 0.0004668534080298785 0.9999416433239963 5.835667600373485e-005 0.9999927054154996 7.294584500466853e-006 0.9999981325863678 1.867413632119514e-006 0.9999995331465921 4.668534080298786e-007 0.99953314659197 0.0004668534080298785 0.99953314659197 0.0004668534080298785 0.99953314659197 0.0004668534080298785 0.99953314659197 0.0004668534080298785 0.99953314659197 0.0004668534080298785 0.9999882868320565 1.171316794340197e-005 0.9996837444655282 0.0003162555344718533 0.9996837444655282 0.0003162555344718533 0.9999993823134092 6.176865907653385e-007 0.9999941434160282 5.856583971700985e-006 0.9999993823134092 6.176865907653385e-007 0.9999950585072739 4.941492726122707e-006 0.9999882868320565 1.171316794340197e-005 0.9999990779722028 9.22027797294033e-007 0.9996837444655282 0.0003162555344718533 0.9996837444655282 0.0003162555344718533 0.9996837444655282 0.0003162555344718533 0.9996837444655282 0.0003162555344718533 0.9996837444655282 0.0003162555344718533 0.9999604680581911 3.953194180898167e-005 0.9963235294117647 0.003676470588235294 0.9963235294117647 0.003676470588235294 0.9963235294117647 0.003676470588235294 0.9995404411764706 0.0004595588235294118 0.9963235294117647 0.003676470588235294 0.9963235294117647 0.003676470588235294 0.9963235294117647 0.003676470588235294 0.9963235294117647 0.003676470588235294 0.9999829793028323 1.702069716775599e-005 0.9995404411764706 0.0004595588235294118 0.9963235294117647 0.003676470588235294 0.9963235294117647 0.003676470588235294 0.9963235294117647 0.003676470588235294 0.9963235294117647 0.003676470588235294 0.9963235294117647 0.003676470588235294 0.9970588235294118 0.002941176470588235 0.9970588235294118 0.002941176470588235 0.9970588235294118 0.002941176470588235 0.9970588235294118 0.002941176470588235 0.9970588235294118 0.002941176470588235 0.9996323529411765 0.0003676470588235294 0.9998910675381263 0.0001089324618736383 0.9996323529411765 0.0003676470588235294 0.9998910675381263 0.0001089324618736383 0.9970588235294118 0.002941176470588235 0.9970588235294118 0.002941176470588235 0.9996323529411765 0.0003676470588235294 0.9998910675381263 0.0001089324618736383 0.9970588235294118 0.002941176470588235 0.9970588235294118 0.002941176470588235 0.9900000000000001 0.01 0.9900000000000001 0.01 0.9900000000000001 0.01 0.9900000000000001 0.01 0.9900000000000001 0.01 0.9900000000000001 0.01 0.9900000000000001 0.01 0.99875 0.00125 0.9996296296296295 0.0003703703703703703 0.9900000000000001 0.01 0.9900000000000001 0.01 0.9900000000000001 0.01 0.99875 0.00125 0.9900000000000001 0.01 0.9900000000000001 0.01 0.9989583333333334 0.001041666666666666 0.9916666666666667 0.008333333333333333 0.9916666666666667 0.008333333333333333 0.9916666666666667 0.008333333333333333 0.9916666666666667 0.008333333333333333 0.9916666666666667 0.008333333333333333 0.9916666666666667 0.008333333333333333 0.9989583333333334 0.001041666666666666 0.9996913580246913 0.0003086419753086419 0.9916666666666667 0.008333333333333333 0.9916666666666667 0.008333333333333333 0.9916666666666667 0.008333333333333333 0.9989583333333334 0.001041666666666666 0.9916666666666667 0.008333333333333333 0.9916666666666667 0.008333333333333333 0.9997395833333334 0.0002604166666666667 0.9979166666666666 0.002083333333333332 0.9979166666666666 0.002083333333333332 0.9979166666666666 0.002083333333333332 0.9979166666666666 0.002083333333333332 0.9979166666666666 0.002083333333333332 0.9979166666666666 0.002083333333333332 0.9999228395061728 7.716049382716047e-005 0.9999903549382716 9.64506172839506e-006 0.9997395833333334 0.0002604166666666667 0.9999228395061728 7.716049382716047e-005 0.9979166666666666 0.002083333333333332 0.9979166666666666 0.002083333333333332 0.9979166666666666 0.002083333333333332 0.9979166666666666 0.002083333333333332 0.9998263888888889 0.0001736111111111111 0.9972222222222221 0.002777777777777778 0.9972222222222221 0.002777777777777778 0.9998971193415638 0.000102880658436214 0.9972222222222221 0.002777777777777778 0.9998971193415638 0.000102880658436214 0.9998971193415638 0.000102880658436214 0.9996527777777777 0.0003472222222222223 0.9972222222222221 0.002777777777777778 0.9972222222222221 0.002777777777777778 0.9972222222222221 0.002777777777777778 0.9972222222222221 0.002777777777777778 0.9972222222222221 0.002777777777777778 0.9972222222222221 0.002777777777777778 0.9972222222222221 0.002777777777777778 0.9800000000000001 0.02 0.9800000000000001 0.02 0.9800000000000001 0.02 0.9800000000000001 0.02 0.9800000000000001 0.02 0.9800000000000001 0.02 0.9800000000000001 0.02 0.99875 0.00125 0.9996875000000001 0.0003125 0.9800000000000001 0.02 0.9800000000000001 0.02 0.9800000000000001 0.02 0.9800000000000001 0.02 0.9800000000000001 0.02 0.9800000000000001 0.02 0.9 0.1 0.9 0.1 0.9 0.1 0.9 0.1 0.9 0.1 0.9 0.1 0.9 0.1 0.9 0.1 0.9 0.1 0.9 0.1 0.9 0.1 0.9 0.1 0.9 0.1 0.9 0.1 0.9 0.1 0.91 0.09000000000000001 0.91 0.09000000000000001 0.91 0.09000000000000001 0.91 0.09000000000000001 0.91 0.09000000000000001 0.91 0.09000000000000001 0.91 0.09000000000000001 0.91 0.09000000000000001 0.91 0.09000000000000001 0.91 0.09000000000000001 0.91 0.09000000000000001 0.91 0.09000000000000001 0.91 0.09000000000000001 0.91 0.09000000000000001 0.91 0.09000000000000001 0.8823581504343849 0.117641849565615 0.9967679012345678 0.003232098765432098 0.9127333333333334 0.08726666666666667 0.8750024149333333 0.1249975850666667 0.1140916666666667 0.8859083333333333 0.9999850365797898 1.496342021033379e-005 0.9374949589524391 0.06250504104756088 0.9772710090134518 0.02272899098654831 0.9999950348960704 4.965103929600973e-006 0.9127333333333334 0.08726666666666667 0.9890916666666667 0.01090833333333334 0.9890916666666667 0.01090833333333334 0.5012033041788143 0.4987966958211856 0.9127333333333334 0.08726666666666667 0.9411790752171926 0.05882092478280751 0.9999599871959028 4.001280409731116e-005 0.9999599871959028 4.001280409731116e-005 0.9996798975672215 0.0003201024327784892 0.9999599871959028 4.001280409731116e-005 0.9996798975672215 0.0003201024327784892 0.9996798975672215 0.0003201024327784892 0.9999599871959028 4.001280409731116e-005 0.999999374799936 6.252000640204867e-007 0.9999949983994878 5.001600512163895e-006 0.9999985180442926 1.48195570730782e-006 0.9996798975672215 0.0003201024327784892 0.9996798975672215 0.0003201024327784892 0.9999599871959028 4.001280409731116e-005 0.9999599871959028 4.001280409731116e-005 0.9996798975672215 0.0003201024327784892 0.9999977992957747 2.200704225352112e-006 0.9998591549295774 0.0001408450704225352 0.9998591549295774 0.0001408450704225352 0.9999998067968856 1.932031144342047e-007 0.9998591549295774 0.0001408450704225352 0.9999995893729725 4.10627027470948e-007 0.999999894181014 1.058189860424757e-007 0.9999995893729725 4.10627027470948e-007 0.9999998067968856 1.932031144342047e-007 0.9998591549295774 0.0001408450704225352 0.9998591549295774 0.0001408450704225352 0.9998591549295774 0.0001408450704225352 0.9999823943661972 1.76056338028169e-005 0.9998591549295774 0.0001408450704225352 0.9999997249119719 2.75088028169014e-007 0.9973867595818815 0.002613240418118467 0.9996733449477352 0.0003266550522648084 0.9973867595818815 0.002613240418118467 0.9996733449477352 0.0003266550522648084 0.9973867595818815 0.002613240418118467 0.9996733449477352 0.0003266550522648084 0.9973867595818815 0.002613240418118467 0.9999032133178474 9.678668215253578e-005 0.9999923812232707 7.618776729208359e-006 0.9999032133178474 9.678668215253578e-005 0.9973867595818815 0.002613240418118467 0.9973867595818815 0.002613240418118467 0.9973867595818815 0.002613240418118467 0.9973867595818815 0.002613240418118467 0.9973867595818815 0.002613240418118467 0.9629790940766551 0.03702090592334495 0.9953723867595818 0.004627613240418119 0.9629790940766551 0.03702090592334495 0.9998920673296695 0.0001079326703304517 0.9629790940766551 0.03702090592334495 0.9998286069170216 0.0001713930829784489 0.8337113093121769 0.1662886906878232 0.9994215483449478 0.0005784516550522647 0.9998286069170216 0.0001713930829784489 0.9629790940766551 0.03702090592334495 0.9629790940766551 0.03702090592334495 0.9629790940766551 0.03702090592334495 0.9629790940766551 0.03702090592334495 0.9629790940766551 0.03702090592334495 0.9953723867595818 0.004627613240418119 0.99609375 0.00390625 0.99951171875 0.00048828125 0.99609375 0.00390625 0.99609375 0.00390625 0.99609375 0.00390625 0.99609375 0.00390625 0.99609375 0.00390625 0.99993896484375 6.103515625e-005 0.99951171875 0.00048828125 0.99951171875 0.00048828125 0.99609375 0.00390625 0.99609375 0.00390625 0.99951171875 0.00048828125 0.99609375 0.00390625 0.99609375 0.00390625 0.9965277777777777 0.003472222222222222 0.9965277777777777 0.003472222222222222 0.9965277777777777 0.003472222222222222 0.9995659722222222 0.0004340277777777779 0.9965277777777777 0.003472222222222222 0.9995659722222222 0.0004340277777777779 0.9999457465277778 5.425347222222223e-005 0.9995659722222222 0.0004340277777777779 0.9998713991769548 0.0001286008230452675 0.9965277777777777 0.003472222222222222 0.9965277777777777 0.003472222222222222 0.9965277777777777 0.003472222222222222 0.9965277777777777 0.003472222222222222 0.9965277777777777 0.003472222222222222 0.9965277777777777 0.003472222222222222 0.9999983225979602 1.67740203972088e-006 0.9996376811594203 0.0003623188405797102 0.9996376811594203 0.0003623188405797102 0.9996376811594203 0.0003623188405797102 0.9996376811594203 0.0003623188405797102 0.9996376811594203 0.0003623188405797102 0.9999547101449275 4.528985507246378e-005 0.9999989436768496 1.056323150378164e-006 0.9999997277844925 2.722155075730355e-007 0.9999983225979602 1.67740203972088e-006 0.9996376811594203 0.0003623188405797102 0.9996376811594203 0.0003623188405797102 0.9999865807836823 1.341921631776705e-005 0.9996376811594203 0.0003623188405797102 0.9996376811594203 0.0003623188405797102 0.9993606138107417 0.000639386189258312 0.9993606138107417 0.000639386189258312 0.9993606138107417 0.000639386189258312 0.9999200767263428 7.9923273657289e-005 0.9993606138107417 0.000639386189258312 0.9999970398787533 2.960121246566258e-006 0.9999900095907929 9.990409207161124e-006 0.9999200767263428 7.9923273657289e-005 0.9999900095907929 9.990409207161124e-006 0.9993606138107417 0.000639386189258312 0.9993606138107417 0.000639386189258312 0.9993606138107417 0.000639386189258312 0.9993606138107417 0.000639386189258312 0.9993606138107417 0.000639386189258312 0.9999900095907929 9.990409207161124e-006 0.9988444444444445 0.001155555555555555 0.8555555555555556 0.1444444444444444 0.8555555555555556 0.1444444444444444 0.9819444444444445 0.01805555555555555 0.8555555555555556 0.1444444444444444 0.9819444444444445 0.01805555555555555 0.8555555555555556 0.1444444444444444 0.6011831275720164 0.3988168724279835 0.9819444444444445 0.01805555555555555 0.9819444444444445 0.01805555555555555 0.8555555555555556 0.1444444444444444 0.8555555555555556 0.1444444444444444 0.9819444444444445 0.01805555555555555 0.8555555555555556 0.1444444444444444 0.8555555555555556 0.1444444444444444 0.8333333333333334 0.1666666666666667 0.8333333333333334 0.1666666666666667 0.8333333333333334 0.1666666666666667 0.8333333333333334 0.1666666666666667 0.8333333333333334 0.1666666666666667 0.8333333333333334 0.1666666666666667 0.8333333333333334 0.1666666666666667 0.8333333333333334 0.1666666666666667 0.8333333333333334 0.1666666666666667 0.8333333333333334 0.1666666666666667 0.8333333333333334 0.1666666666666667 0.8333333333333334 0.1666666666666667 0.8333333333333334 0.1666666666666667 0.8333333333333334 0.1666666666666667 0.8333333333333334 0.1666666666666667 0.8967065868263474 0.1032934131736527 0.8967065868263474 0.1032934131736527 0.8967065868263474 0.1032934131736527 0.8967065868263474 0.1032934131736527 0.8967065868263474 0.1032934131736527 0.8967065868263474 0.1032934131736527 0.8967065868263474 0.1032934131736527 0.8967065868263474 0.1032934131736527 0.8967065868263474 0.1032934131736527 0.8967065868263474 0.1032934131736527 0.8967065868263474 0.1032934131736527 0.8967065868263474 0.1032934131736527 0.8967065868263474 0.1032934131736527 0.8967065868263474 0.1032934131736527 0.8967065868263474 0.1032934131736527 0.9655166276727981 0.03448337232720188 0.9995272885698994 0.000472711430100544 0.8978943310982824 0.1021056689017175 0.954022981057425 0.04597701894257497 0.8333615593665893 0.1666384406334109 0.9090907862203687 0.09090921377963131 0.9999889746605224 1.102533947756371e-005 0.8684215494922555 0.1315784505077446 0.9999792172463053 2.078275369463007e-005 0.8978943310982824 0.1021056689017175 0.9997023158341057 0.0002976841658942201 0.9998005748654264 0.000199425134573667 0.7647287198784462 0.2352712801215538 0.9962183085591956 0.003781691440804353 0.9361703282982996 0.0638296717017004 0.999999816813216 1.831867839062084e-007 0.9999771016520117 2.289834798827605e-005 0.9993817446043165 0.0006182553956834533 0.9999771016520117 2.289834798827605e-005 0.9993817446043165 0.0006182553956834533 0.9993817446043165 0.0006182553956834533 0.9999903397594425 9.660240557553958e-006 0.9999999084066081 9.159339195310422e-008 0.9999999491858802 5.081411980631652e-008 0.9999903397594425 9.660240557553958e-006 0.9993817446043165 0.0006182553956834533 0.9999227180755396 7.728192446043165e-005 0.9999771016520117 2.289834798827605e-005 0.9993817446043165 0.0006182553956834533 0.9993817446043165 0.0006182553956834533 0.9999919055041739 8.09449582603654e-006 0.5160625885256707 0.4839374114743293 0.9336898901931088 0.06631010980689134 0.9999803525600571 1.964743994278262e-005 0.6708389045342673 0.3291610954657327 0.8572923630667835 0.1427076369332166 0.999933689890193 6.631010980689134e-005 0.9998066760647029 0.0001933239352970593 0.8750805073939548 0.1249194926060451 0.9336898901931088 0.06631010980689134 0.9336898901931088 0.06631010980689134 0.9917112362741386 0.008288763725861416 0.9917112362741386 0.008288763725861416 0.9336898901931088 0.06631010980689134 0.9444668449450966 0.05553315505490345 0.9998851102941176 0.000114889705882353 0.9990808823529412 0.0009191176470588237 0.9990808823529412 0.0009191176470588237 0.9990808823529412 0.0009191176470588237 0.9990808823529412 0.0009191176470588237 0.9999659586056644 3.4041394335512e-005 0.9998851102941176 0.000114889705882353 0.9999856387867647 1.436121323529412e-005 0.9999982048483456 1.795151654411765e-006 0.9990808823529412 0.0009191176470588237 0.9990808823529412 0.0009191176470588237 0.9990808823529412 0.0009191176470588237 0.9998851102941176 0.000114889705882353 0.9990808823529412 0.0009191176470588237 0.9990808823529412 0.0009191176470588237 0.9999032507739938 9.6749226006192e-005 0.9992260061919506 0.000773993808049536 0.9992260061919506 0.000773993808049536 0.9999032507739938 9.6749226006192e-005 0.9992260061919506 0.000773993808049536 0.9999713335626648 2.866643733516799e-005 0.9999938080495356 6.19195046439629e-006 0.9999032507739938 9.6749226006192e-005 0.9999938080495356 6.19195046439629e-006 0.9992260061919506 0.000773993808049536 0.9999713335626648 2.866643733516799e-005 0.9992260061919506 0.000773993808049536 0.9999879063467494 1.2093653250774e-005 0.9992260061919506 0.000773993808049536 0.9992260061919506 0.000773993808049536 0.9999038461538463 9.615384615384618e-005 0.9992307692307693 0.0007692307692307693 0.9992307692307693 0.0007692307692307693 0.9992307692307693 0.0007692307692307693 0.9992307692307693 0.0007692307692307693 0.9999038461538463 9.615384615384618e-005 0.9992307692307693 0.0007692307692307693 0.9999938461538462 6.153846153846154e-006 0.9999938461538462 6.153846153846154e-006 0.99997150997151 2.849002849002849e-005 0.9992307692307693 0.0007692307692307693 0.9992307692307693 0.0007692307692307693 0.9992307692307693 0.0007692307692307693 0.9992307692307693 0.0007692307692307693 0.9992307692307693 0.0007692307692307693 0.9999978947368421 2.105263157894738e-006 0.9999902534113061 9.746588693957114e-006 0.9997368421052632 0.0002631578947368421 0.9999992327758172 7.672241829062451e-007 0.9997368421052632 0.0002631578947368421 0.9999987816764132 1.218323586744639e-006 0.9999987816764132 1.218323586744639e-006 0.9999992327758172 7.672241829062451e-007 0.9999992327758172 7.672241829062451e-007 0.9997368421052632 0.0002631578947368421 0.9997368421052632 0.0002631578947368421 0.9997368421052632 0.0002631578947368421 0.9999958881578948 4.111842105263158e-006 0.9997368421052632 0.0002631578947368421 0.9997368421052632 0.0002631578947368421 0.9999996137451119 3.862548880556086e-007 0.9998675145733968 0.0001324854266030737 0.9998675145733968 0.0001324854266030737 0.9999834393216747 1.656067832538422e-005 0.9998675145733968 0.0001324854266030737 0.9999989401165872 1.05988341282459e-006 0.9998675145733968 0.0001324854266030737 0.9999999004617381 9.95382619106489e-008 0.9999999958525724 4.147427579610372e-009 0.9999979299152093 2.070084790673027e-006 0.9998675145733968 0.0001324854266030737 0.9998675145733968 0.0001324854266030737 0.999995093132348 4.906867651965694e-006 0.9999979299152093 2.070084790673027e-006 0.9998675145733968 0.0001324854266030737 0.9999648085585586 3.519144144144144e-005 0.9997184684684686 0.0002815315315315315 0.9997184684684686 0.0002815315315315315 0.9999986966132799 1.303386720053386e-006 0.9997184684684686 0.0002815315315315315 0.9999986966132799 1.303386720053386e-006 0.9999977477477477 2.252252252252252e-006 0.9999956010698199 4.39893018018018e-006 0.9999648085585586 3.519144144144144e-005 0.9997184684684686 0.0002815315315315315 0.9997184684684686 0.0002815315315315315 0.9997184684684686 0.0002815315315315315 0.9997184684684686 0.0002815315315315315 0.9997184684684686 0.0002815315315315315 0.9999977477477477 2.252252252252252e-006 0.9936224489795918 0.006377551020408165 0.9489795918367348 0.05102040816326531 0.9489795918367348 0.05102040816326531 0.9489795918367348 0.05102040816326531 0.9936224489795918 0.006377551020408165 0.9489795918367348 0.05102040816326531 0.9489795918367348 0.05102040816326531 0.8751014809215867 0.1248985190784132 0.9999489795918368 5.10204081632653e-005 0.9489795918367348 0.05102040816326531 0.9936224489795918 0.006377551020408165 0.9489795918367348 0.05102040816326531 0.9489795918367348 0.05102040816326531 0.9489795918367348 0.05102040816326531 0.9489795918367348 0.05102040816326531 0.9285714285714285 0.07142857142857143 0.9285714285714285 0.07142857142857143 0.9285714285714285 0.07142857142857143 0.9285714285714285 0.07142857142857143 0.9285714285714285 0.07142857142857143 0.9285714285714285 0.07142857142857143 0.9285714285714285 0.07142857142857143 0.9285714285714285 0.07142857142857143 0.9285714285714285 0.07142857142857143 0.9285714285714285 0.07142857142857143 0.9285714285714285 0.07142857142857143 0.9285714285714285 0.07142857142857143 0.9285714285714285 0.07142857142857143 0.9285714285714285 0.07142857142857143 0.9285714285714285 0.07142857142857143 0.9187192118226601 0.0812807881773399 0.9187192118226601 0.0812807881773399 0.9187192118226601 0.0812807881773399 0.9187192118226601 0.0812807881773399 0.9187192118226601 0.0812807881773399 0.9187192118226601 0.0812807881773399 0.9187192118226601 0.0812807881773399 0.9187192118226601 0.0812807881773399 0.9187192118226601 0.0812807881773399 0.9187192118226601 0.0812807881773399 0.9187192118226601 0.0812807881773399 0.9187192118226601 0.0812807881773399 0.9187192118226601 0.0812807881773399 0.9187192118226601 0.0812807881773399 0.9187192118226601 0.0812807881773399 0.9230760866866029 0.07692391331339703 0.6706372166881021 0.3293627833118979 0.9207818680385353 0.07921813196146474 0.9310344328381579 0.06896556716184207 0.8335882853295583 0.1664117146704416 0.9666651345053758 0.0333348654946242 0.9444409945863884 0.05555900541361153 0.939393465852535 0.06060653414746493 0.9565191537809634 0.04348084621903656 0.9207818680385353 0.07921813196146474 0.9900977335048169 0.009902266495183096 0.9970659951125384 0.002934004887461657 0.7146890270860128 0.2853109729139872 0.9900977335048169 0.009902266495183096 0.9090918699653191 0.09090813003468082 0.9999876169217687 1.238307823129252e-005 0.9996130288052721 0.000386971194727891 0.9752338435374149 0.02476615646258503 0.1219042304421769 0.8780957695578232 0.9969042304421769 0.00309576955782313 0.9752338435374149 0.02476615646258503 0.9969042304421769 0.00309576955782313 0.9998853418682288 0.000114658131771227 0.9999887272842684 1.127271573171827e-005 0.9998018707482994 0.0001981292517006803 0.9969042304421769 0.00309576955782313 0.9752338435374149 0.02476615646258503 0.9998018707482994 0.0001981292517006803 0.9752338435374149 0.02476615646258503 0.9752338435374149 0.02476615646258503 0.9998751620510235 0.0001248379489766588 0.9984140956852224 0.001585904314777554 0.9571805835010061 0.04281941649899397 0.9411792147776923 0.05882078522230778 0.9946475729376257 0.005352427062374245 0.9996574446680081 0.0003425553319919518 0.8336944040335306 0.1663055959664694 0.9999571805835011 4.281941649899398e-005 0.9999678291386183 3.217086138166339e-005 0.9571805835010061 0.04281941649899397 0.9946475729376257 0.005352427062374245 0.9946475729376257 0.005352427062374245 0.8336944040335306 0.1663055959664694 0.9571805835010061 0.04281941649899397 0.9999163683271504 8.36316728495976e-005 0.9976958525345623 0.002304147465437788 0.9976958525345623 0.002304147465437788 0.9976958525345623 0.002304147465437788 0.9976958525345623 0.002304147465437788 0.9997119815668203 0.0002880184331797235 0.9976958525345623 0.002304147465437788 0.9976958525345623 0.002304147465437788 0.9999146612049837 8.533879501621436e-005 0.9999146612049837 8.533879501621436e-005 0.9976958525345623 0.002304147465437788 0.9976958525345623 0.002304147465437788 0.9976958525345623 0.002304147465437788 0.9997119815668203 0.0002880184331797235 0.9976958525345623 0.002304147465437788 0.9976958525345623 0.002304147465437788 0.9999193548387098 8.064516129032259e-005 0.9999193548387098 8.064516129032259e-005 0.9993548387096775 0.0006451612903225806 0.9999948387096774 5.161290322580644e-006 0.9999193548387098 8.064516129032259e-005 0.9999948387096774 5.161290322580644e-006 0.9999981190632935 1.880936706479827e-006 0.9999899193548387 1.008064516129032e-005 0.9999761051373954 2.389486260454002e-005 0.9993548387096775 0.0006451612903225806 0.9993548387096775 0.0006451612903225806 0.9993548387096775 0.0006451612903225806 0.9993548387096775 0.0006451612903225806 0.9993548387096775 0.0006451612903225806 0.9999761051373954 2.389486260454002e-005 0.9999964277549154 3.572245084590763e-006 0.9992283950617283 0.000771604938271605 0.9992283950617283 0.000771604938271605 0.9999035493827162 9.645061728395068e-005 0.9992283950617283 0.000771604938271605 0.9992283950617283 0.000771604938271605 0.9999035493827162 9.645061728395068e-005 0.9999714220393232 2.857796067672611e-005 0.999998941557012 1.058442988026893e-006 0.9992283950617283 0.000771604938271605 0.9992283950617283 0.000771604938271605 0.9992283950617283 0.000771604938271605 0.9999977504229204 2.249577079509053e-006 0.9992283950617283 0.000771604938271605 0.9992283950617283 0.000771604938271605 0.9999828509139528 1.714908604725416e-005 0.9824393358876117 0.01756066411238826 0.9824393358876117 0.01756066411238826 0.999987955648757 1.204435124306464e-005 0.9824393358876117 0.01756066411238826 0.9993496050328745 0.0006503949671254909 0.9999920069803768 7.993019623299162e-006 0.999859514687101 0.000140485312899106 0.9999987198816072 1.280118392796928e-006 0.9978049169859515 0.002195083014048532 0.9824393358876117 0.01756066411238826 0.9824393358876117 0.01756066411238826 0.517868123551393 0.4821318764486071 0.9824393358876117 0.01756066411238826 0.9997256146232439 0.0002743853767560665 0.9999733451258789 2.665487412101527e-005 0.9998445487741263 0.0001554512258737611 0.9805685967657798 0.01943140323422013 0.6715713843244653 0.3284286156755347 0.9975710745957225 0.002428925404277517 0.9805685967657798 0.01943140323422013 0.9992803183987326 0.0007196816012674124 0.9999733451258789 2.665487412101527e-005 0.9999971670209601 2.832979039833814e-006 0.9998445487741263 0.0001554512258737611 0.9805685967657798 0.01943140323422013 0.9805685967657798 0.01943140323422013 0.9999100397998416 8.996020015842654e-005 0.9805685967657798 0.01943140323422013 0.9805685967657798 0.01943140323422013 0.886150234741784 0.113849765258216 0.886150234741784 0.113849765258216 0.886150234741784 0.113849765258216 0.9990892018779344 0.0009107981220657281 0.886150234741784 0.113849765258216 0.9957833420274734 0.004216657972526516 0.6700960974178404 0.3299039025821596 0.9982210974178404 0.001778902582159625 0.9990892018779344 0.0009107981220657281 0.886150234741784 0.113849765258216 0.886150234741784 0.113849765258216 0.886150234741784 0.113849765258216 0.886150234741784 0.113849765258216 0.886150234741784 0.113849765258216 0.110768779342723 0.889231220657277 0.9946816651362106 0.00531833486378941 0.9820506198347108 0.01794938016528927 0.856404958677686 0.1435950413223141 0.856404958677686 0.1435950413223141 0.5132001836547291 0.4867998163452709 0.9820506198347108 0.01794938016528927 0.856404958677686 0.1435950413223141 0.8571414159349173 0.1428585840650826 0.7508512396694216 0.2491487603305785 0.9820506198347108 0.01794938016528927 0.856404958677686 0.1435950413223141 0.9820506198347108 0.01794938016528927 0.9820506198347108 0.01794938016528927 0.9820506198347108 0.01794938016528927 0.856404958677686 0.1435950413223141 0.8409090909090909 0.1590909090909091 0.8409090909090909 0.1590909090909091 0.8409090909090909 0.1590909090909091 0.8409090909090909 0.1590909090909091 0.8409090909090909 0.1590909090909091 0.8409090909090909 0.1590909090909091 0.8409090909090909 0.1590909090909091 0.8409090909090909 0.1590909090909091 0.8409090909090909 0.1590909090909091 0.8409090909090909 0.1590909090909091 0.8409090909090909 0.1590909090909091 0.8409090909090909 0.1590909090909091 0.8409090909090909 0.1590909090909091 0.8409090909090909 0.1590909090909091 0.8409090909090909 0.1590909090909091 0.5131233595800525 0.4868766404199475 0.5131233595800525 0.4868766404199475 0.5131233595800525 0.4868766404199475 0.5131233595800525 0.4868766404199475 0.5131233595800525 0.4868766404199475 0.5131233595800525 0.4868766404199475 0.5131233595800525 0.4868766404199475 0.5131233595800525 0.4868766404199475 0.5131233595800525 0.4868766404199475 0.5131233595800525 0.4868766404199475 0.5131233595800525 0.4868766404199475 0.5131233595800525 0.4868766404199475 0.5131233595800525 0.4868766404199475 0.5131233595800525 0.4868766404199475 0.5131233595800525 0.4868766404199475 0.5999347541728726 0.4000652458271275 0.5757559830501754 0.4242440169498246 0.513157804093386 0.486842195906614 0.6065569851540905 0.3934430148459094 0.2666677526216031 0.7333322473783969 0.7496751135858619 0.250324886414138 0.9088617811366282 0.09113821886337188 0.5000026781608169 0.4999973218391831 0.7775131578040935 0.2224868421959066 0.513157804093386 0.486842195906614 0.4878052202489485 0.5121947797510515 0.5217385096791155 0.4782614903208844 0.4603176618873752 0.5396823381126248 0.4545469458020581 0.5454530541979419 0.833187600274963 0.1668123997250372 0.9000207314860742 0.09997926851392579 0.9642855161567012 0.0357144838432988 0.9275936079647933 0.0724063920352067 0.9973182817764738 0.002681718223526174 0.8636416202521546 0.1363583797478454 0.9275936079647933 0.0724063920352067 0.9275936079647933 0.0724063920352067 0.6707436501244499 0.3292563498755501 0.9333319320331945 0.06666806796680547 0.9909492009955992 0.009050799004400841 0.9062505939173544 0.09374940608264561 0.1159492009955992 0.8840507990044009 0.9999580981527574 4.190184724259647e-005 0.9999736128308909 2.638716910904034e-005 0.9275936079647933 0.0724063920352067 0.9997871344659511 0.0002128655340488461 0.9999841103435729 1.588965642703152e-005 0.8910128465669909 0.1089871534330092 0.85294206443957 0.1470579355604299 0.7777942867541284 0.2222057132458715 0.9959634387617404 0.0040365612382596 0.7511281027725359 0.2488718972274641 0.9982970757276093 0.001702924272390769 0.9998910128465671 0.0001089871534330092 0.8910128465669909 0.1089871534330092 0.7222468308567673 0.2777531691432327 0.9998504977319163 0.0001495022680836889 0.9199983507536736 0.08000164924632643 0.8999932478186078 0.1000067521813922 0.9998910128465671 0.0001089871534330092 0.9986979166666667 0.001302083333333334 0.9986979166666667 0.001302083333333334 0.9895833333333333 0.01041666666666667 0.9986979166666667 0.001302083333333334 0.9895833333333333 0.01041666666666667 0.9895833333333333 0.01041666666666667 0.9895833333333333 0.01041666666666667 0.9986979166666667 0.001302083333333334 0.9895833333333333 0.01041666666666667 0.9986979166666667 0.001302083333333334 0.9998372395833334 0.0001627604166666667 0.9895833333333333 0.01041666666666667 0.9895833333333333 0.01041666666666667 0.9895833333333333 0.01041666666666667 0.9895833333333333 0.01041666666666667 0.99786376953125 0.00213623046875 0.86328125 0.13671875 0.86328125 0.13671875 0.98291015625 0.01708984375 0.86328125 0.13671875 0.10791015625 0.89208984375 0.86328125 0.13671875 0.86328125 0.13671875 0.9949363425925926 0.005063657407407407 0.86328125 0.13671875 0.86328125 0.13671875 0.86328125 0.13671875 0.86328125 0.13671875 0.86328125 0.13671875 0.86328125 0.13671875 0.999999103248393 8.967516069788798e-007 0.9999999964129935 3.587006427915521e-009 0.9999426078971534 5.739210284664831e-005 0.9999928259871442 7.17401285583104e-006 0.9999995408631772 4.591368227731864e-007 0.9999426078971534 5.739210284664831e-005 0.9999426078971534 5.739210284664831e-005 0.9999928259871442 7.17401285583104e-006 0.9999999790845106 2.091548937560069e-008 0.9999426078971534 5.739210284664831e-005 0.9999998879060491 1.1209395087236e-007 0.9999426078971534 5.739210284664831e-005 0.9999999829949327 1.700506751011802e-008 0.999999103248393 8.967516069788798e-007 0.9999426078971534 5.739210284664831e-005 0.9999999175867285 8.241327156953106e-008 0.9999997382615541 2.617384458180478e-007 0.9999434644957034 5.653550429669833e-005 0.9999999717322479 2.826775214834916e-008 0.9999991166327453 8.833672546359113e-007 0.9999929330619629 7.06693803708729e-006 0.999999922447868 7.755213209423637e-008 0.9999995477159657 4.522840343735866e-007 0.9999999575240388 4.24759611545442e-008 0.9999434644957034 5.653550429669833e-005 0.9999995477159657 4.522840343735866e-007 0.9999929330619629 7.06693803708729e-006 0.9999999434644957 5.653550429669833e-008 0.9999995477159657 4.522840343735866e-007 0.9999979060924336 2.093907566544383e-006 0.9940680166147455 0.005931983385254415 0.9999986794705433 1.320529456605596e-006 0.9525441329179646 0.04745586708203531 0.9982423752932579 0.001757624706742048 0.8571711241875312 0.1428288758124687 0.9525441329179646 0.04745586708203531 0.9940680166147455 0.005931983385254415 0.9991211876466291 0.0008788123533710244 0.9999891998481835 1.080015181657609e-005 0.9525441329179646 0.04745586708203531 0.9047663921988089 0.09523360780119101 0.9525441329179646 0.04745586708203531 0.9166829968743369 0.0833170031256632 0.9998616447023848 0.0001383552976152633 0.9992585020768432 0.0007414979231568018 0.9781130268199234 0.02188697318007662 0.7505992337164752 0.2494007662835249 0.8249042145593871 0.175095785440613 0.3410141283524905 0.6589858716475096 0.8570798910440614 0.1429201089559387 0.9890565134099617 0.01094348659003831 0.8249042145593871 0.175095785440613 0.9972641283524905 0.002735871647509578 0.9781130268199234 0.02188697318007662 0.8249042145593871 0.175095785440613 0.9935149709096068 0.006485029090393073 0.9781130268199234 0.02188697318007662 0.9985992337164751 0.001400766283524904 0.1031130268199234 0.8968869731800766 0.8249042145593871 0.175095785440613 0.7985502052060494 0.2014497947939506 0.240000194706546 0.759999805293454 0.4868443245066622 0.5131556754933379 0.0608555405633328 0.9391444594366672 0.2941506934712803 0.7058493065287197 0.9358555405633328 0.06414445943666725 0.4868443245066622 0.5131556754933379 0.4868443245066622 0.5131556754933379 0.5712633678213021 0.428736632178698 0.4868443245066622 0.5131556754933379 0.7000326237131881 0.2999673762868119 0.4868443245066622 0.5131556754933379 0.6661424032784451 0.3338575967215549 0.9919819425704166 0.008018057429583406 0.0608555405633328 0.9391444594366672 0.4870129870129871 0.512987012987013 0.4870129870129871 0.512987012987013 0.4870129870129871 0.512987012987013 0.4870129870129871 0.512987012987013 0.4870129870129871 0.512987012987013 0.4870129870129871 0.512987012987013 0.4870129870129871 0.512987012987013 0.4870129870129871 0.512987012987013 0.4870129870129871 0.512987012987013 0.4870129870129871 0.512987012987013 0.4870129870129871 0.512987012987013 0.4870129870129871 0.512987012987013 0.4870129870129871 0.512987012987013 0.4870129870129871 0.512987012987013 0.4870129870129871 0.512987012987013 0.5552763819095478 0.4447236180904522 0.5552763819095478 0.4447236180904522 0.5552763819095478 0.4447236180904522 0.5552763819095478 0.4447236180904522 0.5552763819095478 0.4447236180904522 0.5552763819095478 0.4447236180904522 0.5552763819095478 0.4447236180904522 0.5552763819095478 0.4447236180904522 0.5552763819095478 0.4447236180904522 0.5552763819095478 0.4447236180904522 0.5552763819095478 0.4447236180904522 0.5552763819095478 0.4447236180904522 0.5552763819095478 0.4447236180904522 0.5552763819095478 0.4447236180904522 0.5552763819095478 0.4447236180904522 0.3637473200070394 0.6362526799929607 0.7241316803323024 0.2758683196676977 0.5553689721640026 0.4446310278359974 0.5588235287208824 0.4411764712791176 0.3698634714848385 0.6301365285151617 0.7567530866192623 0.2432469133807376 0.8822968739664203 0.1177031260335796 0.7941172637781011 0.205882736221899 0.7599883573607286 0.2400116426392715 0.5553689721640026 0.4446310278359974 0.4423084517351381 0.5576915482648619 0.481484847347493 0.5185151526525071 0.5799998143170587 0.4200001856829412 0.4444455840487812 0.5555544159512188 0.8846137168956656 0.1153862831043343 0.9999941018329361 5.898167063897403e-006 0.9999996400044516 3.599955483335816e-007 0.9601873723186926 0.03981262768130746 0.9999611204807801 3.887951922002682e-005 0.9999975117107699 2.488289230081716e-006 0.9985254582340257 0.00147454176597435 0.9950234215398366 0.004976578460163432 0.9996814989785495 0.0003185010214504596 0.9999981305114725 1.869488527484385e-006 0.9985254582340257 0.00147454176597435 0.8666698058934684 0.1333301941065316 0.6712529276924796 0.3287470723075204 0.9091319986609718 0.09086800133902814 0.9999918964730955 8.103526904398017e-006 0.9601873723186926 0.03981262768130746 0.9993892421236171 0.0006107578763828763 0.7501619702314147 0.2498380297685853 0.8680762987012988 0.1319237012987013 0.9729722634157558 0.02702773658424424 0.5001090596440596 0.4998909403559403 0.9998076913975238 0.000192308602476241 0.9979386921672078 0.002061307832792208 0.9999008837706246 9.9116229375433e-005 0.9999835095373376 1.649046266233766e-005 0.9835095373376623 0.01649046266233766 0.7500240334416245 0.2499759665583755 0.8000511467308048 0.1999488532691951 0.8333383986439279 0.1666616013560721 0.8999965528883168 0.1000034471116833 0.8571642115209009 0.142835788479099 0.9239999999999999 0.07600000000000001 0.9988125 0.0011875 0.9239999999999999 0.07600000000000001 0.9239999999999999 0.07600000000000001 0.9905000000000002 0.009500000000000002 0.9239999999999999 0.07600000000000001 0.9239999999999999 0.07600000000000001 0.9239999999999999 0.07600000000000001 0.9996481481481482 0.0003518518518518518 0.9239999999999999 0.07600000000000001 0.9905000000000002 0.009500000000000002 0.9239999999999999 0.07600000000000001 0.9239999999999999 0.07600000000000001 0.7513920000000001 0.248608 0.9239999999999999 0.07600000000000001 0.8054545454545454 0.1945454545454546 0.9756818181818182 0.02431818181818183 0.8054545454545454 0.1945454545454546 0.6688352272727273 0.3311647727272727 0.1006818181818182 0.8993181818181818 0.8054545454545454 0.1945454545454546 0.8054545454545454 0.1945454545454546 0.8054545454545454 0.1945454545454546 0.9756818181818182 0.02431818181818183 0.8054545454545454 0.1945454545454546 0.9927946127946128 0.007205387205387206 0.8054545454545454 0.1945454545454546 0.9927946127946128 0.007205387205387206 0.8054545454545454 0.1945454545454546 0.8054545454545454 0.1945454545454546 0.8007336989800381 0.1992663010199618 0.9642854761974533 0.03571452380254671 0.9584789796882381 0.04152102031176193 0.9948098724610299 0.005190127538970241 0.999939473731324 6.052626867603779e-005 0.9584789796882381 0.04152102031176193 0.9984621844328978 0.001537815567102294 0.9984621844328978 0.001537815567102294 0.9999688046428912 3.119535710876178e-005 0.9948098724610299 0.005190127538970241 0.8007336989800381 0.1992663010199618 0.9984621844328978 0.001537815567102294 0.9993512340576287 0.0006487659423712802 0.9999189042572036 8.109574279641002e-005 0.9584789796882381 0.04152102031176193 0.9999346122220474 6.538777795272832e-005 0.9997793162494095 0.0002206837505904581 0.9858762399622107 0.01412376003778932 0.9500038739056217 0.04999612609437833 0.9999724145311764 2.758546882380727e-005 0.9999724145311764 2.758546882380727e-005 0.9982345299952764 0.001765470004723665 0.9999346122220474 6.538777795272832e-005 0.9999346122220474 6.538777795272832e-005 0.9858762399622107 0.01412376003778932 0.9997793162494095 0.0002206837505904581 0.9997793162494095 0.0002206837505904581 0.9997793162494095 0.0002206837505904581 0.9999588228570326 4.11771429673158e-005 0.9998870099196976 0.0001129900803023145 0.9999479860505668 5.201394943330428e-005 0.9333338251837993 0.06666617481620064 0.9479860505666957 0.05201394943330427 0.7515838884045336 0.2484161115954665 0.9687510671738824 0.03124893282611779 0.9479860505666957 0.05201394943330427 0.993498256320837 0.006501743679163035 0.9991872820401047 0.0008127179598953792 0.9999975575718711 2.442428128911734e-006 0.9479860505666957 0.05201394943330427 0.9473688698903435 0.05263113010965655 0.9967491281604185 0.003250871839581517 0.9999873012818766 1.26987181233653e-005 0.999989412996248 1.05870037519447e-005 0.9479860505666957 0.05201394943330427 0.9876525719267655 0.01234742807323453 0.9876525719267655 0.01234742807323453 0.9012205754141237 0.0987794245858762 0.9444506102877071 0.05554938971229294 0.9963415027931157 0.003658497206884303 0.9012205754141237 0.0987794245858762 0.9963415027931157 0.003658497206884303 0.9992097646033131 0.0007902353966870099 0.9876525719267655 0.01234742807323453 0.9012205754141237 0.0987794245858762 0.3422065714908457 0.6577934285091543 0.9963415027931157 0.003658497206884303 0.9984565714908457 0.001543428509154316 0.9876525719267655 0.01234742807323453 0.9876525719267655 0.01234742807323453 0.5151276423313667 0.4848723576686332 0.7058336244591572 0.2941663755408427 0.4216978458049887 0.5783021541950113 0.9277122307256236 0.0722877692743764 0.1819570010681742 0.8180429989318259 0.4216978458049887 0.5783021541950113 0.9277122307256236 0.0722877692743764 0.9277122307256236 0.0722877692743764 0.785568064302544 0.2144319356974561 0.4216978458049887 0.5783021541950113 0.2500185398818491 0.7499814601181508 0.4216978458049887 0.5783021541950113 0.0527122307256236 0.9472877692743764 0.1819570010681742 0.8180429989318259 0.4970999202149996 0.5029000797850004 0.4226190476190476 0.5773809523809523 0.4226190476190476 0.5773809523809523 0.4226190476190476 0.5773809523809523 0.4226190476190476 0.5773809523809523 0.4226190476190476 0.5773809523809523 0.4226190476190476 0.5773809523809523 0.4226190476190476 0.5773809523809523 0.4226190476190476 0.5773809523809523 0.4226190476190476 0.5773809523809523 0.4226190476190476 0.5773809523809523 0.4226190476190476 0.5773809523809523 0.4226190476190476 0.5773809523809523 0.4226190476190476 0.5773809523809523 0.4226190476190476 0.5773809523809523 0.4226190476190476 0.5773809523809523 0.3235414954806902 0.6764585045193098 0.3235414954806902 0.6764585045193098 0.3235414954806902 0.6764585045193098 0.3235414954806902 0.6764585045193098 0.3235414954806902 0.6764585045193098 0.3235414954806902 0.6764585045193098 0.3235414954806902 0.6764585045193098 0.3235414954806902 0.6764585045193098 0.3235414954806902 0.6764585045193098 0.3235414954806902 0.6764585045193098 0.3235414954806902 0.6764585045193098 0.3235414954806902 0.6764585045193098 0.3235414954806902 0.6764585045193098 0.3235414954806902 0.6764585045193098 0.3235414954806902 0.6764585045193098 0.6086948206093241 0.3913051793906759 0.3870967416161271 0.6129032583838729 0.3234689981493347 0.6765310018506653 0.4609928597713532 0.5390071402286468 0.2085492230467309 0.7914507769532693 0.6199977645777126 0.3800022354222874 0.5999701402654302 0.4000298597345698 0.7631561849407285 0.2368438150592715 0.3243213612498009 0.6756786387501991 0.3234689981493347 0.6765310018506653 0.08318890813355753 0.9168110918664425 0.2698414744148184 0.7301585255851816 0.3018867927339743 0.6981132072660257 0.3170731819173891 0.682926818082611 0.5833282030481541 0.4166717969518459 0.9629619285826653 0.0370380714173348 0.9469026100557886 0.05309738994421135 0.8805124933328509 0.1194875066671492 0.9996516399222531 0.0003483600777467907 0.7908496977525429 0.2091503022474571 0.9850640616666064 0.01493593833339365 0.9850640616666064 0.01493593833339365 0.9996516399222531 0.0003483600777467907 0.9487168830077084 0.05128311699229168 0.9981330077083258 0.001866992291674206 0.7193140794602717 0.2806859205397283 0.7501790294833097 0.2498209705166902 0.8988763793038318 0.1011236206961683 0.8947366023111201 0.1052633976888799 0.9850640616666064 0.01493593833339365 0.9599903070151231 0.04000969298487699 0.9466665485540187 0.05333345144598133 0.9737045122252441 0.02629548777475593 0.9393938349742946 0.06060616502570535 0.8440860292635125 0.1559139707364875 0.93329825100044 0.06670174899956007 0.9230282930385575 0.07697170696144243 0.9998782616306725 0.0001217383693275738 0.8936160810555718 0.1063839189444281 0.9737045122252441 0.02629548777475593 0.9032258059070073 0.09677419409299276 0.6315987045122253 0.3684012954877748 0.3421052778756534 0.6578947221243466 0.9509799927319136 0.04902000726808645 0.99994864162544 5.135837456007017e-005 0.9981265911143959 0.001873408885604007 0.9999707279861624 2.927201383756261e-005 0.949417960088692 0.05058203991130821 0.949417960088692 0.05058203991130821 0.8751020822497786 0.1248979177502213 0.949417960088692 0.05058203991130821 0.9936772450110865 0.006322754988913525 0.949417960088692 0.05058203991130821 0.9992096556263859 0.0007903443736141905 0.949417960088692 0.05058203991130821 0.8889494179600886 0.1110505820399113 0.949417960088692 0.05058203991130821 0.9997658238892995 0.0002341761107005008 0.9936772450110865 0.006322754988913525 0.949417960088692 0.05058203991130821 0.9151278409090909 0.08487215909090909 0.7513210227272729 0.2486789772727273 0.9151278409090909 0.08487215909090909 0.9993210227272729 0.0006789772727272728 0.8572561090642756 0.1427438909357244 0.9151278409090909 0.08487215909090909 0.9893909801136364 0.01060901988636363 0.9986738725142046 0.001326127485795455 0.9997525593029419 0.000247440697058044 0.9893909801136364 0.01060901988636363 0.9090944026857112 0.09090559731428871 0.9151278409090909 0.08487215909090909 0.8335718012854492 0.1664281987145508 0.9986738725142046 0.001326127485795455 0.9893909801136364 0.01060901988636363 0.9999335735158806 6.642648411941112e-005 0.9923076599146425 0.007692340085357484 0.9659896401308614 0.03401035986913848 0.9987403570418838 0.00125964295811624 0.977777831376059 0.02222216862394114 0.9957487050163577 0.004251294983642312 0.9957487050163577 0.004251294983642312 0.9987403570418838 0.00125964295811624 0.9999876055539835 1.239444601644989e-005 0.9659896401308614 0.03401035986913848 0.9523809745404276 0.04761902545957235 0.9957487050163577 0.004251294983642312 0.9666666439407918 0.03333335605920813 0.9285825154489276 0.07141748455107233 0.9659896401308614 0.03401035986913848 0.9999663798715563 3.362012844360172e-005 0.9285719752518779 0.07142802474812213 0.9419044180494562 0.05809558195054378 0.8823631523350564 0.1176368476649435 0.9782605193879782 0.02173948061202191 0.8573084070665028 0.1426915929334972 0.9000314834095037 0.09996851659049628 0.9990922565320228 0.0009077434679772465 0.9999203078436894 7.969215631075963e-005 0.9419044180494562 0.05809558195054378 0.966101717371338 0.03389828262866192 0.9995352353443958 0.0004647646556043504 0.9111114274720354 0.08888857252796449 0.9999858165083129 1.418349168714448e-005 0.9997310389724512 0.0002689610275488138 0.8571627072704082 0.1428372927295918 0.9729710472758867 0.02702895272411341 0.8673061224489796 0.1326938775510204 0.9979266581632653 0.002073341836734694 0.8545455272077854 0.1454544727922146 0.8673061224489796 0.1326938775510204 0.8673061224489796 0.1326938775510204 0.9989384489795919 0.001061551020408164 0.727353765117158 0.272646234882842 0.5136039304610733 0.4863960695389267 0.8421052916419388 0.1578947083580611 0.9979266581632653 0.002073341836734694 0.7894834132653061 0.2105165867346939 0.9999396022405321 6.039775946792008e-005 0.9834132653061225 0.01658673469387755 0.9651948545375597 0.0348051454624403 0.7499609860580253 0.2500390139419746 0.7215588363004776 0.2784411636995224 0.9991882181816341 0.0008117818183659546 0.5200114678445779 0.4799885321554221 0.9896873643074251 0.0103126356925749 0.9896873643074251 0.0103126356925749 0.7215588363004776 0.2784411636995224 0.6675243568171949 0.332475643182805 0.7215588363004776 0.2784411636995224 0.8571301238576541 0.142869876142346 0.7215588363004776 0.2784411636995224 0.6666746696072752 0.3333253303927248 0.5017724706904039 0.4982275293095962 0.9956493568171949 0.004350643182805037 0.41666091124871 0.58333908875129 0.4634127893621247 0.5365872106378753 0.3267382610939112 0.6732617389060888 0.3332302853295924 0.6667697146704077 0.1338028961149974 0.8661971038850026 0.915842282636739 0.0841577173632611 0.04084228263673891 0.9591577173632611 0.9750643800405152 0.02493561995948477 0.642763478003287 0.3572365219967129 0.3267382610939112 0.6732617389060888 0.1315789682709825 0.8684210317290175 0.4935828985590338 0.5064171014409663 0.3499974882044157 0.6500025117955843 0.0002454832915806996 0.9997545167084193 0.3267382610939112 0.6732617389060888 0.4428104575163399 0.5571895424836602 0.4428104575163399 0.5571895424836602 0.4428104575163399 0.5571895424836602 0.4428104575163399 0.5571895424836602 0.0553513071895425 0.9446486928104575 0.4428104575163399 0.5571895424836602 0.4428104575163399 0.5571895424836602 0.4428104575163399 0.5571895424836602 0.4428104575163399 0.5571895424836602 0.4428104575163399 0.5571895424836602 0.4428104575163399 0.5571895424836602 0.4428104575163399 0.5571895424836602 0.9303513071895425 0.06964869281045751 0.4428104575163399 0.5571895424836602 0.4428104575163399 0.5571895424836602 0.1635338345864661 0.836466165413534 0.1635338345864661 0.836466165413534 0.1635338345864661 0.836466165413534 0.1635338345864661 0.836466165413534 0.1635338345864661 0.836466165413534 0.1635338345864661 0.836466165413534 0.1635338345864661 0.836466165413534 0.1635338345864661 0.836466165413534 0.1635338345864661 0.836466165413534 0.1635338345864661 0.836466165413534 0.1635338345864661 0.836466165413534 0.1635338345864661 0.836466165413534 0.1635338345864661 0.836466165413534 0.1635338345864661 0.836466165413534 0.1635338345864661 0.836466165413534 0.08333233248160907 0.9166676675183909 0.006009960155191656 0.9939900398448083 0.1622689241901747 0.8377310758098254 0.8952836155237718 0.1047163844762282 0.1025650354519405 0.8974349645480596 0.02028361552377184 0.9797163844762282 0.1622689241901747 0.8377310758098254 0.1622689241901747 0.8377310758098254 0.1622689241901747 0.8377310758098254 0.1622689241901747 0.8377310758098254 0.1584158420447545 0.8415841579552456 0.1622689241901747 0.8377310758098254 0.3988993931675471 0.6011006068324529 0.4874914416366732 0.5125085583633269 0.8952836155237718 0.1047163844762282 0.9323190616452767 0.06768093835472334 0.4585524931622133 0.5414475068377866 0.4585524931622133 0.5414475068377866 0.05731906164527665 0.9426809383547233 0.1114585524931622 0.8885414475068378 0.4585524931622133 0.5414475068377866 0.4585524931622133 0.5414475068377866 0.05731906164527665 0.9426809383547233 0.4585524931622133 0.5414475068377866 0.4585524931622133 0.5414475068377866 0.2777768202524349 0.7222231797475651 0.4585524931622133 0.5414475068377866 0.4585524931622133 0.5414475068377866 0.4585524931622133 0.5414475068377866 0.4585524931622133 0.5414475068377866 0.4992207650528711 0.5007792349471288 0.4789606564275195 0.5210393435724805 0.4789606564275195 0.5210393435724805 0.4789606564275195 0.5210393435724805 0.007483760256679992 0.99251623974332 0.4789606564275195 0.5210393435724805 0.4789606564275195 0.5210393435724805 0.4789606564275195 0.5210393435724805 0.05987008205343995 0.9401299179465601 0.4789606564275195 0.5210393435724805 0.5249993319983232 0.4750006680016769 0.4789606564275195 0.5210393435724805 0.4992207650528711 0.5007792349471288 0.4789606564275195 0.5210393435724805 0.4789606564275195 0.5210393435724805 0.1875 0.8125 0.1875 0.8125 0.1875 0.8125 0.1875 0.8125 0.1875 0.8125 0.1875 0.8125 0.1875 0.8125 0.1875 0.8125 0.1875 0.8125 0.1875 0.8125 0.0234375 0.9765625 0.1875 0.8125 0.1875 0.8125 0.1875 0.8125 0.1875 0.8125 0.4583333333333333 0.5416666666666666 0.9322916666666667 0.06770833333333336 0.4583333333333333 0.5416666666666666 0.4583333333333333 0.5416666666666666 0.4583333333333333 0.5416666666666666 0.4583333333333333 0.5416666666666666 0.4583333333333333 0.5416666666666666 0.4583333333333333 0.5416666666666666 0.4583333333333333 0.5416666666666666 0.4583333333333333 0.5416666666666666 0.0572916666666667 0.9427083333333334 0.4583333333333333 0.5416666666666666 0.4583333333333333 0.5416666666666666 0.4583333333333333 0.5416666666666666 0.4583333333333333 0.5416666666666666 0.9375 0.0625 0.9921875 0.0078125 0.9375 0.0625 0.9375 0.0625 0.9375 0.0625 0.9375 0.0625 0.9375 0.0625 0.9375 0.0625 0.9375 0.0625 0.9375 0.0625 0.9921875 0.0078125 0.9375 0.0625 0.9375 0.0625 0.9375 0.0625 0.9375 0.0625 0.8020833333333333 0.1979166666666667 0.9752604166666667 0.02473958333333335 0.8020833333333333 0.1979166666666667 0.8020833333333333 0.1979166666666667 0.8020833333333333 0.1979166666666667 0.8020833333333333 0.1979166666666667 0.8020833333333333 0.1979166666666667 0.8020833333333333 0.1979166666666667 0.8020833333333333 0.1979166666666667 0.8020833333333333 0.1979166666666667 0.7504166666666667 0.2495833333333334 0.8020833333333333 0.1979166666666667 0.8020833333333333 0.1979166666666667 0.8020833333333333 0.1979166666666667 0.8020833333333333 0.1979166666666667 0.5883152173913043 0.4116847826086957 0.5883152173913043 0.4116847826086957 0.5883152173913043 0.4116847826086957 0.5883152173913043 0.4116847826086957 0.5883152173913043 0.4116847826086957 0.5883152173913043 0.4116847826086957 0.5883152173913043 0.4116847826086957 0.5883152173913043 0.4116847826086957 0.5883152173913043 0.4116847826086957 0.5883152173913043 0.4116847826086957 0.8214204911433174 0.1785795088566828 0.5883152173913043 0.4116847826086957 0.07353940217391305 0.9264605978260869 0.5883152173913043 0.4116847826086957 0.5883152173913043 0.4116847826086957 0.0516304347826087 0.9483695652173914 0.0516304347826087 0.9483695652173914 0.0516304347826087 0.9483695652173914 0.0516304347826087 0.9483695652173914 0.00645380434782609 0.993546195652174 0.0516304347826087 0.9483695652173914 0.0516304347826087 0.9483695652173914 0.0516304347826087 0.9483695652173914 0.0516304347826087 0.9483695652173914 0.0516304347826087 0.9483695652173914 0.0001505260489288883 0.999849473951071 0.0516304347826087 0.9483695652173914 0.0516304347826087 0.9483695652173914 0.0516304347826087 0.9483695652173914 