<?xml version="1.0" encoding="ISO-8859-1"?>
<smile version="1.0" id="Unnamed" numsamples="1000" discsamples="10000">
	<nodes>
		<cpt id="age">
			<state id="s1_below_24" />
			<state id="s2_24_38" />
			<state id="s3_38_48" />
			<state id="s4_48_66" />
			<state id="s5_66_78" />
			<state id="s6_78_up" />
			<probabilities>0.1710635422745002 0.366634931359602 0.2276957095912288 0.2036485365928565 0.02656552317189276 0.004391757009919844</probabilities>
		</cpt>
		<cpt id="sex">
			<state id="Female" />
			<state id="Male" />
			<probabilities>0.3307945087681616 0.6692054912318385</probabilities>
		</cpt>
		<cpt id="education">
			<state id="S10th" />
			<state id="S11th" />
			<state id="S12th" />
			<state id="S1st_4th" />
			<state id="S5th_6th" />
			<state id="S7th_8th" />
			<state id="S9th" />
			<state id="SAssoc_acdm" />
			<state id="SAssoc_voc" />
			<state id="Bachelors" />
			<state id="Doctorate" />
			<state id="SHS_grad" />
			<state id="Masters" />
			<state id="Preschool" />
			<state id="SProf_school" />
			<state id="SSome_college" />
			<probabilities>0.02865391111947249 0.03608611529509226 0.01329811737975452 0.005159546696130578 0.0102269586292017 0.01983968550864303 0.01578575596344698 0.03276926384920563 0.04244341390381529 0.1644605509525355 0.01268388562561636 0.3225023801407015 0.05291606522843839 0.001566290961503615 0.01768987438097973 0.2239181843654623</probabilities>
		</cpt>
		<cpt id="occupation">
			<state id="S_" />
			<state id="SAdm_clerical" />
			<state id="SArmed_Forces" />
			<state id="SCraft_repair" />
			<state id="SExec_managerial" />
			<state id="SFarming_fishing" />
			<state id="SHandlers_cleaners" />
			<state id="SMachine_op_inspct" />
			<state id="SOther_service" />
			<state id="SPriv_house_serv" />
			<state id="SProf_specialty" />
			<state id="SProtective_serv" />
			<state id="Sales" />
			<state id="STech_support" />
			<state id="STransport_moving" />
			<parents>sex education</parents>
			<probabilities>0.1423728905934174 0.07457627073046459 8.549277820652476e-013 0.03728813514663068 0.02711864373000948 0.01355932200498549 0.02711864383643212 0.1016949140137071 0.3627118617138883 0.01355932205124308 0.01355932184278317 0.01016949119438583 0.1559322002990125 0.003389830489132772 0.01694915235305269 0.138888891431566 0.1134259255842206 2.116632754750504e-013 0.02083333332932742 0.02777777768370493 0.00462962967546041 0.03472222214364708 0.07870370338479832 0.3078703700078699 0.032407407318432 0.02314814804482348 0.002314814803919708 0.2037037024800614 0.00462962962718392 0.006944444484773237 0.1250000629080534 0.166666655489215 2.612422362015944e-010 0.006944448249493797 0.013888891240417 0.006944445402976386 0.0208333343394863 0.08333332271600401 0.3055555443029203 0.02083333300608849 0.02083333312016283 1.098023999831317e-009 0.2083332954870108 0.006944444168343772 0.01388888821056168 0.06521922442893503 5.618192454898786e-009 1.20892390606243e-009 0.04347803217335917 1.689977374713299e-007 2.863089213862578e-007 0.02173918132019574 0.1521733123792419 0.4130427965535785 0.2391295253545721 0.04347805236964448 1.513887190514786e-008 0.02173933197441414 3.21386508240627e-009 6.295954655942964e-008 0.1190479678941662 0.03571427577376726 1.069561758563838e-010 0.03571425895946534 3.910419555013605e-009 0.02380953561281118 0.02380954247236563 0.2738092639978689 0.250000059300771 0.1666665520336949 4.865483174041319e-009 1.339369531559785e-009 0.05952376699162592 0.01190474735358728 1.938764786867472e-008 0.1437500679268984 0.0125000038333767 8.301606732417631e-012 0.01875000207580516 0.006250003947787118 0.04374999714280043 0.02499999913487446 0.2437499655627275 0.3937499610611632 0.04999999499471062 0.006250001723456152 0.0062499993890755 0.03125000268350747 0.01874999729475481 3.220760706373853e-009 0.1666667301447184 0.05555555166672807 1.370872472717451e-011 0.03472221981064715 0.03472221699461364 0.006944447210624725 0.02777777768112164 0.1666666443490519 0.3055555496302437 0.06249999387562542 0.006944443964031552 0.006944442822931551 0.1180555353619576 0.006944443369201644 3.104794301454367e-009 0.04750593969056771 0.3159144888672777 2.61909540714744e-013 0.01662707836900169 0.1353919234962706 0.002375296928798847 0.002375296964978127 0.01662707843221997 0.1116389547754815 0.004750593817313422 0.173396673825195 0.00237529698565338 0.1021377674525431 0.05938242282662427 0.00950118756781268 0.0780000007730321 0.2499999996913059 1.351903103793868e-013 0.02600000002555809 0.1059999998551495 0.004000000060475709 0.00999999997132763 0.02000000010546982 0.1280000000409179 0.006000000009526153 0.1879999994893284 0.01199999998115409 0.06000000012737708 0.1079999998660668 0.004000000003175804 0.04138357012367384 0.1649166151923662 1.653136602433719e-014 0.00864731315573406 0.20506485484625 0.001852995676890143 0.002470660901862616 0.00864731315631906 0.04941321803618668 0.003088326127228403 0.3576281655124086 0.008647313155382193 0.1006794317574812 0.04632489190720548 0.001235330450994889 0.01162809061669917 0.0116279191243798 7.918028709912799e-011 0.01162789043200894 0.1395348218480977 1.103072521074392e-009 6.633033958262892e-011 0.01162789192887295 5.726376813563858e-009 5.157657203877759e-010 0.7906975620915918 5.832606793312189e-011 0.01162791623287315 0.01162789963300068 5.434241178419424e-010 0.07256637168480208 0.2855457227124608 3.790854930162469e-015 0.0300884955752138 0.07846607669577251 0.006194690265636837 0.02625368731543858 0.07994100294965355 0.2138643067842614 0.01445427728606929 0.02949852507357175 0.006489675516205582 0.1244837758106455 0.01710914454272866 0.01504424778753561 0.02985074676472167 0.05410447769229152 1.443544960937498e-012 0.003731343272258257 0.2014925374763267 1.120328391618352e-011 5.76184486772737e-012 0.003731343280727601 0.02238805966709547 0.001865671639146102 0.6287313422920792 1.507453982500825e-011 0.0391791047045419 0.01492537317180923 5.519251511364828e-012 0.1250362193962664 0.06249834589097485 7.216520329576628e-008 1.998686961876474e-006 1.552016762114396e-007 8.574995761314361e-006 0.06248927362104974 0.2499738838211853 0.3749976594689387 0.1249900696321852 3.282826630397566e-006 5.315859166520719e-008 1.90152868324443e-007 1.918476637561306e-007 2.913404287015072e-008 0.03260879877421924 0.02173913516251708 4.712365749071906e-011 2.2689295829135e-009 0.08695649805365729 2.510096509512103e-009 3.947609080807831e-011 1.553457098914998e-009 0.01086956473468781 3.069547742682431e-010 0.7826086347612887 5.901107678295978e-010 0.04347824270103878 0.02173911756424493 9.321976125169336e-010 0.0951532430570739 0.3218104062695019 4.080504348327472e-015 0.0174625801852594 0.1051318602983454 0.00748396293650833 0.009622238061304779 0.02565930149682198 0.1546685673552471 0.005702066999236428 0.06094084105440382 0.009622238061156639 0.1379187455442847 0.04133998574439955 0.007483962936452212 0.09404388807057909 0.0250783698606787 1.541861013518257e-013 0.2492163006685731 0.02507836987815294 0.06269592471026868 0.09874608139008674 0.1112852663412756 0.136363636218268 0.00313479622784928 0.007836990590068654 0.004702194362377736 0.05485893417358065 0.003134796234231336 0.1238244512738553 0.07940780678551969 0.02422611035165403 8.105419207594795e-014 0.2234185731785373 0.02960969042308346 0.04710632567431066 0.1453566620675902 0.08748317625961893 0.1413189770199267 1.974545334136989e-012 0.01345895019770851 0.008075370115627405 0.07537012114798744 0.005383580076008019 0.1197846567003722 0.07612457687026618 0.04844290585107782 0.003460207535696254 0.197231831618476 0.03806228309764178 0.05190311374011851 0.1211072649810025 0.07958477449611555 0.1418685104018172 0.003460207497537051 0.02422145296968421 0.02076124539566847 0.05882353009433126 0.006920415139932488 0.1280276803106347 0.07377058528695037 7.32513669523126e-011 1.352953305126599e-010 0.172131136349729 0.03278687774706951 0.1475409711064405 0.1229508059307945 0.1311475326041174 0.1721311233810958 2.592777111769807e-009 0.01639344344805581 0.008196720448788436 0.05737703707208171 1.432863482103809e-010 0.06557376368026703 0.08032129836321159 0.01204819239326293 7.488215893627689e-012 0.1606425684028844 0.004016064146495756 0.1365461833800479 0.1526104392239541 0.1325301203547388 0.1726907580483973 1.824189640915627e-010 0.004016064139465982 0.004016064196045227 0.02811244955056844 1.348184360911375e-010 0.1124497974762018 0.1028806603978127 0.01851851840405024 4.785861185185475e-013 0.2325102875002378 0.03703703688435372 0.1296296294236775 0.08641975286904834 0.1111111110354947 0.07201646087356435 6.684345935860968e-012 0.01646090528330441 0.0164609053141475 0.04938271586059527 0.004115226342874398 0.1234567898036762 0.07297297761374533 0.01621621607617279 1.457226444719338e-012 0.245945944777403 0.02162162154869268 0.0729729726615258 0.1216216209615227 0.1405405399942101 0.154054052894063 0.002702702675177448 0.005405405377779927 0.008108108095198522 0.04054054054868363 0.002702702700704539 0.09459459407366337 0.04179566614064502 0.09287925691066405 1.719941669007632e-013 0.1671826624371265 0.1362229101731491 0.02012383900108632 0.03560371513848021 0.04024767798314274 0.04798761609117389 6.145210558682536e-013 0.1006191950911781 0.05108359128701512 0.1563467490740838 0.07430340551134772 0.03560371516012077 0.02494331086465479 0.04761904762056679 4.884298692467066e-014 0.2709750566165694 0.1099773242382518 0.05668934239078131 0.02607709750079736 0.060090702921863 0.0578231292385711 0.001133786846769466 0.08616780047395899 0.04761904760772458 0.08616780041728367 0.08163265304698761 0.04308390021517127 0.02837259100846457 0.06397216274047606 0.0002676659528887754 0.056745182012839 0.2775695931470474 0.01980728051392462 0.01231263383296119 0.01472162740896309 0.02703426124186991 0.0005353319057735664 0.2451820128480651 0.02301927194861839 0.1729122055666809 0.04148822269799146 0.01605995717343587 0.04281345866279701 0.01223241570606224 3.433395725543907e-012 0.003058104073403462 0.131498470702477 0.003058103988568782 5.167285467336726e-012 7.259970567980999e-011 0.003058103934867795 3.717345881802848e-013 0.7737003032078053 5.287530161406388e-012 0.02140672769730108 0.006116207955918559 0.003058103983939273 0.04036000562549093 0.05582899732806818 0.0005625087891990378 0.2559414990858052 0.07607931373924178 0.05386021656586496 0.07340739699054828 0.1057516523695155 0.07818872169875057 0.0001406271973005945 0.0187034172408908 0.02714104907887921 0.09098579665303724 0.0142033469272882 0.1088454507101195 0.02695871951457638 0.03285593933378676 0.0008424599829511281 0.01684919966320667 0.3310867733451208 0.008424599831381411 0.004212299915412964 0.005054759898747898 0.005897219882819194 3.278272329141184e-014 0.4271272114662349 0.01263689974633561 0.09519797808025186 0.02443133950798763 0.008424599831153967 0.0857193975113545 0.02857111683290548 1.682709195743317e-008 0.1142850461125498 1.936452446103993e-008 0.2571415132411137 0.02857165190810621 0.199999417932245 0.2571405413657816 6.012181984543888e-008 0.02857112958656498 2.59142153617005e-008 1.805362198426383e-008 1.782095914504055e-008 2.74071459766692e-008 0.03099173640437372 0.0144628098512615 7.729294522027486e-013 0.01446280993283113 0.09090909085317007 0.008264462823289541 1.163264431166346e-012 0.002066115700712599 0.006198347092697174 8.368525931029543e-014 0.7851239661850796 0.00206611570460456 0.02892561982082292 0.0103305785143441 0.006198347114793223 0.05551839465110876 0.08428093645467891 0.0004459308807108187 0.1826086956517064 0.1302118171680094 0.03411371237453113 0.05351170568546813 0.05306577480474169 0.07736900780361047 1.913109588827851e-015 0.05774804905227551 0.03901895206234043 0.1386845039015499 0.03500557413593929 0.0584169453733272</probabilities>
		</cpt>
		<cpt id="workclass">
			<state id="S_" />
			<state id="SFederal_gov" />
			<state id="SLocal_gov" />
			<state id="SNever_worked" />
			<state id="Private" />
			<state id="SSelf_emp_inc" />
			<state id="SSelf_emp_not_inc" />
			<state id="SState_gov" />
			<state id="SWithout_pay" />
			<parents>occupation</parents>
			<probabilities>0.996201844818094 1.92928644285007e-015 2.484543968657535e-015 0.003798155181859015 3.748861678984803e-015 4.71731649218761e-015 1.229056415130294e-014 5.215482985206317e-015 1.654101399838896e-014 1.636919476128343e-015 0.08408488063554032 0.07506631299700241 2.913486655404078e-015 0.7514588859419729 0.008222811671136846 0.01326259947008774 0.0671087533160338 0.0007957559682214723 0.0001538335605388982 0.999023531294945 3.030371003074562e-005 0.0002738021218022545 4.5724454345927e-005 5.753659138491651e-005 0.0001499066616867344 6.361267341120053e-005 0.0002017489318542929 1.27765053698313e-014 0.01561356428386437 0.03561844352252267 2.274038426480511e-014 0.7794584044886451 0.02585996584502938 0.1295437911695119 0.01366186874844079 0.0002439619419502742 2.614483073181482e-015 0.04426955238538722 0.05263157894704233 4.653412495592332e-015 0.6618298081655066 0.09837678307834792 0.09640924741835713 0.04648303000534789 3.428830259910143e-015 1.915228945255731e-012 0.00804828973494779 0.02917505027257106 3.408838403733854e-012 0.4577464787506887 0.05130784705261601 0.4325955735632621 0.01509054324503014 0.00603621737556031 5.197639142193506e-013 0.01678832116621838 0.03430656933446289 9.251067325683993e-013 0.9291970802884249 0.001459854014226445 0.0109489051209417 0.00656934306658309 0.0007299270076976794 4.92851341461789e-014 0.006993006992370495 0.005994005993561073 8.772061346860879e-014 0.9555444555431226 0.006493506493269886 0.01798201798343037 0.006493506493635936 0.0004995005004725218 3.063997107066932e-015 0.01062215477977892 0.05857359635733416 5.453484312343953e-015 0.8315629742007159 0.008194233687314976 0.05311077390338408 0.03763277693489721 0.0003034901365661039 4.664989321615702e-010 7.135844692003992e-011 9.189573666730627e-011 8.303025490463545e-010 0.9999999971061677 1.744792121254531e-010 4.545906456028795e-010 1.929048779363338e-010 6.118018782446829e-010 1.955055015809064e-015 0.04227053140063138 0.1702898550722844 3.479723213149621e-015 0.5586956521732457 0.03864734299480105 0.09009661835867867 0.1000000000003509 2.56400657811025e-015 1.169908882317805e-011 0.04314329733264986 0.4684129423920842 2.082273420518811e-011 0.2927580897140379 0.007704160222855422 0.009244992273576141 0.1787365180169317 1.534306730908599e-011 3.285706136414002e-015 0.003835616438323088 0.00191780821915874 5.848095231088152e-015 0.8060273972606181 0.07972602739636064 0.1054794520553679 0.003013698630157942 4.309122801854433e-015 7.768900523932911e-013 0.07327586200621224 0.0409482758455833 1.382755128381501e-012 0.7931034482775327 0.003232758616948175 0.02801724141325821 0.06142241383728696 1.018872199860055e-012 5.843473469845958e-013 0.01565435191010643 0.07201001880222396 1.040056167935112e-012 0.7927363806708535 0.01690670006524954 0.07639323733598942 0.02567313713694662 0.0006261740770061452</probabilities>
		</cpt>
		<cpt id="Vmarital_status">
			<state id="Divorced" />
			<state id="SMarried_AF_spouse" />
			<state id="SMarried_civ_spouse" />
			<state id="SMarried_spouse_absent" />
			<state id="SNever_married" />
			<state id="Separated" />
			<state id="Widowed" />
			<parents>age</parents>
			<probabilities>0.1784984161375265 0.1060719039830195 0.05187707141556069 0.1945204941615597 0.1873307983094279 0.1627038063254691 0.1189975096674366 0.2328808044022596 0.07372981569158002 0.1438851900348163 0.1977012015530945 0.09623630077896479 0.1626608457861598 0.09290584175312511 0.2361882886409918 0.07262416770484739 0.2193085111095837 0.2026720828322199 0.1350587744659268 0.08353579880481479 0.0506123764416156 0.2014899327359568 0.1070506704460908 0.03088799735045341 0.08320374826188079 0.03638433954993066 0.3277711064967526 0.2132122051589351 0.1663167893911956 0.1489319152365161 0.1904189083373211 0.197493784669223 0.09469678062080293 0.1998188404731723 0.00232298127176923 0.09602380441426178 0.06189588348279682 0.05177890546900983 0.235934608515409 0.2389890099486423 0.09116272837449477 0.2242150597953855</probabilities>
		</cpt>
		<cpt id="relationship">
			<state id="Husband" />
			<state id="SNot_in_family" />
			<state id="SOther_relative" />
			<state id="SOwn_child" />
			<state id="Unmarried" />
			<state id="Wife" />
			<parents>age sex</parents>
			<probabilities>9.49007188737046e-016 0.2460127591704734 0.05582137161109315 0.5925039872399277 0.0697767145143722 0.03588516746413269 0.1071195297191152 0.2220770738080533 0.06499020248192705 0.575767472240765 0.03004572175013788 1.622182988650709e-015 0.0002632964718248071 0.362822538178487 0.03080568720391842 0.1540284360189488 0.2725118483408794 0.1795681937859416 0.5710073710074166 0.25540540540537 0.02936117936117244 0.1041769041769007 0.03980343980344023 0.0002457002457000492 1.719021441260284e-014 0.341050756902017 0.02671415850377115 0.05520926090848257 0.3735529830800693 0.2034728406056428 0.7395510835913114 0.1758900928792307 0.01199690402477671 0.03192724458203702 0.04063467492264312 1.01686619900464e-015 3.963093460992147e-014 0.4689325544287397 0.04992033988103875 0.02389803505043643 0.2920870950655564 0.1651619755741892 0.814869418702268 0.1368997472622625 0.008635214827357622 0.009267059814665543 0.03032855939344533 9.310110810599211e-016 9.430224861611642e-012 0.696245730522005 0.06143344674031771 0.003412969321234812 0.1638225281575617 0.07508532524945047 0.8076923071970745 0.1468531473358664 0.01398601403245003 0.001748251748877921 0.02972027968544089 2.902822361693996e-013 1.942613296680923e-009 0.6279065685562154 0.02325591647925027 0.09302290275331256 0.1627913211521497 0.09302328911645881 0.6299999978727759 0.2800000121324883 0.01999999774596309 0.02000001372726859 0.04999997845745222 6.405162989855272e-011</probabilities>
		</cpt>
		<cpt id="Vnative_country">
			<state id="S_" />
			<state id="Cambodia" />
			<state id="Canada" />
			<state id="China" />
			<state id="Columbia" />
			<state id="Cuba" />
			<state id="SDominican_Republic" />
			<state id="Ecuador" />
			<state id="SEl_Salvador" />
			<state id="England" />
			<state id="France" />
			<state id="Germany" />
			<state id="Greece" />
			<state id="Guatemala" />
			<state id="Haiti" />
			<state id="SHoland_Netherlands" />
			<state id="Honduras" />
			<state id="Hong" />
			<state id="Hungary" />
			<state id="India" />
			<state id="Iran" />
			<state id="Ireland" />
			<state id="Italy" />
			<state id="Jamaica" />
			<state id="Japan" />
			<state id="Laos" />
			<state id="Mexico" />
			<state id="Nicaragua" />
			<state id="SOutlying_US_Guam_USVI_etc_" />
			<state id="Peru" />
			<state id="Philippines" />
			<state id="Poland" />
			<state id="Portugal" />
			<state id="SPuerto_Rico" />
			<state id="Scotland" />
			<state id="South" />
			<state id="Taiwan" />
			<state id="Thailand" />
			<state id="STrinadad_Tobago" />
			<state id="SUnited_States" />
			<state id="Vietnam" />
			<state id="Yugoslavia" />
			<probabilities>0.0044982547249531 0.05079812162237318 0.03582131322655422 0.01708767231631414 0.006172027137413715 0.02535725185666884 0.003839909501499538 0.001613333847708667 0.002686570232480767 0.0002232131670068934 0.01603452819031955 0.06406597545668703 0.006634851152934502 0.01518411882260954 0.02076544078093266 0.02866032603741165 0.04084656370373409 0.01993914000171836 0.02969332923414643 0.003331237374957804 0.02512253372189394 0.04219023658070609 0.0278107959029293 0.02780078110435582 0.002862042613555489 0.04118384211452245 0.06550932920036119 0.01053256619433228 0.006444012506636541 0.07144065097768262 0.02631015001374903 0.03230947937999115 0.009505431166560588 0.03680067757215562 0.0593773594315696 0.007234335794102806 0.003233194882137083 0.0200954973061345 0.027968084279744 0.003892712913678153 0.01965648509034187 0.03946662286443511</probabilities>
		</cpt>
		<cpt id="race">
			<state id="SAmer_Indian_Eskimo" />
			<state id="SAsian_Pac_Islander" />
			<state id="Black" />
			<state id="Other" />
			<state id="White" />
			<parents>Vnative_country</parents>
			<probabilities>0.05731524073507117 0.2606596555605632 0.2499564390841687 0.01185684897801049 0.4202118156421864 0.005723598187882624 0.04081083504250174 0.02784542206055717 0.01139684993535175 0.9142232947737068 0.007832340836498523 0.04130036100663612 0.04788210734887978 0.00416865819335977 0.8988165326146258 0.008415398210180735 0.03913049525672542 0.2020994279070288 0.0009372071856426059 0.7494174714404224 0.003706607859831969 0.02582621488020528 0.1180948888736978 0.01388816668178133 0.8384841217044836 0.00535341537431851 0.02987435120804106 0.004067474797987691 0.0070796611556794 0.9536250974639734 0.008884845555238946 0.02708691126089202 0.1149506272981947 0.005856413206650284 0.8432212026790241 0.001069031050796892 0.04432049544719881 0.07029179444309149 0.01355662451726583 0.8707620545416471 0.003614388880918829 0.003136164360970957 0.08812621849793165 0.009065996284668289 0.8960572319755102 0.005717195290168276 0.0282364927690024 0.05220867509878854 0.005794758420257493 0.9080428784217833 0.0201156240721919 0.03750888791411404 0.08914367093505313 0.003065925197382992 0.8501658918812579 0.00763778348214297 0.02043308284365531 0.05120317491198398 0.00139873046098338 0.9193272283012344 0.05938525691636348 0.1761191538468899 0.6017727085805362 0.05911309361301928 0.1036097870431911 0.02443460476430212 0.09350055527901222 0.2515979791107011 0.01246001486182798 0.6180068459841565 0.006295686409382183 0.02642568297856611 0.04874580484539629 0.009321426747858496 0.9092113990187968 0.009068704241137206 0.02915546836262291 0.2777795673227673 0.01557978372177267 0.6684164763516999 0.007848574141335085 0.009011909324231548 0.1873406029119786 0.0005512440276387421 0.795247669594816 0.008199774687062268 0.02686283329426305 0.01147486948596232 0.0007494450969855403 0.9527130774357269 0.001954768093828312 0.02296126565061823 0.1434140532066399 0.009463962382982116 0.8222059506659314 0.009456047913001585 0.02987739513111716 0.02277001774131754 0.01123971631126325 0.9266568229033004 0.006016274043484812 0.01216783365243091 0.1184577228203267 0.01010951206588348 0.853248657417874 0.002091721589579697 0.01008847799970429 0.08437082067406766 0.003105447230021023 0.9003435325066272 0.01197376280692908 0.04236873192964685 0.0517472425853709 0.002454771576766682 0.8914554911012865 0.02159751883059225 0.02057035382408694 0.1505112466847286 0.008764071742833253 0.7985568089177589 0.004425791653234994 0.07719132145249383 0.2853055543032386 0.01448252452469998 0.6185948080663326 0.006716765310569943 0.01330999670195633 0.0653643403848415 0.002845669780512729 0.9117632278221196 0.01153134231155769 0.003572382974913657 0.001662695040629807 0.001214691079251846 0.9820188885936472 0.08406457607669599 0.02635613949349015 0.07844201989387992 0.08491256873892908 0.7262246957970049 0.002879332397839885 0.1553881596501402 0.3181496293323433 0.03080598649489457 0.492776892124782 0.003269551603295251 0.01615520112832707 0.03070973306105977 0.003061716135457194 0.9468037980718608 0.008017109393529513 0.03343740409923559 0.1183963701019678 0.009412385637553113 0.8307367307677139 0.008450997977389886 0.03307425709291036 0.09661579828899357 0.01089076596132856 0.8509681806793777 0.005388612554726587 0.03334718663805966 0.06563028438485516 0.005423638849965897 0.8902102775723927 0.007417492582468082 0.03475672233655887 0.0939106758987914 0.008702645898629851 0.8552124632835517 0.0001340657337585763 0.03993868698505582 0.02104648765100712 0.004426962355845176 0.9344537972743333 0.02933729561635907 0.137752660895042 0.4061881098279127 0.04865078987776848 0.3780711437829179 0.03918436090358194 0.02070265020720803 0.04170691797753882 0.04889127730479025 0.8495147936068809 0.02508159629162198 0.0219534547124852 0.2554954665163057 0.0224945018225818 0.6749749806570055 0.01176452142509758 0.02269372888869525 0.1097315858325308 0.00385842328046362 0.8519517405732127 0.03975321852704953 0.209258918311328 0.6505975258769879 0.06800277751794494 0.03238755976668972 0.0009014237365427185 0.05696965127551044 0.1451850672516357 0.0160439105648108 0.7808999471715002 0.007961095390617673 0.04879896668149428 0.09626833644846705 0.008570802329640481 0.8384007991497806</probabilities>
		</cpt>
		<cpt id="Vhours_per_week">
			<state id="s1_below_16" />
			<state id="s2_16_34" />
			<state id="s3_34_52" />
			<state id="s4_52_79" />
			<state id="s5_79_93" />
			<state id="s6_93_up" />
			<parents>age</parents>
			<probabilities>0.002149844962763716 0.341479748401047 0.316473528541297 0.1644315683444326 0.05479722230026661 0.1206680874501931 0.08880453678748633 0.2496298945691974 0.2365283737237267 0.2527059764865418 0.03628459170329203 0.1360466267297558 0.1811446771063595 0.1106726859806178 0.2428566836217631 0.05436754434417451 0.05710774349001248 0.3538506654570727 0.2365016760436283 0.2124533633091452 0.03033549719877879 0.162723231076383 0.1183497894321203 0.2396364429399444 0.3207557852080155 0.0017429703323434 0.1345669698083217 0.1199465229064275 0.2164963670955552 0.2064913846493367 0.1015378557815643 0.2597946319437992 0.1014998421281073 0.005984756888189096 0.377636554530373 0.1535463587279671</probabilities>
		</cpt>
		<cpt id="pay">
			<state id="S__50K" />
			<state id="S_50K" />
			<parents>education relationship sex occupation</parents>
			<probabilities>0.8328025477707005 0.1671974522292994 0.8328025477707005 0.1671974522292994 0.8328025477707005 0.1671974522292994 0.8328025477707005 0.1671974522292994 0.8328025477707005 0.1671974522292994 0.8328025477707005 0.1671974522292994 0.8328025477707005 0.1671974522292994 0.8328025477707005 0.1671974522292994 0.8328025477707005 0.1671974522292994 0.8328025477707005 0.1671974522292994 0.8328025477707005 0.1671974522292994 0.8328025477707005 0.1671974522292994 0.8328025477707005 0.1671974522292994 0.8328025477707005 0.1671974522292994 0.8328025477707005 0.1671974522292994 0.8460911348392657 0.1539088651607342 0.9983386242849609 0.00166137571503915 0.8338624284960849 0.166137571503915 0.8265313603130799 0.1734686396869201 0.7148171663488715 0.2851828336511285 0.9441381230706263 0.05586187692937372 0.9165341798855937 0.08346582011440626 0.8604513752213306 0.1395486247786694 0.9521360793977192 0.04786392060228082 0.8338624284960849 0.166137571503915 0.2084656071240212 0.7915343928759788 0.9815402698328983 0.01845973016710167 0.8333347989709032 0.1666652010290967 0.2084656071240212 0.7915343928759788 0.7255302745667516 0.2744697254332486 0.9999990319982653 9.680017346591081e-007 0.9999971552602083 2.844739791651257e-006 0.9998606077502091 0.0001393922497909116 0.9999912879843881 8.712015611931975e-006 0.9999651519375523 3.48480624477279e-005 0.9998606077502091 0.0001393922497909116 0.9999961279930614 3.872006938636433e-006 0.9999993804788898 6.195211101818294e-007 0.9999998451197225 1.548802775454573e-007 0.9999845119722455 1.548802775454573e-005 0.9999651519375523 3.48480624477279e-005 0.9998606077502091 0.0001393922497909116 0.9999986060775021 1.393922497909116e-006 0.9998606077502091 0.0001393922497909116 0.9999912879843881 8.712015611931975e-006 0.9998899907949894 0.0001100092050105111 0.9982398527198317 0.001760147280168177 0.9841586744784864 0.0158413255215136 0.999988428542351 1.157145764902381e-005 0.9960396686196217 0.003960331380378401 0.9993663469791395 0.0006336530208605441 0.9999381198221816 6.18801778184125e-005 0.9999511070199953 4.88929800046716e-005 0.9999561182118517 4.388178814823711e-005 0.9841586744784864 0.0158413255215136 0.5537954082753873 0.4462045917246126 0.9960396686196217 0.003960331380378401 0.9993663469791395 0.0006336530208605441 0.9841586744784864 0.0158413255215136 0.9335318698221816 0.06646813017781841 0.9999526515151516 4.734848484848486e-005 0.999810606060606 0.0001893939393939394 0.9992424242424244 0.0007575757575757578 0.9992424242424244 0.0007575757575757578 0.9992424242424244 0.0007575757575757578 0.9992424242424244 0.0007575757575757578 0.9992424242424244 0.0007575757575757578 0.9992424242424244 0.0007575757575757578 0.9999789562289562 2.104377104377105e-005 0.9992424242424244 0.0007575757575757578 0.9992424242424244 0.0007575757575757578 0.9992424242424244 0.0007575757575757578 0.9999696969696971 3.030303030303032e-005 0.9992424242424244 0.0007575757575757578 0.999810606060606 0.0001893939393939394 0.9999763257575758 2.367424242424242e-005 0.9996212121212121 0.0003787878787878788 0.9996212121212121 0.0003787878787878788 0.9999940814393939 5.918560606060606e-006 0.9996212121212121 0.0003787878787878788 0.999905303030303 9.46969696969697e-005 0.9999922696351268 7.730364873222016e-006 0.999905303030303 9.46969696969697e-005 0.9999922696351268 7.730364873222016e-006 0.999905303030303 9.46969696969697e-005 0.9996212121212121 0.0003787878787878788 0.9996212121212121 0.0003787878787878788 0.9999763257575758 2.367424242424242e-005 0.9996212121212121 0.0003787878787878788 0.999905303030303 9.46969696969697e-005 0.9999995600387026 4.399612974845832e-007 0.9999682127962567 3.178720374326113e-005 0.9998728511850271 0.0001271488149730445 0.9999682127962567 3.178720374326113e-005 0.9998728511850271 0.0001271488149730445 0.9998728511850271 0.0001271488149730445 0.9999682127962567 3.178720374326113e-005 0.999997405126225 2.594873774960092e-006 0.999999911946804 8.805319596471227e-008 0.9999858723538919 1.412764610811606e-005 0.9999682127962567 3.178720374326113e-005 0.9999858723538919 1.412764610811606e-005 0.9999996821279625 3.178720374326113e-007 0.9998728511850271 0.0001271488149730445 0.9998728511850271 0.0001271488149730445 0.9999868092486757 1.319075132429919e-005 0.9994254108723135 0.0005745891276864729 0.9856352718078382 0.01436472819216182 0.9096224671653321 0.09037753283466779 0.2464088179519595 0.7535911820480404 0.9998812832380813 0.0001187167619186927 0.9999361567635904 6.384323640960808e-005 0.99982265767664 0.0001773423233600224 0.9999918567300498 8.143269950205112e-006 0.9964088179519596 0.003591182048040455 0.9964088179519596 0.003591182048040455 0.9856352718078382 0.01436472819216182 0.9998812832380813 0.0001187167619186927 0.9964088179519596 0.003591182048040455 0.9996009797724399 0.0003990202275600505 0.9998453854403969 0.0001546145596029341 0.9999258947968768 7.410520312329982e-005 0.9874762206721622 0.01252377932783767 0.9996521172408933 0.0003478827591066018 0.6867172637920102 0.3132827362079899 0.9986084689635735 0.001391531036426407 0.9968690551680406 0.003130944831959417 0.9998453854403969 0.0001546145596029341 0.999985108466911 1.489153308898652e-005 0.9874762206721622 0.01252377932783767 0.9986084689635735 0.001391531036426407 0.9874762206721622 0.01252377932783767 0.9999258947968768 7.410520312329982e-005 0.9968690551680406 0.003130944831959417 0.9874762206721622 0.01252377932783767 0.9762541118421053 0.02374588815789474 0.9762541118421053 0.02374588815789474 0.905016447368421 0.09498355263157894 0.9985158819901316 0.001484118009868421 0.905016447368421 0.09498355263157894 0.9985158819901316 0.001484118009868421 0.9962006578947369 0.003799342105263158 0.9894462719298246 0.01055372807017544 0.9762541118421053 0.02374588815789474 0.905016447368421 0.09498355263157894 0.2262541118421053 0.7737458881578947 0.905016447368421 0.09498355263157894 0.905016447368421 0.09498355263157894 0.905016447368421 0.09498355263157894 0.7172658819901316 0.2827341180098684 0.9972222222222222 0.002777777777777778 0.9922839506172838 0.007716049382716049 0.9305555555555556 0.06944444444444445 0.5478395061728395 0.4521604938271605 0.9972222222222222 0.002777777777777778 0.9922839506172838 0.007716049382716049 0.9826388888888888 0.01736111111111111 0.9922839506172838 0.007716049382716049 0.9991426611796981 0.0008573388203017831 0.9305555555555556 0.06944444444444445 0.9305555555555556 0.06944444444444445 0.9826388888888888 0.01736111111111111 0.5478395061728395 0.4521604938271605 0.9305555555555556 0.06944444444444445 0.9826388888888888 0.01736111111111111 0.9166666666666666 0.08333333333333333 0.9166666666666666 0.08333333333333333 0.9166666666666666 0.08333333333333333 0.9166666666666666 0.08333333333333333 0.9166666666666666 0.08333333333333333 0.9166666666666666 0.08333333333333333 0.9166666666666666 0.08333333333333333 0.9166666666666666 0.08333333333333333 0.9166666666666666 0.08333333333333333 0.9166666666666666 0.08333333333333333 0.9166666666666666 0.08333333333333333 0.9166666666666666 0.08333333333333333 0.9166666666666666 0.08333333333333333 0.9166666666666666 0.08333333333333333 0.9166666666666666 0.08333333333333333 0.8701923076923077 0.1298076923076923 0.8701923076923077 0.1298076923076923 0.8701923076923077 0.1298076923076923 0.8701923076923077 0.1298076923076923 0.8701923076923077 0.1298076923076923 0.8701923076923077 0.1298076923076923 0.8701923076923077 0.1298076923076923 0.8701923076923077 0.1298076923076923 0.8701923076923077 0.1298076923076923 0.8701923076923077 0.1298076923076923 0.8701923076923077 0.1298076923076923 0.8701923076923077 0.1298076923076923 0.8701923076923077 0.1298076923076923 0.8701923076923077 0.1298076923076923 0.8701923076923077 0.1298076923076923 0.9996030210540093 0.0003969789459906981 0.7514985039691235 0.2485014960308764 0.8713788214990138 0.1286211785009862 0.8651693060273457 0.1348306939726544 0.7226353983975041 0.2773646016024958 0.8823190704367253 0.1176809295632747 0.8001055899726318 0.1998944100273683 0.9249681016189763 0.0750318983810238 0.9165942061143985 0.08340579388560158 0.8713788214990138 0.1286211785009862 0.9857087579443348 0.01429124205566513 0.5412643134998904 0.4587356865001095 0.8236770951280833 0.1763229048719166 0.9678447053747534 0.03215529462524655 0.9019494744162349 0.09805052558376518 0.9999611261926273 3.887380737265011e-005 0.9998613020946827 0.0001386979053172331 0.9887654696693042 0.01123453033069588 0.7595506187867722 0.2404493812132278 0.9995506187867722 0.0004493812132278352 0.9887654696693042 0.01123453033069588 0.9996879297130362 0.0003120702869637744 0.9999335234891675 6.647651083252001e-005 0.9999866414621513 1.335853784862768e-005 0.9987517188521449 0.001248281147855098 0.9971913674173261 0.00280863258267397 0.9887654696693042 0.01123453033069588 0.9999335234891675 6.647651083252001e-005 0.9887654696693042 0.01123453033069588 0.9887654696693042 0.01123453033069588 0.9989524985259434 0.001047501474056604 0.7573183962264152 0.2426816037735849 0.9329599056603773 0.06704009433962263 0.9143001233839971 0.08569987661600279 0.9925511006289308 0.007448899371069182 0.9981377751572327 0.001862224842767295 0.9997930861285813 0.0002069138714185883 0.999603313051245 0.0003966869487551635 0.9997020440251573 0.0002979559748427673 0.9329599056603773 0.06704009433962263 0.9329599056603773 0.06704009433962263 0.5481066561844863 0.4518933438155136 0.7573183962264152 0.2426816037735849 0.9925511006289308 0.007448899371069182 0.8669256246314858 0.1330743753685142 0.9999742798353909 2.57201646090535e-005 0.9999629629629628 3.703703703703703e-005 0.9990740740740741 0.000925925925925926 0.9997685185185186 0.0002314814814814815 0.9990740740740741 0.000925925925925926 0.9997685185185186 0.0002314814814814815 0.9997685185185186 0.0002314814814814815 0.9997685185185186 0.0002314814814814815 0.9999855324074074 1.446759259259259e-005 0.9998971193415638 0.000102880658436214 0.9990740740740741 0.000925925925925926 0.9990740740740741 0.000925925925925926 0.9999629629629628 3.703703703703703e-005 0.9990740740740741 0.000925925925925926 0.9990740740740741 0.000925925925925926 0.9966503267973855 0.003349673202614379 0.9698529411764706 0.03014705882352941 0.9698529411764706 0.03014705882352941 0.9987941176470589 0.001205882352941176 0.2424632352941177 0.7575367647058824 0.9924632352941177 0.007536764705882354 0.9993847539015606 0.0006152460984393756 0.9966503267973855 0.003349673202614379 0.9998461884753901 0.0001538115246098439 0.9698529411764706 0.03014705882352941 0.9924632352941177 0.007536764705882354 0.9698529411764706 0.03014705882352941 0.9698529411764706 0.03014705882352941 0.9924632352941177 0.007536764705882354 0.9966503267973855 0.003349673202614379 0.999991640725343 8.359274657077058e-006 0.9999883246494459 1.167535055409936e-005 0.9943491303318159 0.00565086966818409 0.5549276811479795 0.4450723188520205 0.9993721255924239 0.0006278744075760098 0.9943491303318159 0.00565086966818409 0.998587282582954 0.001412717417046023 0.9993721255924239 0.0006278744075760098 0.9999974418878822 2.558112117783653e-006 0.9998846761292206 0.0001153238707792671 0.9998846761292206 0.0001153238707792671 0.998587282582954 0.001412717417046023 0.9999985762485089 1.423751491102063e-006 0.998587282582954 0.001412717417046023 0.9993721255924239 0.0006278744075760098 0.999995529534218 4.470465781941193e-006 0.9998882383554514 0.0001117616445485298 0.995976580796253 0.004023419203747073 0.9706089604741194 0.02939103952588061 0.9989941451990633 0.001005854800936768 0.9999597658079626 4.023419203747074e-005 0.9999988039776445 1.196022355453946e-006 0.9999371340749415 6.286592505854802e-005 0.9999985120491112 1.487950888959717e-006 0.995976580796253 0.004023419203747073 0.9999178894040051 8.211059599483822e-005 0.999552953421806 0.0004470465781941192 0.9999963054001801 3.69459981978611e-006 0.995976580796253 0.004023419203747073 0.999986078134243 1.392186575691029e-005 0.9997185584865442 0.000281441513455902 0.9998564073910939 0.0001435926089060724 0.9718558486544098 0.0281441513455902 0.9968728720727121 0.003127127927287801 0.8361603234419267 0.1638396765580733 0.9929639621636026 0.007036037836397552 0.9994256295643756 0.0005743704356242897 0.999902615393268 9.738460673214601e-005 0.9473845206105551 0.05261547938944483 0.9988742339461765 0.001125766053823608 0.9968728720727121 0.003127127927287801 0.9718558486544098 0.0281441513455902 0.9996525413414125 0.0003474586585875333 0.9929639621636026 0.007036037836397552 0.9929639621636026 0.007036037836397552 0.9974505395683453 0.002549460431654677 0.9840658723021583 0.01593412769784173 0.9362634892086331 0.06373651079136691 0.9974505395683453 0.002549460431654677 0.9362634892086331 0.06373651079136691 0.9960164680755396 0.003983531924460432 0.9960164680755396 0.003983531924460432 0.9974505395683453 0.002549460431654677 0.9960164680755396 0.003983531924460432 0.9362634892086331 0.06373651079136691 0.2340658723021583 0.7659341276978418 0.9362634892086331 0.06373651079136691 0.6835164680755396 0.3164835319244604 0.9362634892086331 0.06373651079136691 0.9982295413669065 0.001770458633093525 0.9972106601919296 0.002789339808070297 0.9937239854318418 0.006276014568158171 0.8995837669094693 0.1004162330905307 0.8995837669094693 0.1004162330905307 0.8995837669094693 0.1004162330905307 0.8995837669094693 0.1004162330905307 0.9888426407677189 0.01115735923228119 0.9937239854318418 0.006276014568158171 0.8573314834084865 0.1426685165915135 0.8995837669094693 0.1004162330905307 0.2248959417273673 0.7751040582726327 0.8995837669094693 0.1004162330905307 0.9888426407677189 0.01115735923228119 0.8995837669094693 0.1004162330905307 0.8995837669094693 0.1004162330905307 0.8870967741935484 0.1129032258064516 0.8870967741935484 0.1129032258064516 0.8870967741935484 0.1129032258064516 0.8870967741935484 0.1129032258064516 0.8870967741935484 0.1129032258064516 0.8870967741935484 0.1129032258064516 0.8870967741935484 0.1129032258064516 0.8870967741935484 0.1129032258064516 0.8870967741935484 0.1129032258064516 0.8870967741935484 0.1129032258064516 0.8870967741935484 0.1129032258064516 0.8870967741935484 0.1129032258064516 0.8870967741935484 0.1129032258064516 0.8870967741935484 0.1129032258064516 0.8870967741935484 0.1129032258064516 0.7548076923076924 0.2451923076923077 0.7548076923076924 0.2451923076923077 0.7548076923076924 0.2451923076923077 0.7548076923076924 0.2451923076923077 0.7548076923076924 0.2451923076923077 0.7548076923076924 0.2451923076923077 0.7548076923076924 0.2451923076923077 0.7548076923076924 0.2451923076923077 0.7548076923076924 0.2451923076923077 0.7548076923076924 0.2451923076923077 0.7548076923076924 0.2451923076923077 0.7548076923076924 0.2451923076923077 0.7548076923076924 0.2451923076923077 0.7548076923076924 0.2451923076923077 0.7548076923076924 0.2451923076923077 0.9902903106508875 0.009709689349112427 0.9950460768626976 0.004953923137302259 0.9393144415680473 0.06068555843195266 0.7714176371653335 0.2285823628346665 0.798812715729783 0.201187284270217 0.9902903106508875 0.009709689349112427 0.5102903106508876 0.4897096893491124 0.8875725776627219 0.1124274223372781 0.855582152598003 0.144417847401997 0.7572577662721892 0.2427422337278107 0.3598286103920119 0.6401713896079881 0.97302864069691 0.02697135930309007 0.2154793823964497 0.7845206176035503 0.9393144415680473 0.06068555843195266 0.6473989437230623 0.3526010562769377 0.9999202806122449 7.971938775510206e-005 0.9999489795918368 5.102040816326532e-005 0.9987244897959184 0.001275510204081633 0.9987244897959184 0.001275510204081633 0.999858276643991 0.0001417233560090703 0.9987244897959184 0.001275510204081633 0.9987244897959184 0.001275510204081633 0.9999645691609977 3.543083900226758e-005 0.9999894585933546 1.054140664530275e-005 0.9996811224489797 0.0003188775510204083 0.999858276643991 0.0001417233560090703 0.9987244897959184 0.001275510204081633 0.9999739691795084 2.603082049146189e-005 0.9987244897959184 0.001275510204081633 0.999858276643991 0.0001417233560090703 0.9992071490559774 0.0007928509440225237 0.9839447683835441 0.01605523161645611 0.9357790735341756 0.06422092646582442 0.9092762435662096 0.09072375643379045 0.8354240627251872 0.1645759372748128 0.9982160853759493 0.001783914624050678 0.9992071490559774 0.0007928509440225237 0.997431162941367 0.002568837058632977 0.997431162941367 0.002568837058632977 0.9357790735341756 0.06422092646582442 0.9839447683835441 0.01605523161645611 0.9357790735341756 0.06422092646582442 0.757431162941367 0.242568837058633 0.9839447683835441 0.01605523161645611 0.8893577907353418 0.1106422092646583 0.2057291666666667 0.7942708333333333 0.9557291666666666 0.04427083333333332 0.8229166666666669 0.1770833333333333 0.8229166666666669 0.1770833333333333 0.8229166666666669 0.1770833333333333 0.8229166666666669 0.1770833333333333 0.8229166666666669 0.1770833333333333 0.9557291666666666 0.04427083333333332 0.9803240740740741 0.01967592592592592 0.8229166666666669 0.1770833333333333 0.8229166666666669 0.1770833333333333 0.8229166666666669 0.1770833333333333 0.8229166666666669 0.1770833333333333 0.8229166666666669 0.1770833333333333 0.8229166666666669 0.1770833333333333 0.9997944078947368 0.0002055921052631579 0.9991776315789474 0.0008223684210526318 0.9967105263157896 0.003289473684210527 0.9998684210526316 0.0001315789473684211 0.9967105263157896 0.003289473684210527 0.9967105263157896 0.003289473684210527 0.9967105263157896 0.003289473684210527 0.9997944078947368 0.0002055921052631579 0.9991776315789474 0.0008223684210526318 0.9967105263157896 0.003289473684210527 0.9967105263157896 0.003289473684210527 0.9967105263157896 0.003289473684210527 0.9997944078947368 0.0002055921052631579 0.9967105263157896 0.003289473684210527 0.9997944078947368 0.0002055921052631579 0.9999993471349015 6.528650984847001e-007 0.9999995629580747 4.370419254319067e-007 0.9999471179270228 5.288207297726071e-005 0.9999471179270228 5.288207297726071e-005 0.9999471179270228 5.288207297726071e-005 0.9999867794817557 1.322051824431518e-005 0.9999867794817557 1.322051824431518e-005 0.9999867794817557 1.322051824431518e-005 0.9999998535122631 1.464877367791155e-007 0.9999471179270228 5.288207297726071e-005 0.9999867794817557 1.322051824431518e-005 0.9999471179270228 5.288207297726071e-005 0.9999998800860023 1.199139976808633e-007 0.9999471179270228 5.288207297726071e-005 0.9999471179270228 5.288207297726071e-005 0.9999994694397284 5.305602716468591e-007 0.9999990567817393 9.432182607055272e-007 0.9999660441426146 3.395585738539898e-005 0.9999993070233186 6.92976681334673e-007 0.9999660441426146 3.395585738539898e-005 0.9999993070233186 6.92976681334673e-007 0.999999923002591 7.69974090371859e-008 0.9999993070233186 6.92976681334673e-007 0.9999999566889574 4.331104258341706e-008 0.9999915110356537 8.488964346349745e-006 0.9999978777589136 2.122241086587437e-006 0.9999986417657047 1.358234295415959e-006 0.9999990567817393 9.432182607055272e-007 0.9999660441426146 3.395585738539898e-005 0.9999986417657047 1.358234295415959e-006 0.9999703228869896 2.967711301044635e-005 0.9999810066476734 1.899335232668567e-005 0.9995251661918329 0.0004748338081671416 0.9995251661918329 0.0004748338081671416 0.9995251661918329 0.0004748338081671416 0.9995251661918329 0.0004748338081671416 0.9999472406879814 5.275931201857129e-005 0.9999868101719953 1.318982800464282e-005 0.9999952516619184 4.748338081671416e-006 0.9998812915479582 0.0001187084520417854 0.9995251661918329 0.0004748338081671416 0.9995251661918329 0.0004748338081671416 0.9999472406879814 5.275931201857129e-005 0.9995251661918329 0.0004748338081671416 0.9995251661918329 0.0004748338081671416 0.9990138067061145 0.0009861932938856018 0.9997534516765286 0.0002465483234714005 0.9990138067061145 0.0009861932938856018 0.9997534516765286 0.0002465483234714005 0.9990138067061145 0.0009861932938856018 0.9990138067061145 0.0009861932938856018 0.9999383629191322 6.163708086785012e-005 0.9997534516765286 0.0002465483234714005 0.999890422967346 0.0001095770326539558 0.9990138067061145 0.0009861932938856018 0.9990138067061145 0.0009861932938856018 0.9990138067061145 0.0009861932938856018 0.9990138067061145 0.0009861932938856018 0.9990138067061145 0.0009861932938856018 0.9999605522682447 3.944773175542407e-005 0.6770256232686981 0.3229743767313019 0.8009002770083102 0.1990997229916898 0.8324099722991691 0.167590027700831 0.9581024930747923 0.04189750692520776 0.8324099722991691 0.167590027700831 0.8324099722991691 0.167590027700831 0.8324099722991691 0.167590027700831 0.8324099722991691 0.167590027700831 0.9953447214527547 0.004655278547245306 0.9581024930747923 0.04189750692520776 0.8324099722991691 0.167590027700831 0.8324099722991691 0.167590027700831 0.9813788858110187 0.01862111418898122 0.2081024930747923 0.7918975069252078 0.8324099722991691 0.167590027700831 0.8157894736842105 0.1842105263157895 0.8157894736842105 0.1842105263157895 0.8157894736842105 0.1842105263157895 0.8157894736842105 0.1842105263157895 0.8157894736842105 0.1842105263157895 0.8157894736842105 0.1842105263157895 0.8157894736842105 0.1842105263157895 0.8157894736842105 0.1842105263157895 0.8157894736842105 0.1842105263157895 0.8157894736842105 0.1842105263157895 0.8157894736842105 0.1842105263157895 0.8157894736842105 0.1842105263157895 0.8157894736842105 0.1842105263157895 0.8157894736842105 0.1842105263157895 0.8157894736842105 0.1842105263157895 0.9084507042253521 0.09154929577464789 0.9084507042253521 0.09154929577464789 0.9084507042253521 0.09154929577464789 0.9084507042253521 0.09154929577464789 0.9084507042253521 0.09154929577464789 0.9084507042253521 0.09154929577464789 0.9084507042253521 0.09154929577464789 0.9084507042253521 0.09154929577464789 0.9084507042253521 0.09154929577464789 0.9084507042253521 0.09154929577464789 0.9084507042253521 0.09154929577464789 0.9084507042253521 0.09154929577464789 0.9084507042253521 0.09154929577464789 0.9084507042253521 0.09154929577464789 0.9084507042253521 0.09154929577464789 0.9976167647512618 0.002383235248738125 0.9142035310454274 0.08579646895457249 0.9142035310454274 0.08579646895457249 0.8338118552132866 0.1661881447867135 0.1015781701161586 0.8984218298838413 0.8754839942104373 0.1245160057895626 0.998940784333894 0.001059215666105833 0.9091264134100376 0.09087358658996231 0.9994041911878155 0.0005958088121845313 0.9142035310454274 0.08579646895457249 0.9904670590050474 0.009532940994952499 0.9142035310454274 0.08579646895457249 0.9965681412418171 0.0034318587581829 0.9142035310454274 0.08579646895457249 0.9986594301725849 0.001340569827415195 0.9999481273991078 5.187260089220873e-005 0.9995331465919702 0.0004668534080298786 0.9995331465919702 0.0004668534080298786 0.9998832866479925 0.0001167133520074697 0.9995331465919702 0.0004668534080298786 0.9995331465919702 0.0004668534080298786 0.9998832866479925 0.0001167133520074697 0.9999708216619981 2.917833800186741e-005 0.9999813258636788 1.867413632119514e-005 0.9999953314659196 4.668534080298785e-006 0.9995331465919702 0.0004668534080298786 0.9995331465919702 0.0004668534080298786 0.9995331465919702 0.0004668534080298786 0.9995331465919702 0.0004668534080298786 0.9995331465919702 0.0004668534080298786 0.9999648604961697 3.513950383020591e-005 0.9996837444655282 0.0003162555344718533 0.9996837444655282 0.0003162555344718533 0.9999950585072739 4.941492726122708e-006 0.9999648604961697 3.513950383020591e-005 0.9999950585072739 4.941492726122708e-006 0.9999802340290955 1.976597090449083e-005 0.9999648604961697 3.513950383020591e-005 0.9999935458054189 6.45419458105823e-006 0.9996837444655282 0.0003162555344718533 0.9996837444655282 0.0003162555344718533 0.9996837444655282 0.0003162555344718533 0.9996837444655282 0.0003162555344718533 0.9996837444655282 0.0003162555344718533 0.9999209361163821 7.906388361796333e-005 0.9963235294117647 0.003676470588235294 0.9963235294117647 0.003676470588235294 0.9963235294117647 0.003676470588235294 0.9990808823529411 0.0009191176470588235 0.9963235294117647 0.003676470588235294 0.9963235294117647 0.003676470588235294 0.9963235294117647 0.003676470588235294 0.9963235294117647 0.003676470588235294 0.9998978758169934 0.0001021241830065359 0.9990808823529411 0.0009191176470588235 0.9963235294117647 0.003676470588235294 0.9963235294117647 0.003676470588235294 0.9963235294117647 0.003676470588235294 0.9963235294117647 0.003676470588235294 0.9963235294117647 0.003676470588235294 0.9970588235294118 0.002941176470588235 0.9970588235294118 0.002941176470588235 0.9970588235294118 0.002941176470588235 0.9970588235294118 0.002941176470588235 0.9970588235294118 0.002941176470588235 0.9992647058823529 0.0007352941176470587 0.9996732026143791 0.000326797385620915 0.9992647058823529 0.0007352941176470587 0.9996732026143791 0.000326797385620915 0.9970588235294118 0.002941176470588235 0.9970588235294118 0.002941176470588235 0.9992647058823529 0.0007352941176470587 0.9996732026143791 0.000326797385620915 0.9970588235294118 0.002941176470588235 0.9970588235294118 0.002941176470588235 0.9900000000000001 0.01 0.9900000000000001 0.01 0.9900000000000001 0.01 0.9900000000000001 0.01 0.9900000000000001 0.01 0.9900000000000001 0.01 0.9900000000000001 0.01 0.9975000000000001 0.0025 0.9988888888888888 0.001111111111111111 0.9900000000000001 0.01 0.9900000000000001 0.01 0.9900000000000001 0.01 0.9975000000000001 0.0025 0.9900000000000001 0.01 0.9900000000000001 0.01 0.9979166666666667 0.002083333333333333 0.9916666666666667 0.008333333333333333 0.9916666666666667 0.008333333333333333 0.9916666666666667 0.008333333333333333 0.9916666666666667 0.008333333333333333 0.9916666666666667 0.008333333333333333 0.9916666666666667 0.008333333333333333 0.9979166666666667 0.002083333333333333 0.999074074074074 0.0009259259259259257 0.9916666666666667 0.008333333333333333 0.9916666666666667 0.008333333333333333 0.9916666666666667 0.008333333333333333 0.9979166666666667 0.002083333333333333 0.9916666666666667 0.008333333333333333 0.9916666666666667 0.008333333333333333 0.9994791666666667 0.0005208333333333333 0.9979166666666668 0.002083333333333333 0.9979166666666668 0.002083333333333333 0.9979166666666668 0.002083333333333333 0.9979166666666668 0.002083333333333333 0.9979166666666668 0.002083333333333333 0.9979166666666668 0.002083333333333333 0.9997685185185185 0.0002314814814814814 0.9999421296296296 5.787037037037036e-005 0.9994791666666667 0.0005208333333333333 0.9997685185185185 0.0002314814814814814 0.9979166666666668 0.002083333333333333 0.9979166666666668 0.002083333333333333 0.9979166666666668 0.002083333333333333 0.9979166666666668 0.002083333333333333 0.9993055555555556 0.0006944444444444446 0.9972222222222223 0.002777777777777778 0.9972222222222223 0.002777777777777778 0.9996913580246913 0.000308641975308642 0.9972222222222223 0.002777777777777778 0.9996913580246913 0.000308641975308642 0.9996913580246913 0.000308641975308642 0.9993055555555556 0.0006944444444444446 0.9972222222222223 0.002777777777777778 0.9972222222222223 0.002777777777777778 0.9972222222222223 0.002777777777777778 0.9972222222222223 0.002777777777777778 0.9972222222222223 0.002777777777777778 0.9972222222222223 0.002777777777777778 0.9972222222222223 0.002777777777777778 0.9800000000000001 0.02 0.9800000000000001 0.02 0.9800000000000001 0.02 0.9800000000000001 0.02 0.9800000000000001 0.02 0.9800000000000001 0.02 0.9800000000000001 0.02 0.995 0.005 0.99875 0.00125 0.9800000000000001 0.02 0.9800000000000001 0.02 0.9800000000000001 0.02 0.9800000000000001 0.02 0.9800000000000001 0.02 0.9800000000000001 0.02 0.9 0.1 0.9 0.1 0.9 0.1 0.9 0.1 0.9 0.1 0.9 0.1 0.9 0.1 0.9 0.1 0.9 0.1 0.9 0.1 0.9 0.1 0.9 0.1 0.9 0.1 0.9 0.1 0.9 0.1 0.91 0.09000000000000001 0.91 0.09000000000000001 0.91 0.09000000000000001 0.91 0.09000000000000001 0.91 0.09000000000000001 0.91 0.09000000000000001 0.91 0.09000000000000001 0.91 0.09000000000000001 0.91 0.09000000000000001 0.91 0.09000000000000001 0.91 0.09000000000000001 0.91 0.09000000000000001 0.91 0.09000000000000001 0.91 0.09000000000000001 0.91 0.09000000000000001 0.88244670781893 0.1175532921810699 0.9903037037037037 0.009696296296296293 0.9127333333333334 0.08726666666666667 0.8750603733333334 0.1249396266666667 0.2281833333333334 0.7718166666666666 0.9997306584362139 0.0002693415637860082 0.9374143021914648 0.06258569780853517 0.9544664146187775 0.04553358538122243 0.9998709072978305 0.0001290927021696253 0.9127333333333334 0.08726666666666667 0.9781833333333334 0.02181666666666667 0.9781833333333334 0.02181666666666667 0.5084231292517006 0.4915768707482993 0.9127333333333334 0.08726666666666667 0.88244670781893 0.1175532921810699 0.9999199743918054 8.00256081946223e-005 0.9999199743918054 8.00256081946223e-005 0.9996798975672215 0.0003201024327784892 0.9999199743918054 8.00256081946223e-005 0.9996798975672215 0.0003201024327784892 0.9996798975672215 0.0003201024327784892 0.9999199743918054 8.00256081946223e-005 0.9999949983994878 5.001600512163894e-006 0.9999799935979513 2.000640204865558e-005 0.9999911082657561 8.891734243846923e-006 0.9996798975672215 0.0003201024327784892 0.9996798975672215 0.0003201024327784892 0.9999199743918054 8.00256081946223e-005 0.9999199743918054 8.00256081946223e-005 0.9996798975672215 0.0003201024327784892 0.9999911971830986 8.80281690140845e-006 0.9998591549295774 0.0001408450704225352 0.9998591549295774 0.0001408450704225352 0.99999826117197 1.738828029907842e-006 0.9998591549295774 0.0001408450704225352 0.9999971256108077 2.874389192296636e-006 0.9999988359911536 1.164008846467233e-006 0.9999971256108077 2.874389192296636e-006 0.99999826117197 1.738828029907842e-006 0.9998591549295774 0.0001408450704225352 0.9998591549295774 0.0001408450704225352 0.9998591549295774 0.0001408450704225352 0.9999647887323944 3.52112676056338e-005 0.9998591549295774 0.0001408450704225352 0.9999977992957747 2.200704225352112e-006 0.9973867595818815 0.002613240418118467 0.9993466898954704 0.0006533101045296168 0.9973867595818815 0.002613240418118467 0.9993466898954704 0.0006533101045296168 0.9973867595818815 0.002613240418118467 0.9993466898954704 0.0006533101045296168 0.9973867595818815 0.002613240418118467 0.9997096399535423 0.0002903600464576074 0.9999466685628955 5.333143710445851e-005 0.9997096399535423 0.0002903600464576074 0.9973867595818815 0.002613240418118467 0.9973867595818815 0.002613240418118467 0.9973867595818815 0.002613240418118467 0.9973867595818815 0.002613240418118467 0.9973867595818815 0.002613240418118467 0.9629790940766551 0.03702090592334495 0.9907447735191638 0.009255226480836237 0.9629790940766551 0.03702090592334495 0.9992444713076868 0.0007555286923131621 0.9629790940766551 0.03702090592334495 0.9989716415021293 0.001028358497870693 0.8359791651852377 0.1640208348147621 0.9976861933797909 0.002313806620209059 0.9989716415021293 0.001028358497870693 0.9629790940766551 0.03702090592334495 0.9629790940766551 0.03702090592334495 0.9629790940766551 0.03702090592334495 0.9629790940766551 0.03702090592334495 0.9629790940766551 0.03702090592334495 0.9907447735191638 0.009255226480836237 0.99609375 0.00390625 0.9990234375 0.0009765625 0.99609375 0.00390625 0.99609375 0.00390625 0.99609375 0.00390625 0.99609375 0.00390625 0.99609375 0.00390625 0.999755859375 0.000244140625 0.9990234375 0.0009765625 0.9990234375 0.0009765625 0.99609375 0.00390625 0.99609375 0.00390625 0.9990234375 0.0009765625 0.99609375 0.00390625 0.99609375 0.00390625 0.9965277777777779 0.003472222222222223 0.9965277777777779 0.003472222222222223 0.9965277777777779 0.003472222222222223 0.9991319444444444 0.0008680555555555557 0.9965277777777779 0.003472222222222223 0.9991319444444444 0.0008680555555555557 0.9997829861111112 0.0002170138888888889 0.9991319444444444 0.0008680555555555557 0.9996141975308641 0.0003858024691358025 0.9965277777777779 0.003472222222222223 0.9965277777777779 0.003472222222222223 0.9965277777777779 0.003472222222222223 0.9965277777777779 0.003472222222222223 0.9965277777777779 0.003472222222222223 0.9965277777777779 0.003472222222222223 0.9999899355877617 1.006441223832528e-005 0.9996376811594203 0.0003623188405797102 0.9996376811594203 0.0003623188405797102 0.9996376811594203 0.0003623188405797102 0.9996376811594203 0.0003623188405797102 0.9996376811594203 0.0003623188405797102 0.9999094202898551 9.057971014492755e-005 0.9999926057379472 7.394262052647146e-006 0.9999970056294167 2.99437058330339e-006 0.9999899355877617 1.006441223832528e-005 0.9996376811594203 0.0003623188405797102 0.9996376811594203 0.0003623188405797102 0.9999597423510467 4.025764895330114e-005 0.9996376811594203 0.0003623188405797102 0.9996376811594203 0.0003623188405797102 0.9993606138107417 0.000639386189258312 0.9993606138107417 0.000639386189258312 0.9993606138107417 0.000639386189258312 0.9998401534526854 0.000159846547314578 0.9993606138107417 0.000639386189258312 0.9999822392725206 1.776072747939755e-005 0.9999600383631714 3.99616368286445e-005 0.9998401534526854 0.000159846547314578 0.9999600383631714 3.99616368286445e-005 0.9993606138107417 0.000639386189258312 0.9993606138107417 0.000639386189258312 0.9993606138107417 0.000639386189258312 0.9993606138107417 0.000639386189258312 0.9993606138107417 0.000639386189258312 0.9999600383631714 3.99616368286445e-005 0.9942222222222222 0.005777777777777775 0.8555555555555556 0.1444444444444444 0.8555555555555556 0.1444444444444444 0.9638888888888889 0.0361111111111111 0.8555555555555556 0.1444444444444444 0.9638888888888889 0.0361111111111111 0.8555555555555556 0.1444444444444444 0.6070987654320987 0.3929012345679013 0.9638888888888889 0.0361111111111111 0.9638888888888889 0.0361111111111111 0.8555555555555556 0.1444444444444444 0.8555555555555556 0.1444444444444444 0.9638888888888889 0.0361111111111111 0.8555555555555556 0.1444444444444444 0.8555555555555556 0.1444444444444444 0.8333333333333334 0.1666666666666667 0.8333333333333334 0.1666666666666667 0.8333333333333334 0.1666666666666667 0.8333333333333334 0.1666666666666667 0.8333333333333334 0.1666666666666667 0.8333333333333334 0.1666666666666667 0.8333333333333334 0.1666666666666667 0.8333333333333334 0.1666666666666667 0.8333333333333334 0.1666666666666667 0.8333333333333334 0.1666666666666667 0.8333333333333334 0.1666666666666667 0.8333333333333334 0.1666666666666667 0.8333333333333334 0.1666666666666667 0.8333333333333334 0.1666666666666667 0.8333333333333334 0.1666666666666667 0.8967065868263474 0.1032934131736527 0.8967065868263474 0.1032934131736527 0.8967065868263474 0.1032934131736527 0.8967065868263474 0.1032934131736527 0.8967065868263474 0.1032934131736527 0.8967065868263474 0.1032934131736527 0.8967065868263474 0.1032934131736527 0.8967065868263474 0.1032934131736527 0.8967065868263474 0.1032934131736527 0.8967065868263474 0.1032934131736527 0.8967065868263474 0.1032934131736527 0.8967065868263474 0.1032934131736527 0.8967065868263474 0.1032934131736527 0.8967065868263474 0.1032934131736527 0.8967065868263474 0.1032934131736527 0.9309976603678869 0.06900233963211302 0.9971637314193967 0.002836268580603264 0.8978943310982827 0.1021056689017175 0.9080446661068051 0.09195533389319496 0.6675698997308527 0.3324301002691473 0.9090853799165918 0.09091462008340827 0.9997684678709712 0.0002315321290288379 0.8684404301979607 0.1315595698020393 0.9996466931871912 0.0003533068128087112 0.8978943310982827 0.1021056689017175 0.9979162108387405 0.002083789161259541 0.9984045989234107 0.001595401076589336 0.7651169578120317 0.2348830421879683 0.988654925677587 0.01134507432241306 0.8723515166367615 0.1276484833632386 0.9999972521982414 2.747801758593126e-006 0.9999313049560352 6.869504396482815e-005 0.9993817446043165 0.0006182553956834533 0.9999313049560352 6.869504396482815e-005 0.9993817446043165 0.0006182553956834533 0.9993817446043165 0.0006182553956834533 0.9999613590377698 3.864096223021583e-005 0.9999972521982414 2.747801758593126e-006 0.9999988312752445 1.16872475554528e-006 0.9999613590377698 3.864096223021583e-005 0.9993817446043165 0.0006182553956834533 0.9998454361510791 0.0001545638489208633 0.9999313049560352 6.869504396482815e-005 0.9993817446043165 0.0006182553956834533 0.9993817446043165 0.0006182553956834533 0.9997409761335668 0.0002590238664331693 0.548187765577012 0.4518122344229879 0.9336898901931088 0.06631010980689134 0.9997052884008584 0.0002947115991417393 0.6833556181370692 0.3166443818629307 0.8583389045342673 0.1416610954657327 0.9993368989019311 0.0006631010980689134 0.9986467324529206 0.001353267547079415 0.8757245665455938 0.1242754334544061 0.9336898901931088 0.06631010980689134 0.9336898901931088 0.06631010980689134 0.9834224725482772 0.01657752745172283 0.9834224725482772 0.01657752745172283 0.9336898901931088 0.06631010980689134 0.8893368989019312 0.1106631010980689 0.9997702205882353 0.0002297794117647059 0.9990808823529412 0.0009191176470588237 0.9990808823529412 0.0009191176470588237 0.9990808823529412 0.0009191176470588237 0.9990808823529412 0.0009191176470588237 0.9998978758169934 0.000102124183006536 0.9997702205882353 0.0002297794117647059 0.9999425551470589 5.744485294117648e-005 0.9999856387867647 1.436121323529412e-005 0.9990808823529412 0.0009191176470588237 0.9990808823529412 0.0009191176470588237 0.9990808823529412 0.0009191176470588237 0.9997702205882353 0.0002297794117647059 0.9990808823529412 0.0009191176470588237 0.9990808823529412 0.0009191176470588237 0.9998065015479877 0.000193498452012384 0.9992260061919506 0.000773993808049536 0.9992260061919506 0.000773993808049536 0.9998065015479877 0.000193498452012384 0.9992260061919506 0.000773993808049536 0.9999140006879945 8.599931200550398e-005 0.9999690402476781 3.095975232198145e-005 0.9998065015479877 0.000193498452012384 0.9999690402476781 3.095975232198145e-005 0.9992260061919506 0.000773993808049536 0.9999140006879945 8.599931200550398e-005 0.9992260061919506 0.000773993808049536 0.9999516253869969 4.8374613003096e-005 0.9992260061919506 0.000773993808049536 0.9992260061919506 0.000773993808049536 0.9998076923076923 0.0001923076923076923 0.9992307692307693 0.0007692307692307693 0.9992307692307693 0.0007692307692307693 0.9992307692307693 0.0007692307692307693 0.9992307692307693 0.0007692307692307693 0.9998076923076923 0.0001923076923076923 0.9992307692307693 0.0007692307692307693 0.9999692307692309 3.076923076923077e-005 0.9999692307692309 3.076923076923077e-005 0.9999145299145298 8.547008547008547e-005 0.9992307692307693 0.0007692307692307693 0.9992307692307693 0.0007692307692307693 0.9992307692307693 0.0007692307692307693 0.9992307692307693 0.0007692307692307693 0.9992307692307693 0.0007692307692307693 0.9999894736842105 1.052631578947369e-005 0.9999707602339181 2.923976608187134e-005 0.9997368421052632 0.0002631578947368421 0.9999946294307196 5.370569280343716e-006 0.9997368421052632 0.0002631578947368421 0.9999926900584795 7.309941520467836e-006 0.9999926900584795 7.309941520467836e-006 0.9999946294307196 5.370569280343716e-006 0.9999946294307196 5.370569280343716e-006 0.9997368421052632 0.0002631578947368421 0.9997368421052632 0.0002631578947368421 0.9997368421052632 0.0002631578947368421 0.999983552631579 1.644736842105263e-005 0.9997368421052632 0.0002631578947368421 0.9997368421052632 0.0002631578947368421 0.9999972962157837 2.70378421638926e-006 0.9998675145733971 0.0001324854266030737 0.9998675145733971 0.0001324854266030737 0.9999668786433493 3.312135665076843e-005 0.9998675145733971 0.0001324854266030737 0.9999947005829359 5.29941706412295e-006 0.9998675145733971 0.0001324854266030737 0.9999989050791189 1.094920881017138e-006 0.9999997262697798 2.737302202542846e-007 0.9999917196608373 8.280339162692108e-006 0.9998675145733971 0.0001324854266030737 0.9998675145733971 0.0001324854266030737 0.9999852793970441 1.472060295589708e-005 0.9999917196608373 8.280339162692108e-006 0.9998675145733971 0.0001324854266030737 0.9999296171171171 7.038288288288288e-005 0.9997184684684686 0.0002815315315315315 0.9997184684684686 0.0002815315315315315 0.9999921796796796 7.820320320320317e-006 0.9997184684684686 0.0002815315315315315 0.9999921796796796 7.820320320320317e-006 0.9999887387387387 1.126126126126126e-005 0.9999824042792793 1.759572072072072e-005 0.9999296171171171 7.038288288288288e-005 0.9997184684684686 0.0002815315315315315 0.9997184684684686 0.0002815315315315315 0.9997184684684686 0.0002815315315315315 0.9997184684684686 0.0002815315315315315 0.9997184684684686 0.0002815315315315315 0.9999887387387387 1.126126126126126e-005 0.9872448979591837 0.01275510204081633 0.9489795918367348 0.05102040816326531 0.9489795918367348 0.05102040816326531 0.9489795918367348 0.05102040816326531 0.9872448979591837 0.01275510204081633 0.9489795918367348 0.05102040816326531 0.9489795918367348 0.05102040816326531 0.8759133282942806 0.1240866717057193 0.9994897959183673 0.000510204081632653 0.9489795918367348 0.05102040816326531 0.9872448979591837 0.01275510204081633 0.9489795918367348 0.05102040816326531 0.9489795918367348 0.05102040816326531 0.9489795918367348 0.05102040816326531 0.9489795918367348 0.05102040816326531 0.9285714285714287 0.07142857142857144 0.9285714285714287 0.07142857142857144 0.9285714285714287 0.07142857142857144 0.9285714285714287 0.07142857142857144 0.9285714285714287 0.07142857142857144 0.9285714285714287 0.07142857142857144 0.9285714285714287 0.07142857142857144 0.9285714285714287 0.07142857142857144 0.9285714285714287 0.07142857142857144 0.9285714285714287 0.07142857142857144 0.9285714285714287 0.07142857142857144 0.9285714285714287 0.07142857142857144 0.9285714285714287 0.07142857142857144 0.9285714285714287 0.07142857142857144 0.9285714285714287 0.07142857142857144 0.9187192118226601 0.0812807881773399 0.9187192118226601 0.0812807881773399 0.9187192118226601 0.0812807881773399 0.9187192118226601 0.0812807881773399 0.9187192118226601 0.0812807881773399 0.9187192118226601 0.0812807881773399 0.9187192118226601 0.0812807881773399 0.9187192118226601 0.0812807881773399 0.9187192118226601 0.0812807881773399 0.9187192118226601 0.0812807881773399 0.9187192118226601 0.0812807881773399 0.9187192118226601 0.0812807881773399 0.9187192118226601 0.0812807881773399 0.9187192118226601 0.0812807881773399 0.9187192118226601 0.0812807881773399 0.9230652136124414 0.07693478638755849 0.6825488667524085 0.3174511332475916 0.9207818680385353 0.07921813196146474 0.9310315374513182 0.06896846254868183 0.8351179973069088 0.1648820026930911 0.9332843041720256 0.06671569582797447 0.9443788971413809 0.05562110285861902 0.9393778389861924 0.0606221610138075 0.9564596907431224 0.04354030925687755 0.9207818680385353 0.07921813196146474 0.9801954670096338 0.01980453299036619 0.9911979853376149 0.00880201466238497 0.7175122166881021 0.2824877833118979 0.9801954670096338 0.01980453299036619 0.9091130092023412 0.09088699079765873 0.9997523384353741 0.0002476615646258503 0.9984521152210885 0.001547884778911564 0.9752338435374149 0.02476615646258503 0.2438084608843538 0.7561915391156464 0.9938084608843538 0.006191539115646259 0.9752338435374149 0.02476615646258503 0.9938084608843538 0.006191539115646259 0.9993120512093726 0.0006879487906273618 0.9998534546954878 0.0001465453045123375 0.9990093537414966 0.0009906462585034012 0.9938084608843538 0.006191539115646259 0.9752338435374149 0.02476615646258503 0.9990093537414966 0.0009906462585034012 0.9752338435374149 0.02476615646258503 0.9752338435374149 0.02476615646258503 0.9991261343571634 0.0008738656428366115 0.9952422870556672 0.004757712944332663 0.9571805835010061 0.04281941649899397 0.9412258659984598 0.0587741340015401 0.9892951458752515 0.01070485412474849 0.9982872233400402 0.001712776659959759 0.8358608282347143 0.1641391717652856 0.99957180583501 0.0004281941649899398 0.9996461205248017 0.0003538794751982973 0.9571805835010061 0.04281941649899397 0.9892951458752515 0.01070485412474849 0.9892951458752515 0.01070485412474849 0.8358608282347143 0.1641391717652856 0.9571805835010061 0.04281941649899397 0.9993309466172032 0.0006690533827967808 0.9976958525345623 0.002304147465437788 0.9976958525345623 0.002304147465437788 0.9976958525345623 0.002304147465437788 0.9976958525345623 0.002304147465437788 0.9994239631336406 0.000576036866359447 0.9976958525345623 0.002304147465437788 0.9976958525345623 0.002304147465437788 0.9997439836149513 0.0002560163850486431 0.9997439836149513 0.0002560163850486431 0.9976958525345623 0.002304147465437788 0.9976958525345623 0.002304147465437788 0.9976958525345623 0.002304147465437788 0.9994239631336406 0.000576036866359447 0.9976958525345623 0.002304147465437788 0.9976958525345623 0.002304147465437788 0.9998387096774194 0.0001612903225806452 0.9998387096774194 0.0001612903225806452 0.9993548387096775 0.0006451612903225806 0.999974193548387 2.580645161290322e-005 0.9998387096774194 0.0001612903225806452 0.999974193548387 2.580645161290322e-005 0.9999868334430545 1.316655694535879e-005 0.9999596774193549 4.032258064516129e-005 0.9999283154121864 7.168458781362007e-005 0.9993548387096775 0.0006451612903225806 0.9993548387096775 0.0006451612903225806 0.9993548387096775 0.0006451612903225806 0.9993548387096775 0.0006451612903225806 0.9993548387096775 0.0006451612903225806 0.9999283154121864 7.168458781362007e-005 0.9999785665294924 2.143347050754458e-005 0.9992283950617286 0.0007716049382716052 0.9992283950617286 0.0007716049382716052 0.9998070987654321 0.0001929012345679013 0.9992283950617286 0.0007716049382716052 0.9992283950617286 0.0007716049382716052 0.9998070987654321 0.0001929012345679013 0.9999142661179699 8.573388203017833e-005 0.9999904740131076 9.525986892242038e-006 0.9992283950617286 0.0007716049382716052 0.9992283950617286 0.0007716049382716052 0.9992283950617286 0.0007716049382716052 0.9999842529604435 1.574703955656337e-005 0.9992283950617286 0.0007716049382716052 0.9992283950617286 0.0007716049382716052 0.9997256146232439 0.0002743853767560665 0.9824393358876119 0.01756066411238826 0.9824393358876119 0.01756066411238826 0.9997832016776248 0.0002167983223751636 0.9824393358876119 0.01756066411238826 0.9980488150986235 0.001951184901376473 0.9998960907448972 0.0001039092551028891 0.9992975734355044 0.0007024265644955301 0.9999513555010737 4.864449892628325e-005 0.995609833971903 0.004390166028097064 0.9824393358876119 0.01756066411238826 0.9824393358876119 0.01756066411238826 0.553604370654179 0.4463956293458209 0.9824393358876119 0.01756066411238826 0.9989024584929758 0.001097541507024266 0.9997601061329108 0.0002398938670891374 0.9992227438706313 0.0007772561293688054 0.98056859676578 0.01943140323422013 0.6862855372978612 0.3137144627021388 0.995142149191445 0.004857850808555033 0.98056859676578 0.01943140323422013 0.9978409551961978 0.002159044803802237 0.9997601061329108 0.0002398938670891374 0.9999461733982432 5.382660175684247e-005 0.9992227438706313 0.0007772561293688054 0.98056859676578 0.01943140323422013 0.98056859676578 0.01943140323422013 0.9994602387990494 0.0005397612009505592 0.98056859676578 0.01943140323422013 0.98056859676578 0.01943140323422013 0.886150234741784 0.113849765258216 0.886150234741784 0.113849765258216 0.886150234741784 0.113849765258216 0.9954460093896714 0.00455399061032864 0.886150234741784 0.113849765258216 0.9873500260824204 0.01264997391757955 0.6803843896713615 0.3196156103286385 0.9928843896713615 0.0071156103286385 0.9954460093896714 0.00455399061032864 0.886150234741784 0.113849765258216 0.886150234741784 0.113849765258216 0.886150234741784 0.113849765258216 0.886150234741784 0.113849765258216 0.886150234741784 0.113849765258216 0.221537558685446 0.778462441314554 0.9840449954086317 0.01595500459136823 0.9641012396694215 0.03589876033057853 0.856404958677686 0.1435950413223141 0.856404958677686 0.1435950413223141 0.5396005509641872 0.4603994490358127 0.9641012396694215 0.03589876033057853 0.856404958677686 0.1435950413223141 0.8571313274793388 0.1428686725206612 0.7542561983471074 0.2457438016528926 0.9641012396694215 0.03589876033057853 0.856404958677686 0.1435950413223141 0.9641012396694215 0.03589876033057853 0.9641012396694215 0.03589876033057853 0.9641012396694215 0.03589876033057853 0.856404958677686 0.1435950413223141 0.8409090909090909 0.1590909090909091 0.8409090909090909 0.1590909090909091 0.8409090909090909 0.1590909090909091 0.8409090909090909 0.1590909090909091 0.8409090909090909 0.1590909090909091 0.8409090909090909 0.1590909090909091 0.8409090909090909 0.1590909090909091 0.8409090909090909 0.1590909090909091 0.8409090909090909 0.1590909090909091 0.8409090909090909 0.1590909090909091 0.8409090909090909 0.1590909090909091 0.8409090909090909 0.1590909090909091 0.8409090909090909 0.1590909090909091 0.8409090909090909 0.1590909090909091 0.8409090909090909 0.1590909090909091 0.5131233595800525 0.4868766404199475 0.5131233595800525 0.4868766404199475 0.5131233595800525 0.4868766404199475 0.5131233595800525 0.4868766404199475 0.5131233595800525 0.4868766404199475 0.5131233595800525 0.4868766404199475 0.5131233595800525 0.4868766404199475 0.5131233595800525 0.4868766404199475 0.5131233595800525 0.4868766404199475 0.5131233595800525 0.4868766404199475 0.5131233595800525 0.4868766404199475 0.5131233595800525 0.4868766404199475 0.5131233595800525 0.4868766404199475 0.5131233595800525 0.4868766404199475 0.5131233595800525 0.4868766404199475 0.5992822959015982 0.4007177040984018 0.5757034237059631 0.4242965762940368 0.513157804093386 0.486842195906614 0.6065330795536144 0.3934669204463857 0.2667329099177891 0.7332670900822109 0.7470760222727578 0.2529239777272421 0.9063413736395374 0.09365862636046259 0.5000455287338872 0.4999544712661128 0.7751315780409339 0.2248684219590662 0.513157804093386 0.486842195906614 0.4878192504558352 0.5121807495441647 0.5217242322987732 0.4782757677012267 0.460330360792015 0.5396696392079851 0.454596157269977 0.5454038427300231 0.8314388035745172 0.1685611964254829 0.9002280463468164 0.09977195365318353 0.9642744209319681 0.03572557906803176 0.9275936079647933 0.0724063920352067 0.9919548453294215 0.008045154670578522 0.8637572657995553 0.1362427342004446 0.9275936079647933 0.0724063920352067 0.9275936079647933 0.0724063920352067 0.6829746004977996 0.3170253995022004 0.9333109125311124 0.06668908746888752 0.9818984019911985 0.01810159800880168 0.906269599272695 0.09373040072730506 0.2318984019911983 0.7681015980088017 0.9994971778330888 0.0005028221669111576 0.9996305796324735 0.0003694203675265648 0.9275936079647933 0.0724063920352067 0.9982970757276093 0.001702924272390769 0.9996980965278863 0.0003019034721135989 0.8910128465669909 0.1089871534330092 0.8529722553849526 0.1470277446150473 0.7780914483284404 0.2219085516715595 0.9878903162852211 0.0121096837147788 0.7556405138626796 0.2443594861373204 0.9931883029104369 0.006811697089563075 0.9989101284656701 0.001089871534330092 0.8910128465669909 0.1089871534330092 0.7226897862785789 0.2773102137214211 0.9986544795872466 0.0013455204127532 0.9199571195955133 0.08004288040448671 0.8999257260046859 0.1000742739953141 0.9989101284656701 0.001089871534330092 0.9973958333333334 0.002604166666666668 0.9973958333333334 0.002604166666666668 0.9895833333333335 0.01041666666666667 0.9973958333333334 0.002604166666666668 0.9895833333333335 0.01041666666666667 0.9895833333333335 0.01041666666666667 0.9895833333333335 0.01041666666666667 0.9973958333333334 0.002604166666666668 0.9895833333333335 0.01041666666666667 0.9973958333333334 0.002604166666666668 0.9993489583333334 0.000651041666666667 0.9895833333333335 0.01041666666666667 0.9895833333333335 0.01041666666666667 0.9895833333333335 0.01041666666666667 0.9895833333333335 0.01041666666666667 0.991455078125 0.008544921875 0.86328125 0.13671875 0.86328125 0.13671875 0.9658203125 0.0341796875 0.86328125 0.13671875 0.2158203125 0.7841796875 0.86328125 0.13671875 0.86328125 0.13671875 0.9848090277777778 0.01519097222222222 0.86328125 0.13671875 0.86328125 0.13671875 0.86328125 0.13671875 0.86328125 0.13671875 0.86328125 0.13671875 0.86328125 0.13671875 0.9999964129935721 3.587006427915519e-006 0.9999998565197429 1.434802571166208e-007 0.9999426078971534 5.739210284664831e-005 0.9999856519742884 1.434802571166208e-005 0.9999977043158861 2.295684113865932e-006 0.9999426078971534 5.739210284664831e-005 0.9999426078971534 5.739210284664831e-005 0.9999856519742884 1.434802571166208e-005 0.9999997071831487 2.928168512584097e-007 0.9999426078971534 5.739210284664831e-005 0.999999103248393 8.967516069788798e-007 0.9999426078971534 5.739210284664831e-005 0.9999997449239872 2.550760126517702e-007 0.9999964129935721 3.587006427915519e-006 0.9999426078971534 5.739210284664831e-005 0.999998846214198 1.153785801973435e-006 0.9999984295693252 1.570430674908287e-006 0.9999434644957034 5.653550429669833e-005 0.9999994346449571 5.653550429669833e-007 0.9999964665309815 3.533469018543645e-006 0.9999858661239258 1.413387607417458e-005 0.9999993020308111 6.979691888481274e-007 0.9999977385798282 2.261420171867933e-006 0.9999995327644273 4.672355726999862e-007 0.9999434644957034 5.653550429669833e-005 0.9999977385798282 2.261420171867933e-006 0.9999858661239258 1.413387607417458e-005 0.9999994346449571 5.653550429669833e-007 0.9999977385798282 2.261420171867933e-006 0.9999937182773003 6.281722699633147e-006 0.9881360332294912 0.01186396677050883 0.999956422527932 4.357747206798468e-005 0.9525441329179648 0.04745586708203532 0.9947271258797739 0.005272874120226145 0.8575668628129687 0.1424331371870313 0.9525441329179648 0.04745586708203532 0.9881360332294912 0.01186396677050883 0.9947271258797739 0.005272874120226145 0.999719196052769 0.0002808039472309783 0.9525441329179648 0.04745586708203532 0.9048606283737974 0.09513937162620255 0.9525441329179648 0.04745586708203532 0.9168789593663785 0.08312104063362151 0.9990315129166931 0.0009684870833068431 0.9970340083073728 0.002965991692627207 0.9562260536398467 0.04377394636015325 0.7529961685823756 0.2470038314176245 0.8249042145593871 0.175095785440613 0.3640565134099617 0.6359434865900383 0.8566391283524905 0.1433608716475096 0.9562260536398467 0.04377394636015325 0.8249042145593871 0.175095785440613 0.9890565134099617 0.01094348659003831 0.9562260536398467 0.04377394636015325 0.8249042145593871 0.175095785440613 0.9805449127288207 0.01945508727117922 0.9562260536398467 0.04377394636015325 0.9929961685823756 0.007003831417624522 0.2062260536398468 0.7937739463601532 0.8249042145593871 0.175095785440613 0.7913012312362961 0.2086987687637038 0.4800101247403945 0.5199898752596056 0.4868443245066622 0.5131556754933379 0.1217110811266656 0.8782889188733345 0.2947124824830452 0.7052875175169547 0.8717110811266655 0.1282889188733345 0.4868443245066622 0.5131556754933379 0.4868443245066622 0.5131556754933379 0.5701069425704166 0.4298930574295834 0.4868443245066622 0.5131556754933379 0.4007177216901377 0.5992822783098624 0.4868443245066622 0.5131556754933379 0.6629968229491156 0.3370031770508845 0.9679277702816664 0.03207222971833362 0.1217110811266656 0.8782889188733345 0.4870129870129871 0.512987012987013 0.4870129870129871 0.512987012987013 0.4870129870129871 0.512987012987013 0.4870129870129871 0.512987012987013 0.4870129870129871 0.512987012987013 0.4870129870129871 0.512987012987013 0.4870129870129871 0.512987012987013 0.4870129870129871 0.512987012987013 0.4870129870129871 0.512987012987013 0.4870129870129871 0.512987012987013 0.4870129870129871 0.512987012987013 0.4870129870129871 0.512987012987013 0.4870129870129871 0.512987012987013 0.4870129870129871 0.512987012987013 0.4870129870129871 0.512987012987013 0.5552763819095478 0.4447236180904522 0.5552763819095478 0.4447236180904522 0.5552763819095478 0.4447236180904522 0.5552763819095478 0.4447236180904522 0.5552763819095478 0.4447236180904522 0.5552763819095478 0.4447236180904522 0.5552763819095478 0.4447236180904522 0.5552763819095478 0.4447236180904522 0.5552763819095478 0.4447236180904522 0.5552763819095478 0.4447236180904522 0.5552763819095478 0.4447236180904522 0.5552763819095478 0.4447236180904522 0.5552763819095478 0.4447236180904522 0.5552763819095478 0.4447236180904522 0.5552763819095478 0.4447236180904522 0.3649678400844723 0.6350321599155278 0.7239504099690711 0.2760495900309289 0.5553689721640026 0.4446310278359974 0.5588234112708923 0.4411765887291076 0.3698968898780431 0.630103110121957 0.7566172915319694 0.2433827084680305 0.8813437313955679 0.1186562686044321 0.5882084644670726 0.4117915355329274 0.7596972913789408 0.2403027086210592 0.5553689721640026 0.4446310278359974 0.4423479419623225 0.5576520580376775 0.481575725729801 0.518424274270199 0.5799905301699977 0.4200094698300023 0.4444968662439338 0.5555031337560662 0.6537110685489218 0.3462889314510782 0.9998230549880832 0.0001769450119169221 0.99998272021368 1.727978632001192e-005 0.9601873723186926 0.03981262768130746 0.9993779276924796 0.000622072307520429 0.9999004684307968 9.953156920326865e-005 0.9955763747020769 0.004423625297923051 0.9900468430796732 0.009953156920326865 0.9984074948927477 0.001592505107252298 0.9999177425047907 8.225749520931294e-005 0.9955763747020769 0.004423625297923051 0.866763982697522 0.1332360173024779 0.6850117107699183 0.3149882892300817 0.8191679678633241 0.1808320321366758 0.9998622400426253 0.0001377599573747663 0.9601873723186926 0.03981262768130746 0.9963354527417027 0.003664547258297258 0.751457732082732 0.2485422679172679 0.8680762987012988 0.1319237012987013 0.9458920195974384 0.05410798040256142 0.5016358946608946 0.4983641053391053 0.9973076795653327 0.002692320434667374 0.9917547686688312 0.008245231331168831 0.9989097214768702 0.001090278523129763 0.9996701907467532 0.0003298092532467533 0.9670190746753247 0.03298092532467532 0.750408568507617 0.249591431492383 0.8005626140388537 0.1994373859611463 0.8334295742346296 0.1665704257653703 0.8999276106546514 0.1000723893453485 0.8573136921672078 0.1426863078327922 0.9239999999999999 0.07600000000000001 0.99525 0.004750000000000001 0.9239999999999999 0.07600000000000001 0.9239999999999999 0.07600000000000001 0.981 0.019 0.9239999999999999 0.07600000000000001 0.9239999999999999 0.07600000000000001 0.9239999999999999 0.07600000000000001 0.9978888888888887 0.002111111111111111 0.9239999999999999 0.07600000000000001 0.981 0.019 0.9239999999999999 0.07600000000000001 0.9239999999999999 0.07600000000000001 0.7569600000000001 0.24304 0.9239999999999999 0.07600000000000001 0.8054545454545454 0.1945454545454546 0.9513636363636364 0.04863636363636365 0.8054545454545454 0.1945454545454546 0.6753409090909091 0.3246590909090909 0.2013636363636364 0.7986363636363636 0.8054545454545454 0.1945454545454546 0.8054545454545454 0.1945454545454546 0.8054545454545454 0.1945454545454546 0.9513636363636364 0.04863636363636365 0.8054545454545454 0.1945454545454546 0.9783838383838384 0.02161616161616162 0.8054545454545454 0.1945454545454546 0.9783838383838384 0.02161616161616162 0.8054545454545454 0.1945454545454546 0.8054545454545454 0.1945454545454546 0.8044021938802288 0.1955978061197712 0.9642788097261453 0.03572119027385465 0.9584789796882381 0.04152102031176193 0.9896197449220595 0.01038025507794048 0.9991526322385355 0.000847367761464529 0.9584789796882381 0.04152102031176193 0.9953865532986931 0.004613446701306881 0.9953865532986931 0.004613446701306881 0.9996568510718037 0.0003431489281963796 0.9896197449220595 0.01038025507794048 0.8044021938802288 0.1955978061197712 0.9953865532986931 0.004613446701306881 0.9974049362305149 0.002595063769485121 0.9993512340576287 0.0006487659423712801 0.9584789796882381 0.04152102031176193 0.9996076733322836 0.0003923266677163699 0.9991172649976382 0.0008827350023618325 0.9858762399622107 0.01412376003778932 0.9500813520180549 0.0499186479819451 0.9997793162494095 0.0002206837505904581 0.9997793162494095 0.0002206837505904581 0.9964690599905527 0.00353094000944733 0.9996076733322836 0.0003923266677163699 0.9996076733322836 0.0003923266677163699 0.9858762399622107 0.01412376003778932 0.9991172649976382 0.0008827350023618325 0.9991172649976382 0.0008827350023618325 0.9991172649976382 0.0008827350023618325 0.9997117599992288 0.0002882400007712106 0.9994350495984885 0.0005649504015115727 0.999479860505667 0.0005201394943330428 0.93334858069778 0.06665141930221988 0.9479860505666957 0.05201394943330427 0.7579194420226679 0.2420805579773322 0.9375362839119955 0.06246371608800452 0.9479860505666957 0.05201394943330427 0.986996512641674 0.01300348735832607 0.9967491281604185 0.003250871839581517 0.999892533162328 0.0001074668376721163 0.9479860505666957 0.05201394943330427 0.8947718514467894 0.1052281485532106 0.986996512641674 0.01300348735832607 0.9997968205100262 0.0002031794899738448 0.9998200209362168 0.0001799790637830598 0.9479860505666957 0.05201394943330427 0.975305143853531 0.02469485614646906 0.975305143853531 0.02469485614646906 0.9012205754141239 0.09877942458587623 0.8890122057541412 0.1109877942458588 0.989024508379347 0.01097549162065291 0.9012205754141239 0.09877942458587623 0.989024508379347 0.01097549162065291 0.9960488230165651 0.003951176983435049 0.975305143853531 0.02469485614646906 0.9012205754141239 0.09877942458587623 0.3688262859633827 0.6311737140366173 0.989024508379347 0.01097549162065291 0.9938262859633827 0.006173714036617264 0.975305143853531 0.02469485614646906 0.975305143853531 0.02469485614646906 0.5445951239292013 0.4554048760707987 0.7050052402648303 0.2949947597351698 0.4216978458049887 0.5783021541950113 0.8554244614512472 0.1445755385487528 0.1834840128180902 0.8165159871819097 0.4216978458049887 0.5783021541950113 0.8554244614512472 0.1445755385487528 0.8554244614512472 0.1445755385487528 0.5690890288407029 0.4309109711592971 0.4216978458049887 0.5783021541950113 0.2503893375188321 0.7496106624811677 0.4216978458049887 0.5783021541950113 0.1054244614512472 0.8945755385487528 0.1834840128180902 0.8165159871819097 0.4912997606449987 0.5087002393550012 0.4226190476190476 0.5773809523809523 0.4226190476190476 0.5773809523809523 0.4226190476190476 0.5773809523809523 0.4226190476190476 0.5773809523809523 0.4226190476190476 0.5773809523809523 0.4226190476190476 0.5773809523809523 0.4226190476190476 0.5773809523809523 0.4226190476190476 0.5773809523809523 0.4226190476190476 0.5773809523809523 0.4226190476190476 0.5773809523809523 0.4226190476190476 0.5773809523809523 0.4226190476190476 0.5773809523809523 0.4226190476190476 0.5773809523809523 0.4226190476190476 0.5773809523809523 0.4226190476190476 0.5773809523809523 0.3235414954806902 0.6764585045193098 0.3235414954806902 0.6764585045193098 0.3235414954806902 0.6764585045193098 0.3235414954806902 0.6764585045193098 0.3235414954806902 0.6764585045193098 0.3235414954806902 0.6764585045193098 0.3235414954806902 0.6764585045193098 0.3235414954806902 0.6764585045193098 0.3235414954806902 0.6764585045193098 0.3235414954806902 0.6764585045193098 0.3235414954806902 0.6764585045193098 0.3235414954806902 0.6764585045193098 0.3235414954806902 0.6764585045193098 0.3235414954806902 0.6764585045193098 0.3235414954806902 0.6764585045193098 0.6086374426526835 0.3913625573473165 0.3870927020158816 0.6129072979841185 0.3234689981493347 0.6765310018506653 0.4609860875321439 0.5390139124678561 0.2085494151229449 0.7914505848770551 0.6198859934633408 0.3801140065366592 0.5993729455740348 0.4006270544259653 0.526182425376824 0.473817574623176 0.648423454984868 0.351576545015132 0.3234689981493347 0.6765310018506653 0.3327556047850186 0.6672443952149815 0.2698543625483763 0.7301456374516238 0.3018869119390901 0.6981130880609098 0.3170740991432935 0.6829259008567065 0.5831435127817015 0.4168564872182985 0.925868000629251 0.07413199937074891 0.9468975463599055 0.05310245364009442 0.8805124933328509 0.1194875066671492 0.9975614794557725 0.002438520544227535 0.7908534538916062 0.2091465461083938 0.9701281233332127 0.0298718766667873 0.9701281233332127 0.0298718766667873 0.9975614794557725 0.002438520544227535 0.948675320308333 0.05132467969166697 0.9925320308333032 0.007467969166696825 0.877256359822128 0.1227436401778721 0.7516112653497882 0.2483887346502117 0.8988741373448559 0.1011258626551441 0.8947274901336837 0.1052725098663163 0.9701281233332127 0.0298718766667873 0.9597479823931983 0.04025201760680185 0.8933153802108382 0.1066846197891617 0.9474090244504881 0.05259097554951185 0.8181677215297789 0.1818322784702213 0.6881749445536848 0.3118250554463152 0.9327720160070389 0.06722798399296112 0.9223961025398058 0.07760389746019412 0.9985391395680692 0.001460860431930885 0.8935718906674488 0.1064281093325512 0.9474090244504881 0.05259097554951185 0.8064513416896146 0.1935486583103853 0.6319740902445049 0.3680259097554952 0.6842150299499253 0.3157849700500747 0.9019192441190097 0.0980807558809904 0.9991782660070389 0.0008217339929611227 0.9943797733431878 0.005620226656812021 0.9996487358339492 0.0003512641660507513 0.9494179600886917 0.0505820399113082 0.9494179600886917 0.0505820399113082 0.8759187402480084 0.1240812597519915 0.9494179600886917 0.0505820399113082 0.987354490022173 0.01264550997782705 0.9494179600886917 0.0505820399113082 0.9968386225055432 0.003161377494456762 0.9494179600886917 0.0505820399113082 0.889494179600887 0.1105058203991131 0.9494179600886917 0.0505820399113082 0.9985949433357969 0.001405056664203005 0.987354490022173 0.01264550997782705 0.9494179600886917 0.0505820399113082 0.9151278409090909 0.08487215909090909 0.7566051136363637 0.2433948863636364 0.9151278409090909 0.08487215909090909 0.9966051136363637 0.003394886363636364 0.8580488725142046 0.1419511274857955 0.9151278409090909 0.08487215909090909 0.9787819602272727 0.02121803977272727 0.9946954900568183 0.005304509943181819 0.9982679151205935 0.001732084879406308 0.9787819602272727 0.02121803977272727 0.9091328322285353 0.09086716777146464 0.9151278409090909 0.08487215909090909 0.8350026089981447 0.1649973910018553 0.9946954900568183 0.005304509943181819 0.9787819602272727 0.02121803977272727 0.9994685881270448 0.000531411872955289 0.9846111087328126 0.01538889126718759 0.9659896401308616 0.03401035986913849 0.9962210711256512 0.003778928874348721 0.9555604865974153 0.04443951340258466 0.9914974100327154 0.008502589967284624 0.9914974100327154 0.008502589967284624 0.9962210711256512 0.003778928874348721 0.9998264777557697 0.0001735222442302984 0.9659896401308616 0.03401035986913849 0.9523828359363502 0.04761716406364971 0.9914974100327154 0.008502589967284624 0.9666659621645483 0.03333403783545175 0.9287377317339149 0.07126226826608506 0.9659896401308616 0.03401035986913849 0.9995965584586767 0.0004034415413232207 0.9285872823044583 0.07141271769554167 0.9419044180494562 0.05809558195054378 0.8825367420310168 0.1174632579689832 0.9782444112349704 0.02175558876502967 0.8584672565320227 0.1415327434679773 0.900346317504541 0.09965368249545906 0.9963690261280911 0.003630973871908986 0.9992827705932031 0.0007172294067968367 0.9419044180494562 0.05809558195054378 0.9322060845605693 0.06779391543943071 0.9976761767219783 0.002323823278021752 0.9111256637136339 0.08887433628636604 0.9997730641330057 0.0002269358669943117 0.9983862338347072 0.001613766165292883 0.8573016581632653 0.1426983418367347 0.9728997964836904 0.02710020351630957 0.8673061224489796 0.1326938775510204 0.9917066326530613 0.008293367346938776 0.854549523635985 0.145450476364015 0.8673061224489796 0.1326938775510204 0.8673061224489796 0.1326938775510204 0.9946922448979593 0.005307755102040818 0.7282451814058957 0.2717548185941043 0.5408117913832199 0.45918820861678 0.8421079976261338 0.1578920023738662 0.9917066326530613 0.008293367346938776 0.7896682653061226 0.2103317346938776 0.9992148291269171 0.000785170873082961 0.9668265306122449 0.0331734693877551 0.9303897090751194 0.06961029092488059 0.7496488745222281 0.2503511254777719 0.7215588363004776 0.2784411636995224 0.9943175272714384 0.005682472728561682 0.5202981639590244 0.4797018360409757 0.9690620929222753 0.03093790707772471 0.9690620929222753 0.03093790707772471 0.7215588363004776 0.2784411636995224 0.6700974272687799 0.3299025727312202 0.7215588363004776 0.2784411636995224 0.8568627248683894 0.1431372751316106 0.7215588363004776 0.2784411636995224 0.6668187225382284 0.3331812774617715 0.5088623534520191 0.4911376465479809 0.9825974272687799 0.01740257273122015 0.4165227812177503 0.5834772187822498 0.4633371532092369 0.536662846790763 0.3267382610939112 0.6732617389060888 0.3329211413183695 0.6670788586816305 0.2676170405596246 0.7323829594403754 0.8316845652734778 0.1683154347265222 0.08168456527347781 0.9183154347265222 0.9251931401215456 0.0748068598784543 0.6414521700493062 0.3585478299506937 0.3267382610939112 0.6732617389060888 0.2631627023259807 0.7368372976740193 0.4807486956771012 0.5192513043228987 0.3499472522927299 0.6500527477072701 0.002700316207387696 0.9972996837926124 0.3267382610939112 0.6732617389060888 0.4428104575163399 0.5571895424836602 0.4428104575163399 0.5571895424836602 0.4428104575163399 0.5571895424836602 0.4428104575163399 0.5571895424836602 0.110702614379085 0.889297385620915 0.4428104575163399 0.5571895424836602 0.4428104575163399 0.5571895424836602 0.4428104575163399 0.5571895424836602 0.4428104575163399 0.5571895424836602 0.4428104575163399 0.5571895424836602 0.4428104575163399 0.5571895424836602 0.4428104575163399 0.5571895424836602 0.860702614379085 0.139297385620915 0.4428104575163399 0.5571895424836602 0.4428104575163399 0.5571895424836602 0.1635338345864661 0.836466165413534 0.1635338345864661 0.836466165413534 0.1635338345864661 0.836466165413534 0.1635338345864661 0.836466165413534 0.1635338345864661 0.836466165413534 0.1635338345864661 0.836466165413534 0.1635338345864661 0.836466165413534 0.1635338345864661 0.836466165413534 0.1635338345864661 0.836466165413534 0.1635338345864661 0.836466165413534 0.1635338345864661 0.836466165413534 0.1635338345864661 0.836466165413534 0.1635338345864661 0.836466165413534 0.1635338345864661 0.836466165413534 0.1635338345864661 0.836466165413534 0.1666406445218354 0.8333593554781648 0.01802988046557497 0.981970119534425 0.1622689241901747 0.8377310758098254 0.7905672310475437 0.2094327689524564 0.1026014180776189 0.8973985819223812 0.04056723104754368 0.9594327689524563 0.1622689241901747 0.8377310758098254 0.1622689241901747 0.8377310758098254 0.1622689241901747 0.8377310758098254 0.1622689241901747 0.8377310758098254 0.1584159350851559 0.8415840649148441 0.1622689241901747 0.8377310758098254 0.3933963590052826 0.6066036409947173 0.4624743249100194 0.5375256750899805 0.7905672310475437 0.2094327689524564 0.8646381232905533 0.1353618767094467 0.4585524931622133 0.5414475068377866 0.4585524931622133 0.5414475068377866 0.1146381232905533 0.8853618767094467 0.1145855249316221 0.8854144750683779 0.4585524931622133 0.5414475068377866 0.4585524931622133 0.5414475068377866 0.1146381232905533 0.8853618767094467 0.4585524931622133 0.5414475068377866 0.4585524931622133 0.5414475068377866 0.5554846986801769 0.4445153013198231 0.4585524931622133 0.5414475068377866 0.4585524931622133 0.5414475068377866 0.4585524931622133 0.5414475068377866 0.4585524931622133 0.5414475068377866 0.4976622951586133 0.5023377048413866 0.4789606564275195 0.5210393435724805 0.4789606564275195 0.5210393435724805 0.4789606564275195 0.5210393435724805 0.02993504102671997 0.97006495897328 0.4789606564275195 0.5210393435724805 0.4789606564275195 0.5210393435724805 0.4789606564275195 0.5210393435724805 0.1197401641068799 0.8802598358931202 0.4789606564275195 0.5210393435724805 0.5249726119312478 0.4750273880687522 0.4789606564275195 0.5210393435724805 0.4976622951586133 0.5023377048413866 0.4789606564275195 0.5210393435724805 0.4789606564275195 0.5210393435724805 0.1875 0.8125 0.1875 0.8125 0.1875 0.8125 0.1875 0.8125 0.1875 0.8125 0.1875 0.8125 0.1875 0.8125 0.1875 0.8125 0.1875 0.8125 0.1875 0.8125 0.046875 0.953125 0.1875 0.8125 0.1875 0.8125 0.1875 0.8125 0.1875 0.8125 0.4583333333333333 0.5416666666666666 0.8645833333333335 0.1354166666666667 0.4583333333333333 0.5416666666666666 0.4583333333333333 0.5416666666666666 0.4583333333333333 0.5416666666666666 0.4583333333333333 0.5416666666666666 0.4583333333333333 0.5416666666666666 0.4583333333333333 0.5416666666666666 0.4583333333333333 0.5416666666666666 0.4583333333333333 0.5416666666666666 0.1145833333333334 0.8854166666666667 0.4583333333333333 0.5416666666666666 0.4583333333333333 0.5416666666666666 0.4583333333333333 0.5416666666666666 0.4583333333333333 0.5416666666666666 0.9375 0.0625 0.984375 0.015625 0.9375 0.0625 0.9375 0.0625 0.9375 0.0625 0.9375 0.0625 0.9375 0.0625 0.9375 0.0625 0.9375 0.0625 0.9375 0.0625 0.984375 0.015625 0.9375 0.0625 0.9375 0.0625 0.9375 0.0625 0.9375 0.0625 0.8020833333333333 0.1979166666666667 0.9505208333333335 0.04947916666666669 0.8020833333333333 0.1979166666666667 0.8020833333333333 0.1979166666666667 0.8020833333333333 0.1979166666666667 0.8020833333333333 0.1979166666666667 0.8020833333333333 0.1979166666666667 0.8020833333333333 0.1979166666666667 0.8020833333333333 0.1979166666666667 0.8020833333333333 0.1979166666666667 0.7520833333333333 0.2479166666666667 0.8020833333333333 0.1979166666666667 0.8020833333333333 0.1979166666666667 0.8020833333333333 0.1979166666666667 0.8020833333333333 0.1979166666666667 0.5883152173913043 0.4116847826086957 0.5883152173913043 0.4116847826086957 0.5883152173913043 0.4116847826086957 0.5883152173913043 0.4116847826086957 0.5883152173913043 0.4116847826086957 0.5883152173913043 0.4116847826086957 0.5883152173913043 0.4116847826086957 0.5883152173913043 0.4116847826086957 0.5883152173913043 0.4116847826086957 0.5883152173913043 0.4116847826086957 0.6426147342995169 0.3573852657004831 0.5883152173913043 0.4116847826086957 0.1470788043478261 0.852921195652174 0.5883152173913043 0.4116847826086957 0.5883152173913043 0.4116847826086957 0.0516304347826087 0.9483695652173914 0.0516304347826087 0.9483695652173914 0.0516304347826087 0.9483695652173914 0.0516304347826087 0.9483695652173914 0.01290760869565218 0.9870923913043479 0.0516304347826087 0.9483695652173914 0.0516304347826087 0.9483695652173914 0.0516304347826087 0.9483695652173914 0.0516304347826087 0.9483695652173914 0.0516304347826087 0.9483695652173914 0.001053682342502218 0.9989463176574978 0.0516304347826087 0.9483695652173914 0.0516304347826087 0.9483695652173914 0.0516304347826087 0.9483695652173914 0.0516304347826087 0.9483695652173914 0.1507936507936508 0.8492063492063493 0.1507936507936508 0.8492063492063493 0.1507936507936508 0.8492063492063493 0.1507936507936508 0.8492063492063493 0.009424603174603178 0.9905753968253969 0.1507936507936508 0.8492063492063493 