<?xml version="1.0" encoding="ISO-8859-1"?>
<smile version="1.0" id="Unnamed" numsamples="1000" discsamples="10000">
	<nodes>
		<cpt id="Sex">
			<state id="F" />
			<state id="I" />
			<state id="M" />
			<probabilities>0.3129039832925939 0.3212832431287713 0.3658127735786348</probabilities>
		</cpt>
		<cpt id="Rings">
			<state id="Age1" />
			<state id="Age2" />
			<state id="Age3" />
			<state id="Age4" />
			<state id="Age5" />
			<state id="Age6" />
			<probabilities>0.01771606417284982 0.8163753889878764 0.1194637299513983 0.04261431650311233 0.002633469009374936 0.00119703137538817</probabilities>
		</cpt>
		<cpt id="Whole_weight">
			<state id="WW1" />
			<state id="WW2" />
			<state id="WW3" />
			<state id="WW4" />
			<state id="WW5" />
			<state id="WW6" />
			<parents>Rings Sex</parents>
			<probabilities>0.924475199703249 0.009658584498296475 0.01674310705121725 0.02053814712226673 0.01296272640655299 0.0156222352184177 0.9999995537892149 3.403071352292497e-007 7.573321728841669e-008 8.867996862921973e-009 5.308469692496379e-009 1.599396600396052e-008 0.9997028630169002 3.129102465614632e-005 5.906478488213115e-005 5.973913055861767e-005 8.131313975808571e-005 6.57289032447508e-005 0.03199999642125095 0.2370000169743347 0.5829999922159136 0.1379999936690746 0.007000001415163026 0.002999999304263053 0.362655611845157 0.4921161740450448 0.1435684619046639 0.001659751991198862 1.270466955869325e-010 8.688890413256624e-011 0.08547717667736426 0.2240663933370101 0.5651452276492845 0.1062240665805653 0.01659750905881559 0.002489626696960292 0.004651092286014608 0.1953472808599504 0.5953495602135104 0.186047391873068 0.01395347715174204 0.004651197615714474 0.03636616846102611 0.4727575588970244 0.4545196274775681 0.03635614595780545 2.302323422149512e-007 2.689742337702729e-007 0.00873353876171078 0.1397375589285917 0.6244546739358704 0.1965065058572449 0.02183411645152206 0.008733606065060139 1.669231582769066e-008 0.1219415106105604 0.5731796835251335 0.2682944983476413 0.03658265902083517 1.631803513585844e-006 1.76620563981714e-005 0.1771283077044822 0.7641252326585272 0.05871711278259749 4.552431893173801e-006 7.132366101589999e-006 5.553495130696843e-008 0.05063320887260363 0.6835405494562012 0.2278500822136493 0.01266142758510015 0.02531467633749444 2.657511243433527e-005 0.0001235530128240446 0.7136197474144203 0.1440404227690354 0.0001658197329252439 0.1420238819583607 0.1072967601856644 0.07091702409074686 0.7733247943021344 0.02402416660359188 0.001106238553635264 0.02333101626422718 0.0002044800421542755 0.0002934477754833425 0.7471416186031894 0.2472830499204441 0.0007625560441623146 0.0043148476145668 0.0002238719475546127 0.001040825459365578 0.6592810470547121 0.3279925791577171 0.00977819779738668 0.001683478583263889 0.2137014532692912 0.1412444428284868 0.5972282225989685 0.02576462854782855 0.01542295874691022 0.006638294008514797 0.001087176741994332 0.001560199191737079 0.500399907145707 0.02085053492680253 0.4728248785866914 0.003277303407067608</probabilities>
		</cpt>
		<cpt id="Shucked_weight">
			<state id="MW1" />
			<state id="MW2" />
			<state id="MW3" />
			<state id="MW4" />
			<state id="MW5" />
			<state id="MW6" />
			<parents>Sex Rings</parents>
			<probabilities>0.1469013122414562 0.4804894875727508 0.323641836327532 0.04208117458001728 0.006120981367698818 0.0007652079105450035 0.1539929084038376 0.4620184710165563 0.3309926491871404 0.04499708409048954 0.006999121859508193 0.0009997654424680771 0.1534578764455623 0.5207430068869109 0.2885353788718867 0.03260222766009267 0.004657967506331939 3.542629215486127e-006 0.06201085918363199 0.5720540902117198 0.3412486968232232 0.02460338764554237 7.37467634662508e-005 9.21937241620486e-006 0.01836266403018202 0.6850611859465938 0.1654552295409415 0.1302601468225022 0.0007651226709623522 9.565098881812544e-005 0.03672532806036405 0.6201223718931878 0.330910459081883 0.01052029364500432 0.001530245341924704 0.0001913019776362509 0.9947500297810971 0.004933837801125172 0.0003161282175380817 1.400079796707965e-009 1.400079796707965e-009 1.400079796707965e-009 0.6539415439183683 0.3302865947718691 0.01577186107989843 7.662128240690358e-011 7.662128240690358e-011 7.662128240690358e-011 0.3866696779562933 0.5058148802656118 0.1075154368278127 1.650094046120102e-009 1.650094046120102e-009 1.650094046120102e-009 0.2029723314195792 0.6292018497152367 0.1678258034643063 5.133625921262541e-009 5.133625921262541e-009 5.133625921262541e-009 0.6535019655524256 0.3256332948742614 0.02086446235751339 9.240526658272571e-008 9.240526658272571e-008 9.240526658272571e-008 0.6535019655524256 0.3256332948742614 0.02086446235751339 9.240526658272571e-008 9.240526658272571e-008 9.240526658272571e-008 0.9179319366315617 0.04751307581083004 0.02866491633377406 0.004253932011059208 0.001505242087321879 0.0001308971254532138 0.1983244770864972 0.4498135412587964 0.2929408367855206 0.043153017678367 0.01493785441200101 0.0008302727788180202 0.1007796494187636 0.5803266554700362 0.2534202137536424 0.04366321443526345 0.01745674965597052 0.004353517266324054 0.03974149207894521 0.5934391344763538 0.3160831145417218 0.0380317415013824 0.01268815526091524 1.636214068165172e-005 0.03586387326312326 0.6950261516216602 0.2573298326675482 0.008507864022118415 0.003010484174643757 0.0002617942509064276 0.05977312210520543 0.4917102527027667 0.4288830544459135 0.01417977337019736 0.005017473624406261 0.0004363237515107125</probabilities>
		</cpt>
		<decision id="czy_kupic">
			<state id="Kupic" />
			<state id="NIe_kupic" />
		</decision>
		<utility id="uzytecznosc">
			<parents>czy_kupic Shucked_weight</parents>
			<utilities>-50 -10 40 80 90 100 0 0 0 0 0 0</utilities>
		</utility>
	</nodes>
	<extensions>
		<genie version="1.0" app="GeNIe 2.0.5590.0" name="abalone2" faultnameformat="nodestate">
			<node id="Sex">
				<name>Sex</name>
				<interior color="e5f6f7" />
				<outline color="000080" />
				<font color="000000" name="Arial" size="8" />
				<position>375 226 447 274</position>
			</node>
			<node id="Whole_weight">
				<name>Whole_weight</name>
				<interior color="e5f6f7" />
				<outline color="000080" />
				<font color="000000" name="Arial" size="8" />
				<position>565 342 697 390</position>
			</node>
			<node id="Shucked_weight">
				<name>Shucked_weight</name>
				<interior color="e5f6f7" />
				<outline color="000080" />
				<font color="000000" name="Arial" size="8" />
				<position>572 230 685 278</position>
			</node>
			<node id="Rings">
				<name>Rings</name>
				<interior color="e5f6f7" />
				<outline color="000080" />
				<font color="000000" name="Arial" size="8" />
				<position>381 348 453 396</position>
			</node>
			<textbox>
				<caption>Input file: abalone2.csv\nData rows: 4177\n\nLearning algorithm: Bayesian Search\nElapsed time: 0.171 seconds\nBest score in iteration 6: -13781.9\n\nAlgorithm parameters:\nMax parent count: 8\nIterations: 20\nSample size: 50\nSeed: 0\nLink probability: 0.1\nPrior link probability: 0.001\nMax search time: 0\nUse accuracy as score: no\nNo background knowledge</caption>
				<font color="000000" name="Arial" size="8" />
				<position>10 142 187 380</position>
			</textbox>
			<node id="czy_kupic">
				<name>czy_kupc</name>
				<interior color="e5f6f7" />
				<outline color="000080" />
				<font color="000000" name="Arial" size="8" />
				<position>324 131 404 157</position>
			</node>
			<node id="uzytecznosc">
				<name>uzytecznosc</name>
				<interior color="e5f6f7" />
				<outline color="000080" />
				<font color="000000" name="Arial" size="8" />
				<position>678 130 772 162</position>
			</node>
		</genie>
	</extensions>
</smile>
