<?xml version="1.0" encoding="ISO-8859-1"?>
<smile version="1.0" id="Unnamed" numsamples="1000" discsamples="10000">
	<nodes>
		<cpt id="Sex">
			<state id="F" />
			<state id="I" />
			<state id="M" />
			<probabilities>0.3129039948482667 0.3212832439780527 0.3658127611736806</probabilities>
		</cpt>
		<cpt id="Rings">
			<state id="R1" />
			<state id="R2" />
			<state id="R3" />
			<state id="R4" />
			<probabilities>0.01771186958628494 0.8163630246829541 0.1620936465657449 0.00383145916501611</probabilities>
		</cpt>
		<cpt id="Whole_weight">
			<state id="WW1" />
			<state id="WW2" />
			<state id="WW3" />
			<state id="WW4" />
			<parents>Sex Rings</parents>
			<probabilities>0.246473441535684 0.5852138569970575 0.154486875678967 0.01382582578829139 0.2689774959455901 0.5830022116453518 0.1380164704052737 0.01000382200378451 0.1786794410789788 0.5892121270369028 0.208572103609661 0.02353632827445736 0.022406676503244 0.6895648960906416 0.1958624432435425 0.09216598416257196 0.9975525695911081 0.002383655618118306 6.006678906240729e-005 3.708001711358303e-006 0.8547582666608732 0.1435798683837445 0.001661662029915521 2.029254667907529e-007 0.4361434190823715 0.5227030311067918 0.04115019737093313 3.352439903419836e-006 0.8384695930131233 0.1573212707958082 0.003964408078118882 0.0002447281129496481 0.9274983671753193 0.05772245894471807 0.01256396960729212 0.002215204272670502 0.3095149118339579 0.5651552442698566 0.1062401655854668 0.01908967831071866 0.1238672610736349 0.6394084938169812 0.2042900961037959 0.03243414900558805 0.03928338167902759 0.653889227063883 0.1608056708675602 0.1460217203895293</probabilities>
		</cpt>
		<cpt id="Shucked_weight">
			<state id="SW1" />
			<state id="SW2" />
			<state id="SW3" />
			<state id="SW4" />
			<parents>Whole_weight Rings Sex</parents>
			<probabilities>0.9900000000000001 0.003333333333333334 0.003333333333333334 0.003333333333333334 0.999848484848485 5.050505050505052e-005 5.050505050505052e-005 5.050505050505052e-005 0.9989999999999998 0.0003333333333333333 0.0003333333333333333 0.0003333333333333333 0.9999983396426911 5.534524362976245e-007 5.534524362976245e-007 5.534524362976245e-007 0.9999995651828582 1.449390473330346e-007 1.449390473330346e-007 1.449390473330346e-007 0.9999988013463278 3.9955122406513e-007 3.9955122406513e-007 3.9955122406513e-007 0.9998870822041555 3.763926528154171e-005 3.763926528154171e-005 3.763926528154171e-005 0.9998094512195122 6.351626016260162e-005 6.351626016260162e-005 6.351626016260162e-005 0.9998436522826769 5.211590577444237e-005 5.211590577444237e-005 5.211590577444237e-005 0.25 0.25 0.25 0.25 0.25 0.25 0.25 0.25 0.25 0.25 0.25 0.25 0.25 0.25 0.25 0.25 0.25 0.25 0.25 0.25 0.25 0.25 0.25 0.25 0.5952631723093339 0.4030203312248748 0.001716198773029512 2.976927620172615e-007 0.9001936357968442 0.09979237606509679 1.298898534043132e-005 9.991527184947165e-007 0.599169637285412 0.3978942425737931 0.002935865224998879 2.549157962141946e-007 0.8115081010838311 0.1884849867285999 3.456093784560938e-006 3.456093784560938e-006 0.8416775843783142 0.1582912221598353 1.559673092519808e-005 1.559673092519808e-005 0.8375021504583549 0.1624917053749171 3.072083364054167e-006 3.072083364054167e-006 0.9921875000000002 0.002604166666666667 0.002604166666666667 0.002604166666666667 0.9375 0.02083333333333333 0.02083333333333333 0.02083333333333333 0.9875000000000002 0.004166666666666668 0.004166666666666668 0.004166666666666668 0.25 0.25 0.25 0.25 0.25 0.25 0.25 0.25 0.25 0.25 0.25 0.25 6.68610093337969e-006 0.6954681607873553 0.3045184670107781 6.68610093337969e-006 0.0003097893432465923 0.8900247831474597 0.1093556381660471 0.0003097893432465923 7.2044033313161e-006 0.640853289530561 0.3591323016627763 7.2044033313161e-006 0.03239202657807309 0.8703396087117017 0.09723760305155653 3.076165866863541e-005 0.01017441860465116 0.9578488372093024 0.0314922480620155 0.0004844961240310078 0.0475109011627907 0.7942405523255814 0.158218265503876 3.028100775193798e-005 0.02083333333333333 0.9375 0.02083333333333333 0.02083333333333333 0.0625 0.8125 0.0625 0.0625 0.03125 0.90625 0.03125 0.03125 0.25 0.25 0.25 0.25 0.25 0.25 0.25 0.25 0.25 0.25 0.25 0.25 0.0006684491978609626 0.0006684491978609626 0.9017379679144385 0.09692513368983956 0.007352941176470588 0.007352941176470588 0.9191176470588235 0.0661764705882353 0.0003063725490196079 0.0003063725490196079 0.9549632352941175 0.04442401960784313 0.001736111111111111 0.4045138888888889 0.5850694444444444 0.008680555555555558 0.01388888888888889 0.2361111111111112 0.6805555555555556 0.06944444444444446 0.001262626262626263 0.1123737373737374 0.7891414141414141 0.09722222222222222 0.04166666666666666 0.2083333333333333 0.7083333333333333 0.04166666666666666 0.08333333333333333 0.4166666666666666 0.4166666666666666 0.08333333333333333 0.04166666666666667 0.7083333333333334 0.2083333333333334 0.04166666666666667</probabilities>
		</cpt>
	</nodes>
	<extensions>
		<genie version="1.0" app="GeNIe 2.0.5590.0" name="abalone" faultnameformat="nodestate">
			<node id="Sex">
				<name>Sex</name>
				<interior color="e5f6f7" />
				<outline color="000080" />
				<font color="000000" name="Arial" size="8" />
				<position>300 350 372 398</position>
			</node>
			<node id="Whole_weight">
				<name>Whole_weight</name>
				<interior color="e5f6f7" />
				<outline color="000080" />
				<font color="000000" name="Arial" size="8" />
				<position>516 350 675 398</position>
			</node>
			<node id="Shucked_weight">
				<name>Shucked_weight</name>
				<interior color="e5f6f7" />
				<outline color="000080" />
				<font color="000000" name="Arial" size="8" />
				<position>549 213 687 261</position>
			</node>
			<node id="Rings">
				<name>Rings</name>
				<interior color="e5f6f7" />
				<outline color="000080" />
				<font color="000000" name="Arial" size="8" />
				<position>307 206 379 254</position>
			</node>
			<textbox>
				<caption>Input file: abalone.csv\nData rows: 4177\n\nLearning algorithm: Bayesian Search\nElapsed time: 0.078 seconds\nBest score in iteration 1: -11753.7\n\nAlgorithm parameters:\nMax parent count: 8\nIterations: 20\nSample size: 50\nSeed: 0\nLink probability: 0.1\nPrior link probability: 0.001\nMax search time: 0\nUse accuracy as score: no\nNo background knowledge</caption>
				<font color="000000" name="Arial" size="8" />
				<position>10 78 187 316</position>
			</textbox>
		</genie>
	</extensions>
</smile>
